SVM-light Version V6.02
3 # kernel type
3 # kernel parameter -d 
1 # kernel parameter -g 
1 # kernel parameter -s 
1 # kernel parameter -r 
empty# kernel parameter -u 
21 # highest feature index 
69929 # number of training documents 
2779 # number of support vectors plus 1 
-434.84819 # threshold b, each following line is a SV (starting with alpha*y)
-4.2383812307980059941314721072558 1:0.047426 2:0.047426 3:0.5 4:0.99330699 5:0.017986 6:0.5 7:0.73105901 8:0.017986 9:0.047426 10:0.26894099 11:0.88079703 12:0.119203 13:0.26894099 14:0.047426 15:0.017986 16:0.119203 17:0.119203 18:0.95257401 19:0.119203 20:0.119203 21:0.141204 #
4.2383812386879604616751748835668 1:0.017986 2:0.26894099 3:0.017986 4:0.006693 5:0.047426 6:0.047426 7:0.017986 8:0.006693 9:0.88079703 10:0.5 11:0.88079703 12:0.017986 13:0.119203 14:0.95257401 15:0.017986 16:0.017986 17:0.047426 18:0.73105901 19:0.999089 20:0.26894099 21:0.25463 #
-4.2383812307980059941314721072558 1:0.00012300001 2:4.5000001e-05 3:4.5000001e-05 4:1.7e-05 5:4.5000001e-05 6:4.5000001e-05 7:4.5000001e-05 8:4.5000001e-05 9:0.00033499999 10:0.00091100001 11:0.00091100001 12:4.5000001e-05 13:0.00091100001 14:0.999955 15:1.7e-05 16:4.5000001e-05 17:0.00012300001 18:0.002473 19:0.26894099 20:0.00033499999 21:0.91898102 #
10.850255950842894847596653562505 1:0.002473 2:0.006693 3:0.006693 4:0.982014 5:0.00033499999 6:0.047426 7:0.999089 8:0.00091100001 9:0.006693 10:0.00033499999 11:0.00033499999 12:0.119203 13:0.00091100001 14:0.00033499999 15:0.002473 16:0.26894099 17:0.006693 18:0.00033499999 19:0.00091100001 20:0.00091100001 21:0.42361099 #
-4.2383812307980059941314721072558 1:0.5 2:0.73105901 3:0.73105901 4:0.88079703 5:0.017986 6:0.73105901 7:0.88079703 8:0.5 9:0.88079703 10:0.017986 11:0.26894099 12:0.5 13:0.047426 14:0.017986 15:0.047426 16:0.88079703 17:0.26894099 18:0.88079703 19:0.047426 20:0.047426 21:0.0625 #
10.850255950842894847596653562505 1:0.047426 2:0.006693 3:0.002473 4:0.002473 5:0.119203 6:0.006693 7:0.002473 8:0.002473 9:0.119203 10:0.88079703 11:0.95257401 12:0.006693 13:0.5 14:0.95257401 15:0.002473 16:0.006693 17:0.017986 18:0.982014 19:0.997527 20:0.88079703 21:0.217593 #
-4.2383812307980059941314721072558 1:0.00012300001 2:4.5000001e-05 3:4.5000001e-05 4:1.7e-05 5:0.00012300001 6:4.5000001e-05 7:4.5000001e-05 8:4.5000001e-05 9:0.00033499999 10:0.00091100001 11:0.017986 12:4.5000001e-05 13:0.00091100001 14:0.999955 15:1.7e-05 16:0.00012300001 17:0.00012300001 18:0.002473 19:0.5 20:0.00033499999 21:0.881944 #
10.850255950842894847596653562505 1:0.006693 2:0.006693 3:0.999089 4:0.017986 5:0.002473 6:0.006693 7:0.006693 8:0.99330699 9:0.017986 10:0.00091100001 11:0.00091100001 12:0.006693 13:0.002473 14:0.00091100001 15:0.002473 16:0.119203 17:0.006693 18:0.00091100001 19:0.002473 20:0.00091100001 21:0.460648 #
-4.2383812307980059941314721072558 1:0.26894099 2:0.5 3:0.95257401 4:0.5 5:0.26894099 6:0.5 7:0.5 8:0.5 9:0.73105901 10:0.047426 11:0.5 12:0.73105901 13:0.047426 14:0.017986 15:0.26894099 16:0.88079703 17:0.5 18:0.5 19:0.047426 20:0.26894099 21:0.046296 #
10.850255950842894847596653562505 1:0.5 2:0.006693 3:0.006693 4:0.006693 5:0.017986 6:0.017986 7:0.006693 8:0.006693 9:0.88079703 10:0.95257401 11:0.88079703 12:0.017986 13:0.26894099 14:0.88079703 15:0.006693 16:0.017986 17:0.26894099 18:0.73105901 19:0.982014 20:0.95257401 21:0.138889 #
-4.2383812307980059941314721072558 1:0.5 2:0.88079703 3:0.73105901 4:0.73105901 5:0.73105901 6:0.73105901 7:0.73105901 8:0.26894099 9:0.73105901 10:0.26894099 11:0.26894099 12:0.73105901 13:0.5 14:0.047426 15:0.5 16:0.73105901 17:0.5 18:0.88079703 19:0.047426 20:0.26894099 21:0.025463 #
10.850255950842894847596653562505 1:0.00091100001 2:0.00091100001 3:0.006693 4:0.99966502 5:0.00012300001 6:0.006693 7:0.99330699 8:0.00091100001 9:0.002473 10:0.00012300001 11:0.00012300001 12:0.002473 13:0.00012300001 14:0.00012300001 15:0.00091100001 16:0.002473 17:0.00091100001 18:4.5000001e-05 19:0.00012300001 20:0.00012300001 21:0.59027803 #
-4.2383812307980059941314721072558 1:0.00033499999 2:0.00033499999 3:0.00012300001 4:4.5000001e-05 5:0.00012300001 6:0.00033499999 7:0.00012300001 8:0.00012300001 9:0.006693 10:0.00033499999 11:0.002473 12:0.00033499999 13:0.00033499999 14:0.119203 15:0.00012300001 16:0.002473 17:0.00033499999 18:0.006693 19:0.999955 20:0.00033499999 21:0.93518502 #
10.850255950842894847596653562505 1:0.017986 2:0.99966502 3:0.047426 4:0.00091100001 5:0.002473 6:0.982014 7:0.006693 8:0.00033499999 9:0.006693 10:0.00033499999 11:0.017986 12:0.119203 13:0.002473 14:0.00033499999 15:0.26894099 16:0.002473 17:0.00091100001 18:0.00033499999 19:0.00091100001 20:0.002473 21:0.52083302 #
-4.2383812307980059941314721072558 1:0.73105901 2:0.88079703 3:0.73105901 4:0.73105901 5:0.73105901 6:0.73105901 7:0.73105901 8:0.26894099 9:0.73105901 10:0.26894099 11:0.26894099 12:0.73105901 13:0.5 14:0.047426 15:0.047426 16:0.5 17:0.5 18:0.017986 19:0.047426 20:0.26894099 21:0.018518999 #
-4.2383812307980059941314721072558 1:0.5 2:0.88079703 3:0.73105901 4:0.73105901 5:0.017986 6:0.73105901 7:0.73105901 8:0.26894099 9:0.5 10:0.119203 11:0.26894099 12:0.73105901 13:0.73105901 14:0.047426 15:0.5 16:0.73105901 17:0.5 18:0.26894099 19:0.047426 20:0.26894099 21:0.027778 #
-4.2383812307980059941314721072558 1:0.00091100001 2:0.00012300001 3:4.5000001e-05 4:4.5000001e-05 5:0.00012300001 6:4.5000001e-05 7:4.5000001e-05 8:4.5000001e-05 9:0.00033499999 10:0.006693 11:0.017986 12:4.5000001e-05 13:0.002473 14:0.999955 15:4.5000001e-05 16:0.00012300001 17:0.00012300001 18:0.006693 19:0.26894099 20:0.00091100001 21:0.86342603 #
10.850255950842894847596653562505 1:0.73105901 2:0.017986 3:0.017986 4:0.006693 5:0.119203 6:0.017986 7:0.017986 8:0.017986 9:0.119203 10:0.95257401 11:0.88079703 12:0.017986 13:0.88079703 14:0.88079703 15:0.017986 16:0.047426 17:0.119203 18:0.99330699 19:0.88079703 20:0.73105901 21:0.118056 #
-4.2383812307980059941314721072558 1:0.5 2:0.5 3:0.73105901 4:0.95257401 5:0.017986 6:0.26894099 7:0.88079703 8:0.5 9:0.73105901 10:0.26894099 11:0.119203 12:0.26894099 13:0.5 14:0.017986 15:0.73105901 16:0.5 17:0.73105901 18:0.006693 19:0.017986 20:0.26894099 21:0.050926 #
-4.2383812307980059941314721072558 1:0.00033499999 2:0.00033499999 3:0.00012300001 4:0.00012300001 5:0.00033499999 6:0.00012300001 7:0.00012300001 8:0.00012300001 9:0.00091100001 10:0.006693 11:0.017986 12:0.00012300001 13:0.006693 14:0.999955 15:0.00012300001 16:0.00033499999 17:0.00033499999 18:0.017986 19:0.26894099 20:0.002473 21:0.82175899 #
-4.2383812307980059941314721072558 1:0.119203 2:0.88079703 3:0.5 4:0.73105901 5:0.017986 6:0.73105901 7:0.88079703 8:0.5 9:0.73105901 10:0.119203 11:0.5 12:0.88079703 13:0.26894099 14:0.017986 15:0.73105901 16:0.5 17:0.119203 18:0.017986 19:0.047426 20:0.26894099 21:0.048611 #
-4.2383812307980059941314721072558 1:0.73105901 2:0.73105901 3:0.73105901 4:0.5 5:0.26894099 6:0.5 7:0.73105901 8:0.5 9:0.73105901 10:0.26894099 11:0.5 12:0.73105901 13:0.95257401 14:0.047426 15:0.119203 16:0.5 17:0.5 18:0.017986 19:0.047426 20:0.119203 21:0.027778 #
-4.2383812307980059941314721072558 1:0.73105901 2:0.5 3:0.5 4:0.88079703 5:0.047426 6:0.73105901 7:0.88079703 8:0.5 9:0.26894099 10:0.26894099 11:0.26894099 12:0.26894099 13:0.5 14:0.047426 15:0.73105901 16:0.5 17:0.5 18:0.047426 19:0.047426 20:0.5 21:0.030092999 #
-4.2383812307980059941314721072558 1:0.00091100001 2:0.00091100001 3:0.00033499999 4:0.00012300001 5:0.00033499999 6:0.00091100001 7:0.00033499999 8:0.00012300001 9:0.017986 10:0.00091100001 11:0.00091100001 12:0.00091100001 13:0.002473 14:0.119203 15:0.00033499999 16:0.00091100001 17:0.00091100001 18:0.047426 19:0.999955 20:0.00091100001 21:0.89351898 #
10.850255950842894847596653562505 1:0.73105901 2:0.017986 3:0.017986 4:0.006693 5:0.119203 6:0.017986 7:0.017986 8:0.017986 9:0.119203 10:0.95257401 11:0.88079703 12:0.017986 13:0.88079703 14:0.88079703 15:0.017986 16:0.047426 17:0.119203 18:0.997527 19:0.88079703 20:0.73105901 21:0.12037 #
-4.2383812307980059941314721072558 1:0.00091100001 2:0.00033499999 3:0.00033499999 4:0.00012300001 5:0.00033499999 6:0.00033499999 7:0.00033499999 8:0.00033499999 9:0.002473 10:0.006693 11:0.006693 12:0.00091100001 13:0.006693 14:0.999955 15:0.00012300001 16:0.00033499999 17:0.00091100001 18:0.017986 19:0.119203 20:0.006693 21:0.8125 #
10.850255950842894847596653562505 1:0.00091100001 2:0.00091100001 3:0.006693 4:0.99966502 5:0.00012300001 6:0.006693 7:0.99330699 8:0.00091100001 9:0.002473 10:0.00012300001 11:0.00012300001 12:0.002473 13:0.00012300001 14:0.00012300001 15:0.00091100001 16:0.002473 17:0.00091100001 18:4.5000001e-05 19:0.00012300001 20:0.00012300001 21:0.59027803 #
-4.2383812307980059941314721072558 1:0.73105901 2:0.26894099 3:0.5 4:0.73105901 5:0.5 6:0.5 7:0.88079703 8:0.95257401 9:0.88079703 10:0.119203 11:0.047426 12:0.26894099 13:0.5 14:0.006693 15:0.5 16:0.5 17:0.26894099 18:0.006693 19:0.017986 20:0.26894099 21:0.055555999 #
10.850255950842894847596653562505 1:0.006693 2:0.99966502 3:0.006693 4:0.002473 5:0.00033499999 6:0.982014 7:0.017986 8:0.00091100001 9:0.006693 10:0.00033499999 11:0.002473 12:0.119203 13:0.002473 14:0.00033499999 15:0.00091100001 16:0.006693 17:0.002473 18:0.00091100001 19:0.002473 20:0.002473 21:0.578704 #
-4.2383812307980059941314721072558 1:0.73105901 2:0.5 3:0.73105901 4:0.5 5:0.73105901 6:0.5 7:0.88079703 8:0.95257401 9:0.73105901 10:0.047426 11:0.26894099 12:0.5 13:0.73105901 14:0.017986 15:0.5 16:0.5 17:0.26894099 18:0.017986 19:0.047426 20:0.047426 21:0.046296 #
-4.2383812307980059941314721072558 1:0.00091100001 2:0.00091100001 3:0.00033499999 4:0.00012300001 5:0.00033499999 6:0.00091100001 7:0.00033499999 8:0.00012300001 9:0.017986 10:0.00091100001 11:0.00091100001 12:0.00091100001 13:0.002473 14:0.119203 15:0.00033499999 16:0.00091100001 17:0.00091100001 18:0.047426 19:0.999955 20:0.00091100001 21:0.89351898 #
-4.2383812307980059941314721072558 1:0.26894099 2:0.119203 3:0.5 4:0.88079703 5:0.017986 6:0.88079703 7:0.95257401 8:0.26894099 9:0.047426 10:0.73105901 11:0.5 12:0.26894099 13:0.5 14:0.017986 15:0.047426 16:0.26894099 17:0.88079703 18:0.017986 19:0.017986 20:0.5 21:0.055555999 #
10.850255950842894847596653562505 1:0.73105901 2:0.017986 3:0.017986 4:0.006693 5:0.119203 6:0.017986 7:0.017986 8:0.017986 9:0.119203 10:0.95257401 11:0.88079703 12:0.017986 13:0.88079703 14:0.88079703 15:0.017986 16:0.047426 17:0.119203 18:0.997527 19:0.88079703 20:0.73105901 21:0.12037 #
-4.2383812307980059941314721072558 1:0.5 2:0.119203 3:0.26894099 4:0.73105901 5:0.119203 6:0.88079703 7:0.73105901 8:0.95257401 9:0.047426 10:0.26894099 11:0.26894099 12:0.5 13:0.26894099 14:0.017986 15:0.5 16:0.26894099 17:0.5 18:0.017986 19:0.047426 20:0.73105901 21:0.041666999 #
-4.2383812307980059941314721072558 1:0.006693 2:0.00091100001 3:0.00033499999 4:0.00012300001 5:0.00033499999 6:0.00091100001 7:0.00033499999 8:0.00012300001 9:0.017986 10:0.00091100001 11:0.00091100001 12:0.00091100001 13:0.00091100001 14:0.119203 15:0.00012300001 16:0.00091100001 17:0.00091100001 18:0.047426 19:0.999955 20:0.00091100001 21:0.88657397 #
10.850255950842894847596653562505 1:0.5 2:0.017986 3:0.017986 4:0.006693 5:0.95257401 6:0.017986 7:0.017986 8:0.017986 9:0.047426 10:0.88079703 11:0.5 12:0.017986 13:0.73105901 14:0.982014 15:0.5 16:0.26894099 17:0.26894099 18:0.95257401 19:0.88079703 20:0.88079703 21:0.076389 #
-4.2383812307980059941314721072558 1:0.73105901 2:0.88079703 3:0.73105901 4:0.73105901 5:0.5 6:0.88079703 7:0.73105901 8:0.26894099 9:0.5 10:0.119203 11:0.119203 12:0.73105901 13:0.5 14:0.047426 15:0.119203 16:0.5 17:0.26894099 18:0.047426 19:0.047426 20:0.26894099 21:0.025463 #
-4.2383812307980059941314721072558 1:0.00012300001 2:0.00012300001 3:4.5000001e-05 4:4.5000001e-05 5:0.00012300001 6:4.5000001e-05 7:4.5000001e-05 8:4.5000001e-05 9:0.047426 10:0.00091100001 11:0.006693 12:4.5000001e-05 13:0.002473 14:0.999955 15:4.5000001e-05 16:0.00012300001 17:0.00012300001 18:0.006693 19:0.26894099 20:0.00091100001 21:0.87036997 #
10.850255950842894847596653562505 1:0.00091100001 2:0.00091100001 3:0.017986 4:0.99966502 5:0.00012300001 6:0.017986 7:0.95257401 8:0.002473 9:0.002473 10:0.00012300001 11:0.00012300001 12:0.002473 13:0.00033499999 14:0.00012300001 15:0.00091100001 16:0.002473 17:0.006693 18:4.5000001e-05 19:0.00033499999 20:0.00012300001 21:0.62268502 #
-4.2383812307980059941314721072558 1:0.73105901 2:0.5 3:0.5 4:0.73105901 5:0.119203 6:0.5 7:0.88079703 8:0.119203 9:0.119203 10:0.5 11:0.26894099 12:0.73105901 13:0.5 14:0.017986 15:0.047426 16:0.5 17:0.73105901 18:0.017986 19:0.047426 20:0.73105901 21:0.034722 #
-4.2383812307980059941314721072558 1:0.73105901 2:0.5 3:0.5 4:0.73105901 5:0.119203 6:0.5 7:0.73105901 8:0.119203 9:0.119203 10:0.5 11:0.26894099 12:0.5 13:0.73105901 14:0.017986 15:0.047426 16:0.73105901 17:0.73105901 18:0.006693 19:0.047426 20:0.88079703 21:0.032407001 #
-4.2383812307980059941314721072558 1:0.00012300001 2:0.00012300001 3:4.5000001e-05 4:1.7e-05 5:0.00012300001 6:0.00012300001 7:0.00012300001 8:0.00012300001 9:0.00012300001 10:0.00012300001 11:0.00033499999 12:4.5000001e-05 13:0.00033499999 14:0.26894099 15:4.5000001e-05 16:0.00012300001 17:0.00012300001 18:0.99999797 19:0.017986 20:0.00012300001 21:1.238426 #
-4.2383812307980059941314721072558 1:0.5 2:0.5 3:0.73105901 4:0.95257401 5:0.73105901 6:0.73105901 7:0.73105901 8:0.26894099 9:0.73105901 10:0.047426 11:0.119203 12:0.73105901 13:0.5 14:0.017986 15:0.5 16:0.5 17:0.5 18:0.017986 19:0.047426 20:0.26894099 21:0.041666999 #
-4.2383812307980059941314721072558 1:0.00012300001 2:0.00012300001 3:4.5000001e-05 4:1.7e-05 5:0.00012300001 6:0.00012300001 7:0.00012300001 8:0.00012300001 9:0.00012300001 10:0.00012300001 11:0.00033499999 12:4.5000001e-05 13:0.00033499999 14:0.002473 15:4.5000001e-05 16:0.00012300001 17:0.00012300001 18:0.99999797 19:0.73105901 20:0.00012300001 21:1.236111 #
10.850255950842894847596653562505 1:0.73105901 2:0.017986 3:0.017986 4:0.017986 5:0.95257401 6:0.047426 7:0.017986 8:0.017986 9:0.047426 10:0.88079703 11:0.73105901 12:0.047426 13:0.88079703 14:0.88079703 15:0.017986 16:0.26894099 17:0.5 18:0.88079703 19:0.88079703 20:0.95257401 21:0.085648 #
-4.2383812307980059941314721072558 1:0.119203 2:0.73105901 3:0.5 4:0.73105901 5:0.047426 6:0.73105901 7:0.88079703 8:0.5 9:0.119203 10:0.73105901 11:0.26894099 12:0.88079703 13:0.119203 14:0.047426 15:0.26894099 16:0.5 17:0.88079703 18:0.017986 19:0.047426 20:0.26894099 21:0.043981001 #
-4.2383812307980059941314721072558 1:0.00012300001 2:0.00012300001 3:4.5000001e-05 4:1.7e-05 5:0.00033499999 6:0.00033499999 7:0.00012300001 8:0.00012300001 9:0.00033499999 10:0.00012300001 11:0.00033499999 12:0.00012300001 13:0.00091100001 14:0.006693 15:4.5000001e-05 16:0.00012300001 17:0.00012300001 18:0.99999797 19:0.017986 20:0.00012300001 21:1.252315 #
-4.2383812307980059941314721072558 1:0.73105901 2:0.73105901 3:0.119203 4:0.5 5:0.017986 6:0.88079703 7:0.88079703 8:0.5 9:0.119203 10:0.26894099 11:0.73105901 12:0.26894099 13:0.73105901 14:0.047426 15:0.119203 16:0.73105901 17:0.5 18:0.017986 19:0.047426 20:0.26894099 21:0.034722 #
10.850255950842894847596653562505 1:0.00091100001 2:0.99966502 3:0.002473 4:0.00091100001 5:0.002473 6:0.982014 7:0.047426 8:0.00033499999 9:0.002473 10:0.00033499999 11:0.00033499999 12:0.047426 13:0.00091100001 14:0.00033499999 15:0.00091100001 16:0.002473 17:0.006693 18:0.00033499999 19:0.00091100001 20:0.00033499999 21:0.62036997 #
-4.2383812307980059941314721072558 1:0.26894099 2:0.73105901 3:0.5 4:0.73105901 5:0.047426 6:0.73105901 7:0.73105901 8:0.26894099 9:0.5 10:0.26894099 11:0.119203 12:0.88079703 13:0.88079703 14:0.047426 15:0.5 16:0.5 17:0.73105901 18:0.017986 19:0.047426 20:0.26894099 21:0.034722 #
10.850255950842894847596653562505 1:0.00091100001 2:0.00091100001 3:0.017986 4:0.99966502 5:0.00012300001 6:0.017986 7:0.95257401 8:0.002473 9:0.002473 10:0.00012300001 11:0.00012300001 12:0.002473 13:0.00033499999 14:0.00012300001 15:0.00091100001 16:0.002473 17:0.006693 18:4.5000001e-05 19:0.00033499999 20:0.00012300001 21:0.62036997 #
-4.2383812307980059941314721072558 1:0.00012300001 2:0.00012300001 3:4.5000001e-05 4:4.5000001e-05 5:0.00033499999 6:0.00033499999 7:0.00012300001 8:0.00012300001 9:0.00033499999 10:0.00012300001 11:0.00033499999 12:0.00012300001 13:0.00091100001 14:0.006693 15:4.5000001e-05 16:0.00012300001 17:0.00012300001 18:0.99999797 19:0.017986 20:0.00012300001 21:1.252315 #
-4.2383812307980059941314721072558 1:0.5 2:0.73105901 3:0.73105901 4:0.88079703 5:0.047426 6:0.5 7:0.5 8:0.26894099 9:0.26894099 10:0.26894099 11:0.88079703 12:0.88079703 13:0.26894099 14:0.047426 15:0.047426 16:0.26894099 17:0.73105901 18:0.017986 19:0.047426 20:0.119203 21:0.034722 #
10.850255950842894847596653562505 1:0.26894099 2:0.002473 3:0.017986 4:0.006693 5:0.982014 6:0.006693 7:0.002473 8:0.017986 9:0.119203 10:0.95257401 11:0.5 12:0.006693 13:0.95257401 14:0.88079703 15:0.002473 16:0.119203 17:0.88079703 18:0.999089 19:0.95257401 20:0.73105901 21:0.171296 #
-4.2383812307980059941314721072558 1:0.00012300001 2:0.00012300001 3:4.5000001e-05 4:4.5000001e-05 5:0.00033499999 6:0.00033499999 7:0.00012300001 8:0.00012300001 9:0.00033499999 10:0.00012300001 11:0.00033499999 12:0.00012300001 13:0.00091100001 14:0.006693 15:4.5000001e-05 16:0.00012300001 17:0.00033499999 18:0.99999797 19:0.017986 20:0.00012300001 21:1.252315 #
-4.2383812307980059941314721072558 1:0.5 2:0.73105901 3:0.73105901 4:0.88079703 5:0.047426 6:0.5 7:0.5 8:0.26894099 9:0.26894099 10:0.26894099 11:0.88079703 12:0.88079703 13:0.26894099 14:0.047426 15:0.047426 16:0.26894099 17:0.73105901 18:0.017986 19:0.047426 20:0.119203 21:0.034722 #
-4.2383812307980059941314721072558 1:0.00012300001 2:0.00012300001 3:4.5000001e-05 4:4.5000001e-05 5:0.006693 6:0.00033499999 7:0.00012300001 8:0.00012300001 9:0.00033499999 10:0.00012300001 11:0.00033499999 12:0.00012300001 13:0.00091100001 14:0.017986 15:4.5000001e-05 16:0.00033499999 17:0.00012300001 18:0.99999797 19:0.119203 20:0.00012300001 21:1.219907 #
-4.2383812307980059941314721072558 1:0.5 2:0.73105901 3:0.95257401 4:0.88079703 5:0.017986 6:0.73105901 7:0.73105901 8:0.5 9:0.73105901 10:0.26894099 11:0.26894099 12:0.5 13:0.119203 14:0.017986 15:0.26894099 16:0.73105901 17:0.73105901 18:0.006693 19:0.047426 20:0.047426 21:0.046296 #
-4.2383812307980059941314721072558 1:0.5 2:0.88079703 3:0.119203 4:0.73105901 5:0.047426 6:0.73105901 7:0.88079703 8:0.26894099 9:0.119203 10:0.26894099 11:0.5 12:0.119203 13:0.5 14:0.047426 15:0.047426 16:0.5 17:0.88079703 18:0.017986 19:0.047426 20:0.73105901 21:0.037037 #
-4.2383812307980059941314721072558 1:0.00033499999 2:0.00033499999 3:4.5000001e-05 4:4.5000001e-05 5:0.00033499999 6:0.00033499999 7:0.00012300001 8:0.00033499999 9:0.00033499999 10:0.00033499999 11:0.00091100001 12:0.00012300001 13:0.00091100001 14:0.006693 15:0.00012300001 16:0.00012300001 17:0.00033499999 18:0.99999797 19:0.047426 20:0.00012300001 21:1.236111 #
10.850255950842894847596653562505 1:0.5 2:0.006693 3:0.047426 4:0.006693 5:0.047426 6:0.017986 7:0.017986 8:0.017986 9:0.119203 10:0.95257401 11:0.73105901 12:0.017986 13:0.982014 14:0.982014 15:0.006693 16:0.047426 17:0.119203 18:0.88079703 19:0.95257401 20:0.88079703 21:0.138889 #
10.850255950842894847596653562505 1:0.006693 2:0.997527 3:0.017986 4:0.006693 5:0.00091100001 6:0.999089 7:0.047426 8:0.002473 9:0.017986 10:0.00091100001 11:0.002473 12:0.119203 13:0.006693 14:0.00091100001 15:0.002473 16:0.017986 17:0.006693 18:0.002473 19:0.002473 20:0.002473 21:0.506944 #
-4.2383812307980059941314721072558 1:0.5 2:0.88079703 3:0.88079703 4:0.73105901 5:0.017986 6:0.88079703 7:0.88079703 8:0.119203 9:0.5 10:0.119203 11:0.5 12:0.88079703 13:0.26894099 14:0.047426 15:0.047426 16:0.26894099 17:0.5 18:0.002473 19:0.006693 20:0.119203 21:0.055555999 #
-4.2383812307980059941314721072558 1:0.00033499999 2:0.00033499999 3:0.00012300001 4:4.5000001e-05 5:0.00033499999 6:0.00033499999 7:0.00033499999 8:0.00033499999 9:0.006693 10:0.00033499999 11:0.00091100001 12:0.00012300001 13:0.00091100001 14:0.017986 15:0.00012300001 16:0.00033499999 17:0.00033499999 18:0.99999797 19:0.5 20:0.00033499999 21:1.19213 #
10.850255950842894847596653562505 1:0.002473 2:0.006693 3:0.26894099 4:0.99966502 5:0.00012300001 6:0.017986 7:0.982014 8:0.002473 9:0.017986 10:0.00033499999 11:0.00033499999 12:0.006693 13:0.00033499999 14:0.00033499999 15:0.002473 16:0.006693 17:0.002473 18:0.00012300001 19:0.00033499999 20:0.00033499999 21:0.546296 #
-4.2383812307980059941314721072558 1:0.5 2:0.73105901 3:0.5 4:0.88079703 5:0.26894099 6:0.95257401 7:0.73105901 8:0.26894099 9:0.5 10:0.119203 11:0.26894099 12:0.73105901 13:0.73105901 14:0.047426 15:0.5 16:0.5 17:0.26894099 18:0.047426 19:0.047426 20:0.26894099 21:0.039352 #
10.850255950842894847596653562505 1:0.5 2:0.017986 3:0.006693 4:0.002473 5:0.26894099 6:0.006693 7:0.006693 8:0.006693 9:0.047426 10:0.88079703 11:0.88079703 12:0.017986 13:0.73105901 14:0.73105901 15:0.002473 16:0.047426 17:0.982014 18:0.99330699 19:0.73105901 20:0.73105901 21:0.152778 #
-4.2383812307980059941314721072558 1:0.00091100001 2:0.00012300001 3:4.5000001e-05 4:1.7e-05 5:0.006693 6:0.00012300001 7:0.00012300001 8:0.00091100001 9:0.00012300001 10:0.00091100001 11:0.00091100001 12:4.5000001e-05 13:0.00033499999 14:0.5 15:4.5000001e-05 16:0.00012300001 17:0.00012300001 18:0.99999797 19:0.119203 20:0.00012300001 21:1.162037 #
-4.2383812307980059941314721072558 1:0.73105901 2:0.88079703 3:0.26894099 4:0.73105901 5:0.017986 6:0.88079703 7:0.73105901 8:0.119203 9:0.26894099 10:0.26894099 11:0.5 12:0.73105901 13:0.5 14:0.017986 15:0.047426 16:0.5 17:0.73105901 18:0.017986 19:0.047426 20:0.26894099 21:0.046296 #
-4.2383812307980059941314721072558 1:0.5 2:0.73105901 3:0.73105901 4:0.73105901 5:0.119203 6:0.73105901 7:0.73105901 8:0.5 9:0.26894099 10:0.119203 11:0.119203 12:0.73105901 13:0.73105901 14:0.047426 15:0.73105901 16:0.5 17:0.5 18:0.047426 19:0.119203 20:0.5 21:0.018518999 #
-4.2383812307980059941314721072558 1:0.00033499999 2:0.00033499999 3:0.00012300001 4:4.5000001e-05 5:0.00033499999 6:0.00033499999 7:0.00012300001 8:0.00033499999 9:0.00033499999 10:0.00033499999 11:0.00091100001 12:0.00012300001 13:0.00091100001 14:0.017986 15:0.00012300001 16:0.00033499999 17:0.00033499999 18:0.99999797 19:0.047426 20:0.00012300001 21:1.2268521 #
-4.2383812307980059941314721072558 1:0.5 2:0.73105901 3:0.95257401 4:0.88079703 5:0.047426 6:0.5 7:0.5 8:0.5 9:0.5 10:0.119203 11:0.119203 12:0.5 13:0.5 14:0.047426 15:0.5 16:0.88079703 17:0.5 18:0.017986 19:0.047426 20:0.5 21:0.041666999 #
10.850255950842894847596653562505 1:0.006693 2:0.88079703 3:0.017986 4:0.006693 5:0.002473 6:0.26894099 7:0.047426 8:0.002473 9:0.017986 10:0.00091100001 11:0.00091100001 12:0.99966502 13:0.002473 14:0.00091100001 15:0.006693 16:0.017986 17:0.006693 18:0.00091100001 19:0.002473 20:0.002473 21:0.555556 #
-4.2383812307980059941314721072558 1:0.00033499999 2:0.00033499999 3:4.5000001e-05 4:4.5000001e-05 5:0.00033499999 6:0.00033499999 7:0.00012300001 8:0.00033499999 9:0.00033499999 10:0.00033499999 11:0.00091100001 12:0.00012300001 13:0.00091100001 14:0.006693 15:0.00012300001 16:0.00033499999 17:0.00033499999 18:0.99999797 19:0.047426 20:0.00012300001 21:1.2268521 #
-4.2383812307980059941314721072558 1:0.5 2:0.73105901 3:0.73105901 4:0.73105901 5:0.73105901 6:0.73105901 7:0.73105901 8:0.26894099 9:0.5 10:0.26894099 11:0.26894099 12:0.73105901 13:0.5 14:0.047426 15:0.119203 16:0.5 17:0.5 18:0.047426 19:0.119203 20:0.26894099 21:0.016204 #
10.850255950842894847596653562505 1:0.002473 2:0.006693 3:0.26894099 4:0.99966502 5:0.00012300001 6:0.017986 7:0.982014 8:0.002473 9:0.017986 10:0.00033499999 11:0.00033499999 12:0.006693 13:0.00033499999 14:0.00033499999 15:0.002473 16:0.006693 17:0.002473 18:0.00012300001 19:0.00033499999 20:0.00033499999 21:0.546296 #
10.850255950842894847596653562505 1:0.047426 2:0.017986 3:0.006693 4:0.006693 5:0.26894099 6:0.006693 7:0.006693 8:0.047426 9:0.119203 10:0.95257401 11:0.88079703 12:0.006693 13:0.95257401 14:0.88079703 15:0.26894099 16:0.119203 17:0.88079703 18:0.95257401 19:0.5 20:0.88079703 21:0.12037 #
-4.2383812307980059941314721072558 1:0.5 2:0.73105901 3:0.73105901 4:0.73105901 5:0.88079703 6:0.73105901 7:0.73105901 8:0.5 9:0.119203 10:0.5 11:0.119203 12:0.73105901 13:0.73105901 14:0.047426 15:0.119203 16:0.5 17:0.5 18:0.047426 19:0.119203 20:0.26894099 21:0.025463 #
-4.2383812307980059941314721072558 1:0.00033499999 2:0.00033499999 3:4.5000001e-05 4:4.5000001e-05 5:0.00033499999 6:0.00033499999 7:0.00012300001 8:0.00033499999 9:0.00033499999 10:0.00091100001 11:0.00091100001 12:0.00012300001 13:0.00091100001 14:0.047426 15:4.5000001e-05 16:0.00012300001 17:0.00091100001 18:0.99999797 19:0.047426 20:0.00012300001 21:1.212963 #
-4.2383812307980059941314721072558 1:0.26894099 2:0.73105901 3:0.73105901 4:0.73105901 5:0.119203 6:0.88079703 7:0.88079703 8:0.5 9:0.73105901 10:0.26894099 11:0.26894099 12:0.5 13:0.26894099 14:0.047426 15:0.73105901 16:0.5 17:0.73105901 18:0.047426 19:0.119203 20:0.5 21:0.027778 #
-4.2383812307980059941314721072558 1:0.00033499999 2:0.00033499999 3:0.00012300001 4:0.00012300001 5:0.00033499999 6:0.00033499999 7:0.00033499999 8:0.00033499999 9:0.00033499999 10:0.00033499999 11:0.00091100001 12:0.00033499999 13:0.00091100001 14:0.119203 15:0.00012300001 16:0.00033499999 17:0.00033499999 18:0.99999797 19:0.047426 20:0.00033499999 21:1.189815 #
-4.2383812307980059941314721072558 1:0.5 2:0.5 3:0.73105901 4:0.5 5:0.017986 6:0.73105901 7:0.88079703 8:0.119203 9:0.119203 10:0.26894099 11:0.5 12:0.73105901 13:0.119203 14:0.047426 15:0.047426 16:0.73105901 17:0.88079703 18:0.017986 19:0.047426 20:0.5 21:0.041666999 #
-4.2383812307980059941314721072558 1:0.119203 2:0.73105901 3:0.5 4:0.5 5:0.047426 6:0.73105901 7:0.95257401 8:0.26894099 9:0.119203 10:0.73105901 11:0.26894099 12:0.88079703 13:0.119203 14:0.047426 15:0.119203 16:0.5 17:0.88079703 18:0.017986 19:0.047426 20:0.26894099 21:0.046296 #
-4.2383812307980059941314721072558 1:0.00033499999 2:0.00033499999 3:0.00012300001 4:4.5000001e-05 5:0.00033499999 6:0.00091100001 7:0.00033499999 8:0.00033499999 9:0.00033499999 10:0.00033499999 11:0.00091100001 12:0.00012300001 13:0.00091100001 14:0.017986 15:0.00012300001 16:0.00033499999 17:0.00033499999 18:0.99999797 19:0.047426 20:0.00033499999 21:1.222222 #
10.850255950842894847596653562505 1:0.88079703 2:0.047426 3:0.006693 4:0.006693 5:0.5 6:0.017986 7:0.017986 8:0.047426 9:0.047426 10:0.95257401 11:0.88079703 12:0.017986 13:0.5 14:0.73105901 15:0.006693 16:0.047426 17:0.119203 18:0.95257401 19:0.88079703 20:0.95257401 21:0.111111 #
-4.2383812307980059941314721072558 1:0.73105901 2:0.5 3:0.26894099 4:0.88079703 5:0.047426 6:0.88079703 7:0.88079703 8:0.119203 9:0.26894099 10:0.73105901 11:0.5 12:0.73105901 13:0.26894099 14:0.047426 15:0.047426 16:0.26894099 17:0.26894099 18:0.017986 19:0.047426 20:0.5 21:0.050926 #
-4.2383812307980059941314721072558 1:0.00033499999 2:0.00033499999 3:0.00012300001 4:4.5000001e-05 5:0.00033499999 6:0.00091100001 7:0.00033499999 8:0.00033499999 9:0.00033499999 10:0.00033499999 11:0.00091100001 12:0.00012300001 13:0.00091100001 14:0.017986 15:0.00012300001 16:0.00033499999 17:0.00033499999 18:0.99999797 19:0.047426 20:0.00033499999 21:1.219907 #
-4.2383812307980059941314721072558 1:0.73105901 2:0.88079703 3:0.5 4:0.5 5:0.047426 6:0.73105901 7:0.73105901 8:0.73105901 9:0.26894099 10:0.119203 11:0.26894099 12:0.73105901 13:0.26894099 14:0.119203 15:0.119203 16:0.73105901 17:0.73105901 18:0.017986 19:0.047426 20:0.5 21:0.027778 #
10.850255950842894847596653562505 1:0.002473 2:0.73105901 3:0.017986 4:0.002473 5:0.00033499999 6:0.047426 7:0.017986 8:0.002473 9:0.002473 10:0.00033499999 11:0.00091100001 12:0.99966502 13:0.002473 14:0.00033499999 15:0.002473 16:0.006693 17:0.002473 18:0.00033499999 19:0.00091100001 20:0.00091100001 21:0.61111099 #
-4.2383812307980059941314721072558 1:0.88079703 2:0.88079703 3:0.5 4:0.5 5:0.26894099 6:0.73105901 7:0.73105901 8:0.26894099 9:0.73105901 10:0.119203 11:0.119203 12:0.73105901 13:0.119203 14:0.017986 15:0.047426 16:0.73105901 17:0.5 18:0.017986 19:0.047426 20:0.5 21:0.041666999 #
-4.2383812307980059941314721072558 1:0.00033499999 2:0.00091100001 3:0.00012300001 4:4.5000001e-05 5:0.00033499999 6:0.00091100001 7:0.00033499999 8:0.00033499999 9:0.00033499999 10:0.00033499999 11:0.00091100001 12:0.00012300001 13:0.00091100001 14:0.017986 15:0.00012300001 16:0.00033499999 17:0.00033499999 18:0.99999797 19:0.047426 20:0.00033499999 21:1.219907 #
10.850255950842894847596653562505 1:0.00033499999 2:0.00091100001 3:0.99330699 4:0.99966502 5:0.002473 6:0.002473 7:0.017986 8:0.00091100001 9:0.002473 10:0.00012300001 11:0.00033499999 12:0.002473 13:0.00012300001 14:0.00012300001 15:0.00091100001 16:0.006693 17:0.00091100001 18:4.5000001e-05 19:0.002473 20:0.00012300001 21:0.61111099 #
-4.2383812307980059941314721072558 1:0.5 2:0.88079703 3:0.5 4:0.73105901 5:0.119203 6:0.88079703 7:0.5 8:0.047426 9:0.26894099 10:0.119203 11:0.26894099 12:0.88079703 13:0.73105901 14:0.119203 15:0.5 16:0.26894099 17:0.73105901 18:0.006693 19:0.017986 20:0.5 21:0.039352 #
10.850255950842894847596653562505 1:0.5 2:0.017986 3:0.047426 4:0.017986 5:0.047426 6:0.047426 7:0.017986 8:0.119203 9:0.047426 10:0.26894099 11:0.88079703 12:0.017986 13:0.88079703 14:0.88079703 15:0.017986 16:0.73105901 17:0.88079703 18:0.982014 19:0.95257401 20:0.73105901 21:0.092592999 #
-4.2383812307980059941314721072558 1:0.006693 2:0.00012300001 3:4.5000001e-05 4:4.5000001e-05 5:0.00033499999 6:0.00033499999 7:0.00012300001 8:0.00012300001 9:0.00033499999 10:0.00012300001 11:0.00033499999 12:0.00012300001 13:0.00033499999 14:0.017986 15:4.5000001e-05 16:0.00012300001 17:0.00033499999 18:0.99999797 19:0.119203 20:0.00012300001 21:1.208333 #
-4.2383812307980059941314721072558 1:0.5 2:0.73105901 3:0.26894099 4:0.73105901 5:0.119203 6:0.5 7:0.88079703 8:0.26894099 9:0.119203 10:0.26894099 11:0.5 12:0.73105901 13:0.26894099 14:0.047426 15:0.26894099 16:0.5 17:0.5 18:0.017986 19:0.119203 20:0.5 21:0.025463 #
-4.2383812307980059941314721072558 1:0.00033499999 2:0.00033499999 3:0.00012300001 4:4.5000001e-05 5:0.00033499999 6:0.00091100001 7:0.00033499999 8:0.00033499999 9:0.00033499999 10:0.00033499999 11:0.00091100001 12:0.00033499999 13:0.00091100001 14:0.26894099 15:0.00012300001 16:0.00033499999 17:0.00033499999 18:0.99999797 19:0.047426 20:0.00033499999 21:1.159722 #
-4.2383812307980059941314721072558 1:0.5 2:0.73105901 3:0.5 4:0.5 5:0.047426 6:0.5 7:0.73105901 8:0.73105901 9:0.73105901 10:0.26894099 11:0.26894099 12:0.88079703 13:0.5 14:0.047426 15:0.95257401 16:0.5 17:0.5 18:0.017986 19:0.047426 20:0.26894099 21:0.039352 #
10.850255950842894847596653562505 1:0.002473 2:0.002473 3:0.119203 4:0.99966502 5:0.00033499999 6:0.017986 7:0.88079703 8:0.002473 9:0.047426 10:0.00091100001 11:0.00033499999 12:0.006693 13:0.006693 14:0.00033499999 15:0.002473 16:0.017986 17:0.017986 18:0.00033499999 19:0.002473 20:0.00091100001 21:0.57407397 #
-4.2383812307980059941314721072558 1:0.00012300001 2:0.00012300001 3:4.5000001e-05 4:0.006693 5:0.00012300001 6:0.00033499999 7:0.00012300001 8:0.00033499999 9:0.00012300001 10:0.00012300001 11:0.00033499999 12:0.00012300001 13:0.00033499999 14:0.006693 15:4.5000001e-05 16:0.00012300001 17:0.00012300001 18:0.99999797 19:0.047426 20:0.00012300001 21:1.233796 #
10.850255950842894847596653562505 1:0.73105901 2:0.006693 3:0.006693 4:0.002473 5:0.88079703 6:0.006693 7:0.006693 8:0.26894099 9:0.006693 10:0.88079703 11:0.95257401 12:0.006693 13:0.95257401 14:0.88079703 15:0.006693 16:0.047426 17:0.119203 18:0.73105901 19:0.73105901 20:0.88079703 21:0.127315 #
-4.2383812307980059941314721072558 1:0.5 2:0.73105901 3:0.5 4:0.88079703 5:0.5 6:0.88079703 7:0.73105901 8:0.5 9:0.5 10:0.119203 11:0.26894099 12:0.73105901 13:0.26894099 14:0.047426 15:0.119203 16:0.73105901 17:0.5 18:0.047426 19:0.047426 20:0.119203 21:0.027778 #
-4.2383812307980059941314721072558 1:0.73105901 2:0.5 3:0.5 4:0.5 5:0.119203 6:0.88079703 7:0.88079703 8:0.047426 9:0.119203 10:0.119203 11:0.73105901 12:0.88079703 13:0.88079703 14:0.047426 15:0.119203 16:0.73105901 17:0.26894099 18:0.017986 19:0.047426 20:0.26894099 21:0.048611 #
-4.2383812307980059941314721072558 1:0.00012300001 2:0.00012300001 3:4.5000001e-05 4:0.006693 5:0.00012300001 6:0.00033499999 7:0.00012300001 8:0.00033499999 9:0.00012300001 10:0.00012300001 11:0.00033499999 12:0.00012300001 13:0.00033499999 14:0.006693 15:4.5000001e-05 16:0.00012300001 17:0.00012300001 18:0.99999797 19:0.047426 20:0.00012300001 21:1.233796 #
-4.2383812307980059941314721072558 1:0.73105901 2:0.73105901 3:0.73105901 4:0.26894099 5:0.119203 6:0.73105901 7:0.73105901 8:0.119203 9:0.26894099 10:0.73105901 11:0.73105901 12:0.73105901 13:0.5 14:0.119203 15:0.047426 16:0.73105901 17:0.5 18:0.017986 19:0.047426 20:0.5 21:0.020833001 #
10.850255950842894847596653562505 1:0.00091100001 2:0.999089 3:0.002473 4:0.00091100001 5:0.00033499999 6:0.119203 7:0.006693 8:0.00091100001 9:0.26894099 10:0.00033499999 11:0.00033499999 12:0.997527 13:0.00091100001 14:0.00033499999 15:0.00091100001 16:0.002473 17:0.006693 18:0.00033499999 19:0.00091100001 20:0.00033499999 21:0.53472197 #
-4.2383812307980059941314721072558 1:0.26894099 2:0.95257401 3:0.119203 4:0.119203 5:0.119203 6:0.95257401 7:0.88079703 8:0.047426 9:0.26894099 10:0.119203 11:0.017986 12:0.982014 13:0.26894099 14:0.006693 15:0.017986 16:0.119203 17:0.73105901 18:0.006693 19:0.017986 20:0.73105901 21:0.12037 #
4.2383811847281851470370384049602 1:0.119203 2:0.002473 3:0.002473 4:0.002473 5:0.26894099 6:0.002473 7:0.002473 8:0.047426 9:0.002473 10:0.997527 11:0.73105901 12:0.002473 13:0.26894099 14:0.047426 15:0.002473 16:0.006693 17:0.26894099 18:0.002473 19:0.006693 20:0.982014 21:0.29861099 #
-4.2383812307980059941314721072558 1:0.00091100001 2:0.00091100001 3:0.00012300001 4:0.00033499999 5:0.00033499999 6:0.00033499999 7:0.00012300001 8:0.00033499999 9:0.00033499999 10:0.00033499999 11:0.00091100001 12:0.00012300001 13:0.00091100001 14:0.006693 15:0.00012300001 16:0.00033499999 17:0.00091100001 18:0.99999797 19:0.047426 20:0.00012300001 21:1.217593 #
-4.2383812307980059941314721072558 1:0.5 2:0.88079703 3:0.5 4:0.5 5:0.119203 6:0.88079703 7:0.73105901 8:0.26894099 9:0.88079703 10:0.119203 11:0.5 12:0.88079703 13:0.26894099 14:0.047426 15:0.047426 16:0.26894099 17:0.73105901 18:0.017986 19:0.047426 20:0.26894099 21:0.041666999 #
10.850255950842894847596653562505 1:0.5 2:0.002473 3:0.002473 4:0.00091100001 5:0.017986 6:0.006693 7:0.002473 8:0.002473 9:0.047426 10:0.95257401 11:0.26894099 12:0.002473 13:0.88079703 14:0.982014 15:0.006693 16:0.006693 17:0.26894099 18:0.982014 19:0.95257401 20:0.982014 21:0.203704 #
-4.2383812307980059941314721072558 1:0.26894099 2:0.5 3:0.119203 4:0.73105901 5:0.119203 6:0.5 7:0.88079703 8:0.26894099 9:0.119203 10:0.88079703 11:0.26894099 12:0.73105901 13:0.73105901 14:0.047426 15:0.73105901 16:0.26894099 17:0.26894099 18:0.017986 19:0.047426 20:0.88079703 21:0.039352 #
-4.2383812307980059941314721072558 1:0.00033499999 2:4.5000001e-05 3:1.7e-05 4:1.7e-05 5:4.5000001e-05 6:0.00012300001 7:4.5000001e-05 8:0.00091100001 9:4.5000001e-05 10:4.5000001e-05 11:0.006693 12:4.5000001e-05 13:0.00012300001 14:0.006693 15:0.00033499999 16:0.00033499999 17:0.002473 18:0.99999797 19:0.006693 20:0.00033499999 21:1.217593 #
10.850255950842894847596653562505 1:0.006693 2:0.006693 3:0.119203 4:0.99966502 5:0.00091100001 6:0.047426 7:0.982014 8:0.006693 9:0.017986 10:0.00091100001 11:0.00091100001 12:0.017986 13:0.002473 14:0.00091100001 15:0.006693 16:0.017986 17:0.017986 18:0.00091100001 19:0.002473 20:0.002473 21:0.488426 #
-4.2383812307980059941314721072558 1:0.73105901 2:0.88079703 3:0.26894099 4:0.73105901 5:0.047426 6:0.5 7:0.73105901 8:0.047426 9:0.119203 10:0.73105901 11:0.119203 12:0.73105901 13:0.26894099 14:0.047426 15:0.047426 16:0.26894099 17:0.73105901 18:0.017986 19:0.047426 20:0.88079703 21:0.048611 #
-4.2383812307980059941314721072558 1:0.00033499999 2:0.002473 3:0.00012300001 4:0.00012300001 5:0.00091100001 6:0.00091100001 7:0.00033499999 8:0.002473 9:0.00091100001 10:0.00033499999 11:0.00091100001 12:0.00033499999 13:0.00091100001 14:0.017986 15:0.00012300001 16:0.00033499999 17:0.00033499999 18:0.99999797 19:0.26894099 20:0.00033499999 21:1.171296 #
-4.2383812307980059941314721072558 1:0.88079703 2:0.95257401 3:0.119203 4:0.73105901 5:0.047426 6:0.5 7:0.88079703 8:0.119203 9:0.119203 10:0.119203 11:0.26894099 12:0.73105901 13:0.26894099 14:0.017986 15:0.26894099 16:0.5 17:0.5 18:0.006693 19:0.047426 20:0.5 21:0.048611 #
10.850255950842894847596653562505 1:0.5 2:0.006693 3:0.047426 4:0.006693 5:0.119203 6:0.006693 7:0.017986 8:0.73105901 9:0.119203 10:0.88079703 11:0.88079703 12:0.047426 13:0.88079703 14:0.88079703 15:0.047426 16:0.88079703 17:0.047426 18:0.88079703 19:0.982014 20:0.26894099 21:0.097222 #
-4.2383812307980059941314721072558 1:0.5 2:0.73105901 3:0.73105901 4:0.73105901 5:0.119203 6:0.73105901 7:0.73105901 8:0.119203 9:0.88079703 10:0.5 11:0.5 12:0.73105901 13:0.73105901 14:0.119203 15:0.119203 16:0.5 17:0.5 18:0.047426 19:0.119203 20:0.5 21:0.018518999 #
10.850255950842894847596653562505 1:0.006693 2:0.95257401 3:0.017986 4:0.006693 5:0.00091100001 6:0.119203 7:0.047426 8:0.006693 9:0.017986 10:0.00091100001 11:0.002473 12:0.99966502 13:0.006693 14:0.00091100001 15:0.006693 16:0.017986 17:0.006693 18:0.00091100001 19:0.002473 20:0.006693 21:0.50231498 #
-4.2383812307980059941314721072558 1:0.006693 2:0.002473 3:1.7e-05 4:1.7e-05 5:0.00012300001 6:0.00091100001 7:0.00091100001 8:0.00012300001 9:0.00012300001 10:0.00012300001 11:0.00033499999 12:4.5000001e-05 13:0.002473 14:0.119203 15:1.7e-05 16:4.5000001e-05 17:0.00012300001 18:0.99999797 19:0.017986 20:0.00012300001 21:1.196759 #
-4.2383812307980059941314721072558 1:0.5 2:0.73105901 3:0.73105901 4:0.73105901 5:0.88079703 6:0.73105901 7:0.5 8:0.5 9:0.88079703 10:0.047426 11:0.26894099 12:0.5 13:0.73105901 14:0.047426 15:0.73105901 16:0.5 17:0.5 18:0.017986 19:0.119203 20:0.119203 21:0.030092999 #
10.850255950842894847596653562505 1:0.006693 2:0.006693 3:0.119203 4:0.99966502 5:0.00091100001 6:0.047426 7:0.982014 8:0.006693 9:0.017986 10:0.00091100001 11:0.00091100001 12:0.017986 13:0.002473 14:0.00091100001 15:0.006693 16:0.017986 17:0.017986 18:0.00091100001 19:0.002473 20:0.002473 21:0.488426 #
-4.2383812307980059941314721072558 1:0.00033499999 2:0.00012300001 3:4.5000001e-05 4:4.5000001e-05 5:0.00033499999 6:0.00033499999 7:0.00091100001 8:0.00091100001 9:0.00033499999 10:0.00012300001 11:0.00033499999 12:0.00012300001 13:0.00033499999 14:0.73105901 15:4.5000001e-05 16:0.00012300001 17:0.00033499999 18:0.99999797 19:0.119203 20:0.00033499999 21:1.159722 #
-4.2383812307980059941314721072558 1:0.73105901 2:0.88079703 3:0.26894099 4:0.88079703 5:0.119203 6:0.73105901 7:0.88079703 8:0.119203 9:0.5 10:0.119203 11:0.26894099 12:0.5 13:0.5 14:0.047426 15:0.047426 16:0.5 17:0.5 18:0.017986 19:0.047426 20:0.26894099 21:0.046296 #
10.850255950842894847596653562505 1:0.006693 2:0.73105901 3:0.047426 4:0.006693 5:0.00033499999 6:0.119203 7:0.017986 8:0.002473 9:0.017986 10:0.00091100001 11:0.002473 12:0.99966502 13:0.002473 14:0.00033499999 15:0.002473 16:0.006693 17:0.006693 18:0.00033499999 19:0.002473 20:0.017986 21:0.56481498 #
-4.2383812307980059941314721072558 1:0.5 2:0.73105901 3:0.73105901 4:0.73105901 5:0.047426 6:0.73105901 7:0.73105901 8:0.5 9:0.119203 10:0.119203 11:0.26894099 12:0.73105901 13:0.26894099 14:0.047426 15:0.73105901 16:0.5 17:0.5 18:0.047426 19:0.119203 20:0.5 21:0.018518999 #
10.850255950842894847596653562505 1:0.26894099 2:0.017986 3:0.017986 4:0.017986 5:0.047426 6:0.017986 7:0.017986 8:0.119203 9:0.017986 10:0.95257401 11:0.5 12:0.017986 13:0.73105901 14:0.982014 15:0.119203 16:0.119203 17:0.73105901 18:0.982014 19:0.26894099 20:0.88079703 21:0.101852 #
-4.2383812307980059941314721072558 1:0.00012300001 2:0.00012300001 3:4.5000001e-05 4:4.5000001e-05 5:0.006693 6:0.00033499999 7:0.00012300001 8:0.00012300001 9:0.00033499999 10:0.00012300001 11:0.00033499999 12:0.00012300001 13:0.017986 14:0.006693 15:4.5000001e-05 16:0.00012300001 17:0.00033499999 18:0.99999797 19:0.017986 20:0.00012300001 21:1.238426 #
-4.2383812307980059941314721072558 1:0.88079703 2:0.73105901 3:0.5 4:0.5 5:0.119203 6:0.88079703 7:0.88079703 8:0.26894099 9:0.5 10:0.119203 11:0.26894099 12:0.73105901 13:0.73105901 14:0.047426 15:0.119203 16:0.5 17:0.5 18:0.017986 19:0.047426 20:0.119203 21:0.050926 #
-4.2383812307980059941314721072558 1:0.00033499999 2:0.002473 3:0.00012300001 4:4.5000001e-05 5:0.00033499999 6:0.00091100001 7:0.00033499999 8:0.00033499999 9:0.00033499999 10:0.00033499999 11:0.00091100001 12:0.00033499999 13:0.00091100001 14:0.017986 15:0.00012300001 16:0.00033499999 17:0.002473 18:0.99999797 19:0.047426 20:0.00033499999 21:1.196759 #
-4.2383812307980059941314721072558 1:0.5 2:0.73105901 3:0.5 4:0.5 5:0.047426 6:0.73105901 7:0.5 8:0.26894099 9:0.5 10:0.73105901 11:0.5 12:0.88079703 13:0.73105901 14:0.119203 15:0.26894099 16:0.5 17:0.5 18:0.017986 19:0.047426 20:0.26894099 21:0.025463 #
-4.2383812307980059941314721072558 1:0.5 2:0.73105901 3:0.119203 4:0.73105901 5:0.119203 6:0.5 7:0.73105901 8:0.047426 9:0.119203 10:0.73105901 11:0.88079703 12:0.95257401 13:0.73105901 14:0.047426 15:0.119203 16:0.119203 17:0.119203 18:0.017986 19:0.047426 20:0.5 21:0.043981001 #
-4.2383812307980059941314721072558 1:0.00033499999 2:0.00033499999 3:0.00012300001 4:4.5000001e-05 5:0.00033499999 6:0.00033499999 7:0.00012300001 8:0.00033499999 9:0.00033499999 10:0.00033499999 11:0.00033499999 12:0.00012300001 13:0.00091100001 14:0.006693 15:0.017986 16:0.00033499999 17:0.00033499999 18:0.99999797 19:0.017986 20:0.00012300001 21:1.219907 #
10.850255950842894847596653562505 1:0.88079703 2:0.017986 3:0.017986 4:0.006693 5:0.119203 6:0.017986 7:0.017986 8:0.017986 9:0.26894099 10:0.88079703 11:0.5 12:0.017986 13:0.119203 14:0.73105901 15:0.017986 16:0.047426 17:0.047426 18:0.99330699 19:0.982014 20:0.95257401 21:0.150463 #
-4.2383812307980059941314721072558 1:0.5 2:0.5 3:0.5 4:0.88079703 5:0.006693 6:0.73105901 7:0.88079703 8:0.119203 9:0.119203 10:0.26894099 11:0.017986 12:0.95257401 13:0.119203 14:0.006693 15:0.119203 16:0.5 17:0.73105901 18:0.006693 19:0.017986 20:0.73105901 21:0.067129999 #
-4.2383812307980059941314721072558 1:0.00091100001 2:0.00033499999 3:0.00012300001 4:0.00012300001 5:0.00091100001 6:0.00091100001 7:0.00033499999 8:0.00091100001 9:0.00091100001 10:0.00033499999 11:0.002473 12:0.00033499999 13:0.002473 14:0.017986 15:0.00012300001 16:0.00033499999 17:0.00091100001 18:0.99999797 19:0.119203 20:0.00033499999 21:1.178241 #
10.850255950842894847596653562505 1:0.006693 2:0.006693 3:0.119203 4:0.997527 5:0.00091100001 6:0.047426 7:0.997527 8:0.002473 9:0.017986 10:0.00091100001 11:0.00091100001 12:0.047426 13:0.002473 14:0.00091100001 15:0.006693 16:0.017986 17:0.006693 18:0.00091100001 19:0.002473 20:0.00091100001 21:0.460648 #
-4.2383812307980059941314721072558 1:0.73105901 2:0.73105901 3:0.26894099 4:0.88079703 5:0.119203 6:0.88079703 7:0.73105901 8:0.26894099 9:0.26894099 10:0.119203 11:0.119203 12:0.73105901 13:0.26894099 14:0.047426 15:0.5 16:0.5 17:0.26894099 18:0.017986 19:0.047426 20:0.5 21:0.043981001 #
-4.2383812307980059941314721072558 1:0.73105901 2:0.5 3:0.88079703 4:0.88079703 5:0.017986 6:0.95257401 7:0.88079703 8:0.047426 9:0.26894099 10:0.5 11:0.047426 12:0.73105901 13:0.047426 14:0.017986 15:0.047426 16:0.26894099 17:0.5 18:0.006693 19:0.047426 20:0.5 21:0.069444001 #
-4.2383812307980059941314721072558 1:0.00033499999 2:0.00033499999 3:0.00012300001 4:4.5000001e-05 5:0.00033499999 6:0.00091100001 7:0.00033499999 8:0.00033499999 9:0.00033499999 10:0.00033499999 11:0.00091100001 12:0.00033499999 13:0.017986 14:0.119203 15:0.00012300001 16:0.00033499999 17:0.00033499999 18:0.99999797 19:0.119203 20:0.00033499999 21:1.1875 #
-4.2383812307980059941314721072558 1:0.5 2:0.5 3:0.5 4:0.88079703 5:0.006693 6:0.73105901 7:0.88079703 8:0.047426 9:0.119203 10:0.26894099 11:0.017986 12:0.95257401 13:0.119203 14:0.006693 15:0.119203 16:0.5 17:0.73105901 18:0.006693 19:0.017986 20:0.73105901 21:0.067129999 #
10.850255950842894847596653562505 1:0.26894099 2:0.006693 3:0.002473 4:0.002473 5:0.017986 6:0.006693 7:0.006693 8:0.002473 9:0.006693 10:0.95257401 11:0.88079703 12:0.006693 13:0.5 14:0.982014 15:0.26894099 16:0.017986 17:0.119203 18:0.982014 19:0.5 20:0.95257401 21:0.168981 #
10.850255950842894847596653562505 1:0.002473 2:0.002473 3:0.047426 4:0.99966502 5:0.00033499999 6:0.006693 7:0.5 8:0.006693 9:0.002473 10:0.00033499999 11:0.00033499999 12:0.006693 13:0.00033499999 14:0.00033499999 15:0.002473 16:0.006693 17:0.006693 18:0.00012300001 19:0.00033499999 20:0.00033499999 21:0.66203701 #
-4.2383812307980059941314721072558 1:0.00091100001 2:0.00091100001 3:0.00012300001 4:0.00012300001 5:0.00091100001 6:0.00091100001 7:0.00033499999 8:0.00091100001 9:0.00091100001 10:0.00091100001 11:0.002473 12:0.00033499999 13:0.002473 14:0.017986 15:0.00033499999 16:0.00033499999 17:0.00091100001 18:0.99999797 19:0.119203 20:0.00033499999 21:1.166667 #
10.850255950842894847596653562505 1:0.006693 2:0.73105901 3:0.017986 4:0.006693 5:0.00091100001 6:0.26894099 7:0.047426 8:0.002473 9:0.047426 10:0.00091100001 11:0.00091100001 12:0.99966502 13:0.006693 14:0.00091100001 15:0.006693 16:0.017986 17:0.017986 18:0.00091100001 19:0.002473 20:0.006693 21:0.55324101 #
-4.2383812307980059941314721072558 1:0.5 2:0.73105901 3:0.5 4:0.73105901 5:0.047426 6:0.73105901 7:0.5 8:0.5 9:0.73105901 10:0.26894099 11:0.26894099 12:0.73105901 13:0.5 14:0.047426 15:0.5 16:0.73105901 17:0.5 18:0.047426 19:0.119203 20:0.5 21:0.020833001 #
-4.2383812307980059941314721072558 1:0.73105901 2:0.88079703 3:0.5 4:0.5 5:0.017986 6:0.88079703 7:0.88079703 8:0.26894099 9:0.5 10:0.119203 11:0.26894099 12:0.73105901 13:0.26894099 14:0.047426 15:0.047426 16:0.5 17:0.26894099 18:0.017986 19:0.119203 20:0.73105901 21:0.046296 #
-4.2383812307980059941314721072558 1:0.00091100001 2:0.00091100001 3:0.00012300001 4:0.00012300001 5:0.00091100001 6:0.00091100001 7:0.00033499999 8:0.00091100001 9:0.00091100001 10:0.00091100001 11:0.002473 12:0.00033499999 13:0.002473 14:0.017986 15:0.00033499999 16:0.00033499999 17:0.00091100001 18:0.99999797 19:0.119203 20:0.00033499999 21:1.166667 #
-4.2383812307980059941314721072558 1:0.5 2:0.88079703 3:0.73105901 4:0.5 5:0.26894099 6:0.95257401 7:0.73105901 8:0.119203 9:0.5 10:0.26894099 11:0.73105901 12:0.73105901 13:0.5 14:0.119203 15:0.047426 16:0.5 17:0.26894099 18:0.017986 19:0.047426 20:0.119203 21:0.043981001 #
10.850255950842894847596653562505 1:0.88079703 2:0.006693 3:0.006693 4:0.002473 5:0.006693 6:0.006693 7:0.006693 8:0.017986 9:0.017986 10:0.95257401 11:0.047426 12:0.006693 13:0.047426 14:0.982014 15:0.002473 16:0.047426 17:0.73105901 18:0.999089 19:0.982014 20:0.73105901 21:0.208333 #
-4.2383812307980059941314721072558 1:0.00033499999 2:0.002473 3:0.00012300001 4:0.00012300001 5:0.00033499999 6:0.00033499999 7:0.00033499999 8:0.00033499999 9:0.002473 10:0.00033499999 11:0.006693 12:0.00033499999 13:0.00091100001 14:0.006693 15:0.00012300001 16:0.00033499999 17:0.00033499999 18:0.99999797 19:0.047426 20:0.00033499999 21:1.185185 #
-4.2383812307980059941314721072558 1:0.5 2:0.5 3:0.5 4:0.73105901 5:0.047426 6:0.73105901 7:0.88079703 8:0.26894099 9:0.119203 10:0.5 11:0.119203 12:0.73105901 13:0.119203 14:0.119203 15:0.119203 16:0.73105901 17:0.73105901 18:0.017986 19:0.119203 20:0.73105901 21:0.034722 #
-4.2383812307980059941314721072558 1:0.00091100001 2:0.00033499999 3:0.00012300001 4:0.00012300001 5:0.00091100001 6:0.00091100001 7:0.00033499999 8:0.00091100001 9:0.00091100001 10:0.00091100001 11:0.002473 12:0.00033499999 13:0.002473 14:0.26894099 15:0.00012300001 16:0.00033499999 17:0.00091100001 18:0.99999797 19:0.119203 20:0.00091100001 21:1.1319439 #
-4.2383812307980059941314721072558 1:0.26894099 2:0.5 3:0.5 4:0.88079703 5:0.047426 6:0.5 7:0.88079703 8:0.119203 9:0.119203 10:0.5 11:0.5 12:0.88079703 13:0.26894099 14:0.119203 15:0.047426 16:0.5 17:0.5 18:0.017986 19:0.119203 20:0.88079703 21:0.039352 #
-4.2383812307980059941314721072558 1:0.5 2:0.73105901 3:0.73105901 4:0.73105901 5:0.047426 6:0.88079703 7:0.88079703 8:0.26894099 9:0.119203 10:0.26894099 11:0.73105901 12:0.73105901 13:0.5 14:0.119203 15:0.119203 16:0.26894099 17:0.26894099 18:0.047426 19:0.119203 20:0.5 21:0.030092999 #
-4.2383812307980059941314721072558 1:0.00091100001 2:0.002473 3:0.00033499999 4:0.00012300001 5:0.00091100001 6:0.00091100001 7:0.00033499999 8:0.002473 9:0.00091100001 10:0.00033499999 11:0.00091100001 12:0.00033499999 13:0.00091100001 14:0.017986 15:0.00033499999 16:0.00033499999 17:0.00091100001 18:0.99999797 19:0.119203 20:0.00033499999 21:1.1643521 #
10.850255950842894847596653562505 1:0.88079703 2:0.006693 3:0.006693 4:0.006693 5:0.26894099 6:0.006693 7:0.006693 8:0.26894099 9:0.88079703 10:0.26894099 11:0.119203 12:0.006693 13:0.119203 14:0.982014 15:0.5 16:0.73105901 17:0.73105901 18:0.73105901 19:0.88079703 20:0.88079703 21:0.108796 #
-4.2383812307980059941314721072558 1:0.5 2:0.73105901 3:0.5 4:0.73105901 5:0.119203 6:0.5 7:0.73105901 8:0.119203 9:0.26894099 10:0.5 11:0.5 12:0.73105901 13:0.5 14:0.119203 15:0.26894099 16:0.5 17:0.5 18:0.047426 19:0.119203 20:0.5 21:0.016204 #
10.850255950842894847596653562505 1:0.006693 2:0.73105901 3:0.047426 4:0.006693 5:0.00091100001 6:0.119203 7:0.017986 8:0.002473 9:0.017986 10:0.00091100001 11:0.002473 12:0.99966502 13:0.002473 14:0.00091100001 15:0.006693 16:0.017986 17:0.006693 18:0.00091100001 19:0.002473 20:0.017986 21:0.56018502 #
-4.2383812307980059941314721072558 1:0.002473 2:0.00091100001 3:0.00012300001 4:4.5000001e-05 5:0.00033499999 6:0.00091100001 7:0.002473 8:0.00091100001 9:0.002473 10:0.00033499999 11:0.00091100001 12:0.00033499999 13:0.00091100001 14:0.017986 15:0.00091100001 16:0.00033499999 17:0.00033499999 18:0.99999797 19:0.119203 20:0.00091100001 21:1.171296 #
-4.2383812307980059941314721072558 1:0.73105901 2:0.73105901 3:0.73105901 4:0.5 5:0.047426 6:0.73105901 7:0.5 8:0.119203 9:0.119203 10:0.5 11:0.5 12:0.88079703 13:0.5 14:0.119203 15:0.26894099 16:0.26894099 17:0.73105901 18:0.017986 19:0.119203 20:0.5 21:0.023148 #
-4.2383812307980059941314721072558 1:0.5 2:0.73105901 3:0.73105901 4:0.73105901 5:0.119203 6:0.73105901 7:0.73105901 8:0.5 9:0.26894099 10:0.119203 11:0.26894099 12:0.73105901 13:0.26894099 14:0.119203 15:0.73105901 16:0.5 17:0.5 18:0.047426 19:0.119203 20:0.5 21:0.016204 #
-4.2383812307980059941314721072558 1:0.00033499999 2:0.00033499999 3:0.00012300001 4:4.5000001e-05 5:0.047426 6:0.00091100001 7:0.00033499999 8:0.00033499999 9:0.00033499999 10:0.00033499999 11:0.00091100001 12:0.00033499999 13:0.00091100001 14:0.017986 15:0.00012300001 16:0.00033499999 17:0.00033499999 18:0.99999797 19:0.119203 20:0.00033499999 21:1.1875 #
10.850255950842894847596653562505 1:0.26894099 2:0.006693 3:0.002473 4:0.002473 5:0.017986 6:0.017986 7:0.006693 8:0.006693 9:0.006693 10:0.95257401 11:0.88079703 12:0.006693 13:0.26894099 14:0.982014 15:0.5 16:0.017986 17:0.26894099 18:0.95257401 19:0.26894099 20:0.88079703 21:0.152778 #
-4.2383812307980059941314721072558 1:0.5 2:0.73105901 3:0.88079703 4:0.88079703 5:0.017986 6:0.73105901 7:0.73105901 8:0.5 9:0.5 10:0.047426 11:0.119203 12:0.73105901 13:0.119203 14:0.017986 15:0.5 16:0.73105901 17:0.88079703 18:0.006693 19:0.047426 20:0.26894099 21:0.048611 #
-4.2383812307980059941314721072558 1:0.00091100001 2:0.00091100001 3:0.00033499999 4:0.00012300001 5:0.00091100001 6:0.00091100001 7:0.00091100001 8:0.00091100001 9:0.00091100001 10:0.00091100001 11:0.002473 12:0.00033499999 13:0.002473 14:0.047426 15:0.00033499999 16:0.00091100001 17:0.00091100001 18:0.99999797 19:0.119203 20:0.00091100001 21:1.159722 #
-4.2383812307980059941314721072558 1:0.5 2:0.95257401 3:0.119203 4:0.73105901 5:0.017986 6:0.5 7:0.73105901 8:0.047426 9:0.73105901 10:0.5 11:0.5 12:0.73105901 13:0.5 14:0.047426 15:0.047426 16:0.26894099 17:0.5 18:0.017986 19:0.047426 20:0.26894099 21:0.048611 #
-4.2383812307980059941314721072558 1:0.88079703 2:0.73105901 3:0.119203 4:0.5 5:0.047426 6:0.73105901 7:0.73105901 8:0.119203 9:0.119203 10:0.26894099 11:0.73105901 12:0.88079703 13:0.26894099 14:0.047426 15:0.5 16:0.26894099 17:0.5 18:0.017986 19:0.047426 20:0.5 21:0.039352 #
-4.2383812307980059941314721072558 1:0.00091100001 2:0.00091100001 3:0.00033499999 4:0.00012300001 5:0.00091100001 6:0.00091100001 7:0.00091100001 8:0.00091100001 9:0.00091100001 10:0.00091100001 11:0.002473 12:0.00033499999 13:0.002473 14:0.26894099 15:0.00033499999 16:0.00091100001 17:0.00091100001 18:0.99999797 19:0.119203 20:0.00091100001 21:1.1319439 #
10.850255950842894847596653562505 1:0.006693 2:0.95257401 3:0.119203 4:0.006693 5:0.00091100001 6:0.119203 7:0.047426 8:0.006693 9:0.017986 10:0.00091100001 11:0.002473 12:0.99966502 13:0.006693 14:0.00091100001 15:0.006693 16:0.017986 17:0.017986 18:0.00091100001 19:0.002473 20:0.002473 21:0.488426 #
10.850255950842894847596653562505 1:0.26894099 2:0.006693 3:0.002473 4:0.002473 5:0.017986 6:0.017986 7:0.006693 8:0.006693 9:0.006693 10:0.95257401 11:0.88079703 12:0.006693 13:0.26894099 14:0.982014 15:0.5 16:0.017986 17:0.26894099 18:0.95257401 19:0.26894099 20:0.88079703 21:0.152778 #
-4.2383812307980059941314721072558 1:0.5 2:0.73105901 3:0.5 4:0.73105901 5:0.119203 6:0.5 7:0.88079703 8:0.26894099 9:0.5 10:0.26894099 11:0.119203 12:0.73105901 13:0.26894099 14:0.047426 15:0.95257401 16:0.5 17:0.5 18:0.017986 19:0.119203 20:0.5 21:0.046296 #
10.850255950842894847596653562505 1:0.006693 2:0.006693 3:0.017986 4:0.5 5:0.00033499999 6:0.119203 7:0.99966502 8:0.00091100001 9:0.006693 10:0.00033499999 11:0.00091100001 12:0.017986 13:0.00091100001 14:0.00033499999 15:0.002473 16:0.006693 17:0.006693 18:0.00091100001 19:0.00091100001 20:0.00091100001 21:0.59722197 #
-4.2383812307980059941314721072558 1:0.00033499999 2:0.00033499999 3:0.00012300001 4:0.00012300001 5:0.00033499999 6:0.00033499999 7:0.00033499999 8:0.00033499999 9:0.00033499999 10:0.00033499999 11:0.006693 12:0.00033499999 13:0.017986 14:0.006693 15:0.00012300001 16:0.00033499999 17:0.00033499999 18:0.99999797 19:0.047426 20:0.00033499999 21:1.196759 #
-4.2383812307980059941314721072558 1:0.5 2:0.26894099 3:0.73105901 4:0.73105901 5:0.26894099 6:0.73105901 7:0.88079703 8:0.119203 9:0.5 10:0.119203 11:0.26894099 12:0.73105901 13:0.26894099 14:0.047426 15:0.73105901 16:0.5 17:0.73105901 18:0.017986 19:0.047426 20:0.5 21:0.043981001 #
-4.2383812307980059941314721072558 1:0.00091100001 2:0.00091100001 3:0.00033499999 4:0.00012300001 5:0.00091100001 6:0.002473 7:0.00091100001 8:0.00091100001 9:0.00091100001 10:0.00091100001 11:0.002473 12:0.00033499999 13:0.002473 14:0.047426 15:0.00033499999 16:0.00091100001 17:0.00091100001 18:0.99999797 19:0.119203 20:0.00091100001 21:1.152778 #
-4.2383812307980059941314721072558 1:0.26894099 2:0.5 3:0.119203 4:0.73105901 5:0.26894099 6:0.88079703 7:0.95257401 8:0.017986 9:0.26894099 10:0.5 11:0.119203 12:0.88079703 13:0.5 14:0.017986 15:0.017986 16:0.26894099 17:0.5 18:0.006693 19:0.047426 20:0.73105901 21:0.064815 #
10.850255950842894847596653562505 1:0.26894099 2:0.047426 3:0.017986 4:0.017986 5:0.047426 6:0.047426 7:0.006693 8:0.26894099 9:0.26894099 10:0.73105901 11:0.88079703 12:0.017986 13:0.5 14:0.982014 15:0.73105901 16:0.26894099 17:0.119203 18:0.95257401 19:0.5 20:0.88079703 21:0.094907001 #
-4.2383812307980059941314721072558 1:0.26894099 2:0.73105901 3:0.119203 4:0.73105901 5:0.119203 6:0.5 7:0.73105901 8:0.119203 9:0.119203 10:0.73105901 11:0.88079703 12:0.88079703 13:0.73105901 14:0.119203 15:0.119203 16:0.26894099 17:0.119203 18:0.017986 19:0.047426 20:0.5 21:0.043981001 #
-4.2383812307980059941314721072558 1:0.00091100001 2:0.00091100001 3:0.00033499999 4:0.00012300001 5:0.00091100001 6:0.002473 7:0.00091100001 8:0.00091100001 9:0.00091100001 10:0.00091100001 11:0.002473 12:0.00033499999 13:0.002473 14:0.047426 15:0.00033499999 16:0.00091100001 17:0.00091100001 18:0.99999797 19:0.26894099 20:0.00091100001 21:1.143519 #
-4.2383812307980059941314721072558 1:0.26894099 2:0.26894099 3:0.5 4:0.73105901 5:0.047426 6:0.73105901 7:0.95257401 8:0.26894099 9:0.982014 10:0.26894099 11:0.5 12:0.73105901 13:0.26894099 14:0.047426 15:0.017986 16:0.5 17:0.119203 18:0.006693 19:0.047426 20:0.73105901 21:0.055555999 #
-4.2383812307980059941314721072558 1:0.00091100001 2:0.00091100001 3:0.00033499999 4:0.00012300001 5:0.00091100001 6:0.002473 7:0.00091100001 8:0.00091100001 9:0.00091100001 10:0.00091100001 11:0.002473 12:0.00091100001 13:0.002473 14:0.047426 15:0.00033499999 16:0.00091100001 17:0.00091100001 18:0.99999797 19:0.119203 20:0.00091100001 21:1.145833 #
10.850255950842894847596653562505 1:0.017986 2:0.002473 3:0.119203 4:0.99966502 5:0.00091100001 6:0.006693 7:0.5 8:0.006693 9:0.006693 10:0.00091100001 11:0.00091100001 12:0.006693 13:0.00091100001 14:0.00091100001 15:0.002473 16:0.006693 17:0.006693 18:0.00091100001 19:0.006693 20:0.00091100001 21:0.61574101 #
-4.2383812307980059941314721072558 1:0.5 2:0.5 3:0.73105901 4:0.88079703 5:0.047426 6:0.73105901 7:0.73105901 8:0.73105901 9:0.73105901 10:0.119203 11:0.26894099 12:0.73105901 13:0.119203 14:0.047426 15:0.5 16:0.73105901 17:0.73105901 18:0.017986 19:0.047426 20:0.119203 21:0.034722 #
10.850255950842894847596653562505 1:0.26894099 2:0.006693 3:0.006693 4:0.017986 5:0.95257401 6:0.017986 7:0.006693 8:0.006693 9:0.006693 10:0.73105901 11:0.88079703 12:0.017986 13:0.997527 14:0.5 15:0.006693 16:0.5 17:0.26894099 18:0.982014 19:0.047426 20:0.88079703 21:0.115741 #
-4.2383812307980059941314721072558 1:0.5 2:0.88079703 3:0.119203 4:0.5 5:0.047426 6:0.5 7:0.73105901 8:0.5 9:0.73105901 10:0.88079703 11:0.5 12:0.26894099 13:0.26894099 14:0.119203 15:0.119203 16:0.73105901 17:0.5 18:0.017986 19:0.047426 20:0.73105901 21:0.027778 #
10.850255950842894847596653562505 1:0.006693 2:0.88079703 3:0.26894099 4:0.017986 5:0.00091100001 6:0.047426 7:0.047426 8:0.002473 9:0.047426 10:0.00091100001 11:0.00091100001 12:0.99966502 13:0.002473 14:0.00091100001 15:0.006693 16:0.017986 17:0.006693 18:0.00091100001 19:0.002473 20:0.00091100001 21:0.53703701 #
-4.2383812307980059941314721072558 1:0.00091100001 2:0.002473 3:0.00033499999 4:0.00012300001 5:0.00091100001 6:0.00091100001 7:0.00033499999 8:0.00091100001 9:0.00091100001 10:0.00091100001 11:0.002473 12:0.00033499999 13:0.002473 14:0.119203 15:0.00033499999 16:0.00091100001 17:0.00091100001 18:0.99999797 19:0.26894099 20:0.00091100001 21:1.12963 #
-4.2383812307980059941314721072558 1:0.5 2:0.88079703 3:0.5 4:0.5 5:0.73105901 6:0.88079703 7:0.5 8:0.26894099 9:0.73105901 10:0.26894099 11:0.119203 12:0.73105901 13:0.5 14:0.047426 15:0.73105901 16:0.73105901 17:0.5 18:0.017986 19:0.047426 20:0.26894099 21:0.034722 #
-4.2383812307980059941314721072558 1:0.00033499999 2:0.00012300001 3:4.5000001e-05 4:4.5000001e-05 5:0.00033499999 6:0.00033499999 7:0.00012300001 8:0.00012300001 9:0.00033499999 10:0.002473 11:0.006693 12:0.00012300001 13:0.00091100001 14:0.73105901 15:4.5000001e-05 16:0.00012300001 17:0.00033499999 18:0.99999797 19:0.119203 20:0.00012300001 21:1.136574 #
-4.2383812307980059941314721072558 1:0.73105901 2:0.88079703 3:0.119203 4:0.73105901 5:0.017986 6:0.73105901 7:0.88079703 8:0.26894099 9:0.119203 10:0.119203 11:0.119203 12:0.5 13:0.119203 14:0.017986 15:0.26894099 16:0.5 17:0.73105901 18:0.006693 19:0.017986 20:0.5 21:0.053241 #
10.850255950842894847596653562505 1:0.26894099 2:0.047426 3:0.047426 4:0.017986 5:0.5 6:0.047426 7:0.047426 8:0.047426 9:0.047426 10:0.95257401 11:0.73105901 12:0.047426 13:0.5 14:0.88079703 15:0.047426 16:0.119203 17:0.5 18:0.95257401 19:0.88079703 20:0.95257401 21:0.083333001 #
-4.2383812307980059941314721072558 1:0.73105901 2:0.73105901 3:0.73105901 4:0.88079703 5:0.047426 6:0.73105901 7:0.88079703 8:0.119203 9:0.5 10:0.119203 11:0.5 12:0.73105901 13:0.26894099 14:0.119203 15:0.119203 16:0.5 17:0.73105901 18:0.017986 19:0.119203 20:0.119203 21:0.043981001 #
-4.2383812307980059941314721072558 1:0.00091100001 2:0.00091100001 3:0.00033499999 4:0.00012300001 5:0.00091100001 6:0.002473 7:0.00091100001 8:0.00091100001 9:0.00091100001 10:0.00091100001 11:0.002473 12:0.00091100001 13:0.002473 14:0.047426 15:0.00033499999 16:0.00091100001 17:0.00091100001 18:0.99999797 19:0.119203 20:0.00091100001 21:1.136574 #
-4.2383812307980059941314721072558 1:0.88079703 2:0.73105901 3:0.5 4:0.5 5:0.017986 6:0.5 7:0.95257401 8:0.047426 9:0.119203 10:0.26894099 11:0.26894099 12:0.73105901 13:0.26894099 14:0.017986 15:0.047426 16:0.5 17:0.5 18:0.017986 19:0.047426 20:0.5 21:0.055555999 #
-4.2383812307980059941314721072558 1:0.00091100001 2:0.00091100001 3:0.00033499999 4:0.00012300001 5:0.00091100001 6:0.002473 7:0.00091100001 8:0.00091100001 9:0.00091100001 10:0.00091100001 11:0.002473 12:0.00091100001 13:0.002473 14:0.047426 15:0.00033499999 16:0.00091100001 17:0.00091100001 18:0.99999797 19:0.119203 20:0.00091100001 21:1.134259 #
-4.2383812307980059941314721072558 1:0.88079703 2:0.73105901 3:0.5 4:0.5 5:0.047426 6:0.73105901 7:0.5 8:0.119203 9:0.26894099 10:0.5 11:0.119203 12:0.5 13:0.5 14:0.047426 15:0.119203 16:0.73105901 17:0.73105901 18:0.017986 19:0.047426 20:0.73105901 21:0.034722 #
10.850255950842894847596653562505 1:0.006693 2:0.017986 3:0.017986 4:0.95257401 5:0.00033499999 6:0.119203 7:0.99966502 8:0.002473 9:0.017986 10:0.00091100001 11:0.00091100001 12:0.047426 13:0.002473 14:0.00091100001 15:0.006693 16:0.017986 17:0.017986 18:0.00091100001 19:0.002473 20:0.006693 21:0.51388901 #
-4.2383812307980059941314721072558 1:0.00033499999 2:0.002473 3:0.00012300001 4:0.00012300001 5:0.00091100001 6:0.00091100001 7:0.00033499999 8:0.00033499999 9:0.00091100001 10:0.00033499999 11:0.00091100001 12:0.00033499999 13:0.017986 14:0.017986 15:0.00012300001 16:0.00033499999 17:0.00091100001 18:0.99999797 19:0.047426 20:0.00033499999 21:1.168981 #
10.850255950842894847596653562505 1:0.119203 2:0.017986 3:0.002473 4:0.002473 5:0.017986 6:0.017986 7:0.006693 8:0.002473 9:0.006693 10:0.95257401 11:0.95257401 12:0.006693 13:0.88079703 14:0.5 15:0.002473 16:0.017986 17:0.26894099 18:0.88079703 19:0.88079703 20:0.982014 21:0.175926 #
-4.2383812307980059941314721072558 1:0.73105901 2:0.73105901 3:0.26894099 4:0.88079703 5:0.017986 6:0.73105901 7:0.5 8:0.119203 9:0.119203 10:0.26894099 11:0.119203 12:0.73105901 13:0.88079703 14:0.047426 15:0.26894099 16:0.26894099 17:0.88079703 18:0.017986 19:0.119203 20:0.5 21:0.046296 #
10.850255950842894847596653562505 1:0.006693 2:0.5 3:0.017986 4:0.006693 5:0.00033499999 6:0.047426 7:0.047426 8:0.006693 9:0.017986 10:0.00091100001 11:0.00091100001 12:0.99966502 13:0.002473 14:0.00033499999 15:0.006693 16:0.017986 17:0.006693 18:0.00091100001 19:0.002473 20:0.00091100001 21:0.59722197 #
-4.2383812307980059941314721072558 1:0.73105901 2:0.88079703 3:0.119203 4:0.5 5:0.047426 6:0.5 7:0.88079703 8:0.119203 9:0.119203 10:0.26894099 11:0.73105901 12:0.73105901 13:0.26894099 14:0.119203 15:0.73105901 16:0.26894099 17:0.5 18:0.017986 19:0.047426 20:0.26894099 21:0.034722 #
-4.2383812307980059941314721072558 1:0.00091100001 2:0.00091100001 3:0.00033499999 4:0.00033499999 5:0.00091100001 6:0.002473 7:0.00091100001 8:0.00091100001 9:0.00091100001 10:0.00091100001 11:0.002473 12:0.00091100001 13:0.002473 14:0.047426 15:0.00033499999 16:0.00091100001 17:0.00091100001 18:0.99999797 19:0.119203 20:0.00091100001 21:1.134259 #
-4.2383812307980059941314721072558 1:0.26894099 2:0.5 3:0.119203 4:0.88079703 5:0.119203 6:0.88079703 7:0.95257401 8:0.017986 9:0.26894099 10:0.5 11:0.26894099 12:0.88079703 13:0.5 14:0.047426 15:0.017986 16:0.26894099 17:0.73105901 18:0.006693 19:0.119203 20:0.73105901 21:0.0625 #
-4.2383812307980059941314721072558 1:0.00091100001 2:0.00091100001 3:0.00033499999 4:0.00012300001 5:0.00091100001 6:0.002473 7:0.00091100001 8:0.00091100001 9:0.00091100001 10:0.00091100001 11:0.002473 12:0.00091100001 13:0.002473 14:0.047426 15:0.00033499999 16:0.00091100001 17:0.00091100001 18:0.99999797 19:0.119203 20:0.00091100001 21:1.1319439 #
-4.2383812307980059941314721072558 1:0.5 2:0.73105901 3:0.73105901 4:0.88079703 5:0.047426 6:0.73105901 7:0.88079703 8:0.047426 9:0.26894099 10:0.26894099 11:0.119203 12:0.73105901 13:0.26894099 14:0.047426 15:0.047426 16:0.26894099 17:0.73105901 18:0.017986 19:0.119203 20:0.5 21:0.053241 #
10.850255950842894847596653562505 1:0.5 2:0.047426 3:0.006693 4:0.017986 5:0.26894099 6:0.006693 7:0.017986 8:0.006693 9:0.119203 10:0.88079703 11:0.88079703 12:0.047426 13:0.73105901 14:0.5 15:0.006693 16:0.119203 17:0.982014 18:0.99330699 19:0.5 20:0.88079703 21:0.127315 #
-4.2383812307980059941314721072558 1:0.73105901 2:0.95257401 3:0.73105901 4:0.982014 5:0.047426 6:0.73105901 7:0.88079703 8:0.119203 9:0.119203 10:0.017986 11:0.047426 12:0.5 13:0.119203 14:0.017986 15:0.047426 16:0.5 17:0.119203 18:0.006693 19:0.047426 20:0.047426 21:0.104167 #
4.2383813572500699251577316317707 1:0.73105901 2:0.006693 3:0.006693 4:0.006693 5:0.997527 6:0.006693 7:0.006693 8:0.119203 9:0.017986 10:0.017986 11:0.047426 12:0.006693 13:0.119203 14:0.002473 15:0.006693 16:0.73105901 17:0.997527 18:0.002473 19:0.002473 20:0.119203 21:0.319444 #
-4.2383812307980059941314721072558 1:0.00091100001 2:0.00091100001 3:0.00033499999 4:0.00012300001 5:0.00091100001 6:0.002473 7:0.00091100001 8:0.00091100001 9:0.00091100001 10:0.00091100001 11:0.002473 12:0.00091100001 13:0.002473 14:0.047426 15:0.00033499999 16:0.00091100001 17:0.00091100001 18:0.99999797 19:0.119203 20:0.00091100001 21:1.1319439 #
-4.2383812307980059941314721072558 1:0.73105901 2:0.73105901 3:0.26894099 4:0.5 5:0.047426 6:0.73105901 7:0.73105901 8:0.26894099 9:0.5 10:0.26894099 11:0.73105901 12:0.5 13:0.26894099 14:0.119203 15:0.5 16:0.5 17:0.73105901 18:0.017986 19:0.047426 20:0.119203 21:0.027778 #
10.850255950842894847596653562505 1:0.006693 2:0.017986 3:0.017986 4:0.5 5:0.00033499999 6:0.119203 7:0.99966502 8:0.002473 9:0.017986 10:0.00033499999 11:0.00091100001 12:0.047426 13:0.002473 14:0.00033499999 15:0.006693 16:0.017986 17:0.006693 18:0.00091100001 19:0.002473 20:0.00091100001 21:0.585648 #
-4.2383812307980059941314721072558 1:0.00091100001 2:0.00091100001 3:0.00033499999 4:0.00012300001 5:0.00091100001 6:0.002473 7:0.00091100001 8:0.00091100001 9:0.00091100001 10:0.00091100001 11:0.002473 12:0.00091100001 13:0.002473 14:0.047426 15:0.00033499999 16:0.00091100001 17:0.00091100001 18:0.99999797 19:0.119203 20:0.00091100001 21:1.12963 #
10.850255950842894847596653562505 1:0.047426 2:0.017986 3:0.006693 4:0.006693 5:0.047426 6:0.017986 7:0.017986 8:0.119203 9:0.047426 10:0.88079703 11:0.88079703 12:0.017986 13:0.982014 14:0.99330699 15:0.006693 16:0.017986 17:0.047426 18:0.982014 19:0.88079703 20:0.73105901 21:0.159722 #
-4.2383812307980059941314721072558 1:0.5 2:0.5 3:0.26894099 4:0.5 5:0.047426 6:0.88079703 7:0.88079703 8:0.119203 9:0.26894099 10:0.5 11:0.73105901 12:0.5 13:0.88079703 14:0.119203 15:0.119203 16:0.5 17:0.5 18:0.017986 19:0.047426 20:0.5 21:0.032407001 #
10.850255950842894847596653562505 1:0.006693 2:0.99966502 3:0.006693 4:0.006693 5:0.00091100001 6:0.047426 7:0.017986 8:0.002473 9:0.047426 10:0.002473 11:0.006693 12:0.95257401 13:0.006693 14:0.002473 15:0.047426 16:0.017986 17:0.017986 18:0.002473 19:0.002473 20:0.006693 21:0.5 #
-4.2383812307980059941314721072558 1:0.26894099 2:0.5 3:0.119203 4:0.88079703 5:0.119203 6:0.88079703 7:0.95257401 8:0.017986 9:0.26894099 10:0.5 11:0.26894099 12:0.88079703 13:0.5 14:0.047426 15:0.017986 16:0.26894099 17:0.73105901 18:0.006693 19:0.119203 20:0.73105901 21:0.064815 #
-4.2383812307980059941314721072558 1:0.00091100001 2:0.00091100001 3:0.00033499999 4:0.00012300001 5:0.00091100001 6:0.002473 7:0.00091100001 8:0.00091100001 9:0.00091100001 10:0.00091100001 11:0.002473 12:0.00091100001 13:0.002473 14:0.047426 15:0.00033499999 16:0.00091100001 17:0.00091100001 18:0.99999797 19:0.119203 20:0.00091100001 21:1.127315 #
-4.2383812307980059941314721072558 1:0.73105901 2:0.5 3:0.26894099 4:0.88079703 5:0.119203 6:0.88079703 7:0.88079703 8:0.119203 9:0.26894099 10:0.73105901 11:0.26894099 12:0.73105901 13:0.26894099 14:0.119203 15:0.26894099 16:0.5 17:0.26894099 18:0.047426 19:0.119203 20:0.73105901 21:0.027778 #
10.850255950842894847596653562505 1:0.00091100001 2:0.00091100001 3:0.73105901 4:0.99966502 5:0.00012300001 6:0.002473 7:0.047426 8:0.006693 9:0.006693 10:0.00012300001 11:0.00012300001 12:0.002473 13:0.00033499999 14:0.00012300001 15:0.00091100001 16:0.017986 17:0.017986 18:4.5000001e-05 19:0.00033499999 20:0.00012300001 21:0.66666698 #
-4.2383812307980059941314721072558 1:0.00091100001 2:0.00091100001 3:0.00033499999 4:0.00012300001 5:0.00091100001 6:0.002473 7:0.00091100001 8:0.00091100001 9:0.00091100001 10:0.00091100001 11:0.002473 12:0.00091100001 13:0.002473 14:0.047426 15:0.00033499999 16:0.00091100001 17:0.00091100001 18:0.99999797 19:0.119203 20:0.00091100001 21:1.127315 #
-4.2383812307980059941314721072558 1:0.88079703 2:0.73105901 3:0.26894099 4:0.73105901 5:0.047426 6:0.73105901 7:0.73105901 8:0.26894099 9:0.73105901 10:0.26894099 11:0.26894099 12:0.5 13:0.73105901 14:0.119203 15:0.73105901 16:0.26894099 17:0.5 18:0.017986 19:0.119203 20:0.26894099 21:0.034722 #
-4.2383812307980059941314721072558 1:0.26894099 2:0.5 3:0.5 4:0.88079703 5:0.73105901 6:0.73105901 7:0.88079703 8:0.26894099 9:0.73105901 10:0.5 11:0.26894099 12:0.5 13:0.5 14:0.26894099 15:0.5 16:0.5 17:0.5 18:0.017986 19:0.119203 20:0.5 21:0.023148 #
-4.2383812307980059941314721072558 1:0.002473 2:0.00091100001 3:0.00033499999 4:0.00033499999 5:0.00091100001 6:0.00091100001 7:0.00091100001 8:0.00091100001 9:0.006693 10:0.00091100001 11:0.002473 12:0.00033499999 13:0.002473 14:0.047426 15:0.00033499999 16:0.00091100001 17:0.00091100001 18:0.99999797 19:0.119203 20:0.00091100001 21:1.136574 #
10.850255950842894847596653562505 1:0.5 2:0.006693 3:0.017986 4:0.006693 5:0.119203 6:0.017986 7:0.017986 8:0.017986 9:0.006693 10:0.73105901 11:0.119203 12:0.002473 13:0.119203 14:0.88079703 15:0.119203 16:0.5 17:0.26894099 18:0.95257401 19:0.997527 20:0.982014 21:0.178241 #
-4.2383812307980059941314721072558 1:0.5 2:0.5 3:0.5 4:0.5 5:0.119203 6:0.5 7:0.73105901 8:0.26894099 9:0.5 10:0.5 11:0.26894099 12:0.73105901 13:0.5 14:0.119203 15:0.88079703 16:0.5 17:0.73105901 18:0.017986 19:0.119203 20:0.26894099 21:0.023148 #
10.850255950842894847596653562505 1:0.002473 2:0.006693 3:0.006693 4:0.5 5:0.00033499999 6:0.047426 7:0.99966502 8:0.00091100001 9:0.006693 10:0.00091100001 11:0.017986 12:0.017986 13:0.002473 14:0.00091100001 15:0.002473 16:0.006693 17:0.006693 18:0.00091100001 19:0.00091100001 20:0.00091100001 21:0.585648 #
-4.2383812307980059941314721072558 1:0.002473 2:0.00091100001 3:0.00033499999 4:0.00033499999 5:0.00091100001 6:0.00091100001 7:0.00091100001 8:0.00091100001 9:0.006693 10:0.00091100001 11:0.002473 12:0.00033499999 13:0.002473 14:0.047426 15:0.00033499999 16:0.00091100001 17:0.00091100001 18:0.99999797 19:0.119203 20:0.00091100001 21:1.136574 #
-4.2383812307980059941314721072558 1:0.5 2:0.73105901 3:0.5 4:0.5 5:0.047426 6:0.73105901 7:0.73105901 8:0.26894099 9:0.5 10:0.119203 11:0.26894099 12:0.73105901 13:0.119203 14:0.119203 15:0.26894099 16:0.73105901 17:0.88079703 18:0.017986 19:0.047426 20:0.5 21:0.034722 #
-4.2383812307980059941314721072558 1:0.00091100001 2:0.00091100001 3:0.00033499999 4:0.00012300001 5:0.00091100001 6:0.002473 7:0.00091100001 8:0.00091100001 9:0.00091100001 10:0.00091100001 11:0.002473 12:0.00091100001 13:0.002473 14:0.047426 15:0.00033499999 16:0.00091100001 17:0.00091100001 18:0.99999797 19:0.119203 20:0.00091100001 21:1.122685 #
-4.2383812307980059941314721072558 1:0.5 2:0.5 3:0.73105901 4:0.95257401 5:0.047426 6:0.73105901 7:0.95257401 8:0.119203 9:0.26894099 10:0.26894099 11:0.119203 12:0.73105901 13:0.26894099 14:0.047426 15:0.047426 16:0.5 17:0.73105901 18:0.017986 19:0.119203 20:0.5 21:0.053241 #
10.850255950842894847596653562505 1:0.26894099 2:0.006693 3:0.002473 4:0.006693 5:0.006693 6:0.002473 7:0.002473 8:0.002473 9:0.017986 10:0.982014 11:0.95257401 12:0.002473 13:0.73105901 14:0.982014 15:0.119203 16:0.119203 17:0.119203 18:0.997527 19:0.047426 20:0.88079703 21:0.185185 #
-4.2383812307980059941314721072558 1:0.00091100001 2:0.00091100001 3:0.00033499999 4:0.00012300001 5:0.00091100001 6:0.002473 7:0.00091100001 8:0.00091100001 9:0.00091100001 10:0.00091100001 11:0.002473 12:0.00091100001 13:0.002473 14:0.047426 15:0.00033499999 16:0.00091100001 17:0.00091100001 18:0.99999797 19:0.119203 20:0.00091100001 21:1.122685 #
10.850255950842894847596653562505 1:0.006693 2:0.047426 3:0.047426 4:0.047426 5:0.00033499999 6:0.99987698 7:0.119203 8:0.002473 9:0.047426 10:0.00091100001 11:0.00091100001 12:0.047426 13:0.006693 14:0.00033499999 15:0.002473 16:0.006693 17:0.006693 18:0.00091100001 19:0.002473 20:0.00091100001 21:0.69213003 #
-4.2383812307980059941314721072558 1:0.73105901 2:0.26894099 3:0.5 4:0.73105901 5:0.047426 6:0.73105901 7:0.73105901 8:0.73105901 9:0.5 10:0.119203 11:0.119203 12:0.73105901 13:0.5 14:0.119203 15:0.5 16:0.73105901 17:0.73105901 18:0.017986 19:0.047426 20:0.26894099 21:0.030092999 #
-4.2383812307980059941314721072558 1:0.5 2:0.5 3:0.73105901 4:0.95257401 5:0.047426 6:0.73105901 7:0.95257401 8:0.119203 9:0.26894099 10:0.26894099 11:0.119203 12:0.73105901 13:0.26894099 14:0.047426 15:0.047426 16:0.5 17:0.73105901 18:0.017986 19:0.119203 20:0.5 21:0.053241 #
10.850255950842894847596653562505 1:0.017986 2:0.95257401 3:0.017986 4:0.017986 5:0.00091100001 6:0.119203 7:0.047426 8:0.006693 9:0.017986 10:0.002473 11:0.002473 12:0.99966502 13:0.006693 14:0.00091100001 15:0.006693 16:0.017986 17:0.017986 18:0.00091100001 19:0.006693 20:0.002473 21:0.49537 #
-4.2383812307980059941314721072558 1:0.00033499999 2:0.00033499999 3:0.00012300001 4:4.5000001e-05 5:0.00033499999 6:0.006693 7:0.00033499999 8:0.006693 9:0.00033499999 10:0.00033499999 11:0.002473 12:0.00033499999 13:0.00091100001 14:0.047426 15:0.00012300001 16:0.006693 17:0.00033499999 18:0.99999797 19:0.047426 20:0.00033499999 21:1.152778 #
-4.2383812307980059941314721072558 1:0.5 2:0.5 3:0.73105901 4:0.5 5:0.5 6:0.88079703 7:0.5 8:0.5 9:0.5 10:0.26894099 11:0.5 12:0.88079703 13:0.26894099 14:0.119203 15:0.5 16:0.5 17:0.5 18:0.017986 19:0.119203 20:0.26894099 21:0.020833001 #
10.850255950842894847596653562505 1:0.047426 2:0.017986 3:0.006693 4:0.017986 5:0.5 6:0.017986 7:0.006693 8:0.047426 9:0.017986 10:0.73105901 11:0.73105901 12:0.017986 13:0.95257401 14:0.99330699 15:0.006693 16:0.047426 17:0.26894099 18:0.982014 19:0.5 20:0.982014 21:0.171296 #
-4.2383812307980059941314721072558 1:0.00091100001 2:0.00091100001 3:0.00033499999 4:0.00012300001 5:0.00091100001 6:0.002473 7:0.00091100001 8:0.00091100001 9:0.00091100001 10:0.00091100001 11:0.002473 12:0.00091100001 13:0.002473 14:0.119203 15:0.00033499999 16:0.00091100001 17:0.00091100001 18:0.99999797 19:0.119203 20:0.00091100001 21:1.115741 #
-4.2383812307980059941314721072558 1:0.5 2:0.88079703 3:0.5 4:0.73105901 5:0.047426 6:0.73105901 7:0.5 8:0.26894099 9:0.5 10:0.26894099 11:0.73105901 12:0.5 13:0.88079703 14:0.119203 15:0.047426 16:0.5 17:0.26894099 18:0.017986 19:0.119203 20:0.119203 21:0.032407001 #
-4.2383812307980059941314721072558 1:0.00091100001 2:0.00091100001 3:0.00033499999 4:0.00012300001 5:0.00091100001 6:0.002473 7:0.00091100001 8:0.00091100001 9:0.00091100001 10:0.00091100001 11:0.002473 12:0.00091100001 13:0.002473 14:0.119203 15:0.00033499999 16:0.00091100001 17:0.00091100001 18:0.99999797 19:0.119203 20:0.00091100001 21:1.111111 #
-4.2383812307980059941314721072558 1:0.5 2:0.73105901 3:0.88079703 4:0.73105901 5:0.26894099 6:0.88079703 7:0.5 8:0.26894099 9:0.047426 10:0.119203 11:0.73105901 12:0.5 13:0.119203 14:0.047426 15:0.26894099 16:0.73105901 17:0.5 18:0.017986 19:0.26894099 20:0.5 21:0.025463 #
-4.2383812307980059941314721072558 1:0.88079703 2:0.5 3:0.5 4:0.5 5:0.119203 6:0.73105901 7:0.5 8:0.119203 9:0.119203 10:0.26894099 11:0.26894099 12:0.88079703 13:0.26894099 14:0.047426 15:0.119203 16:0.5 17:0.5 18:0.017986 19:0.047426 20:0.73105901 21:0.034722 #
-4.2383812307980059941314721072558 1:0.00091100001 2:0.00091100001 3:0.00033499999 4:0.00012300001 5:0.002473 6:0.002473 7:0.00091100001 8:0.00091100001 9:0.00091100001 10:0.00091100001 11:0.002473 12:0.00091100001 13:0.002473 14:0.047426 15:0.00033499999 16:0.00091100001 17:0.00091100001 18:0.99999797 19:0.119203 20:0.00091100001 21:1.1180561 #
10.850255950842894847596653562505 1:0.00091100001 2:0.047426 3:0.99966502 4:0.982014 5:0.00012300001 6:0.017986 7:0.119203 8:0.006693 9:0.002473 10:0.00012300001 11:0.00012300001 12:0.002473 13:0.00033499999 14:0.00012300001 15:0.00033499999 16:0.119203 17:0.006693 18:4.5000001e-05 19:0.00033499999 20:0.00012300001 21:0.578704 #
10.850255950842894847596653562505 1:0.982014 2:0.017986 3:0.017986 4:0.006693 5:0.047426 6:0.017986 7:0.017986 8:0.047426 9:0.017986 10:0.26894099 11:0.88079703 12:0.017986 13:0.26894099 14:0.982014 15:0.26894099 16:0.119203 17:0.047426 18:0.88079703 19:0.5 20:0.5 21:0.134259 #
-4.2383812307980059941314721072558 1:0.5 2:0.26894099 3:0.73105901 4:0.88079703 5:0.017986 6:0.73105901 7:0.73105901 8:0.047426 9:0.73105901 10:0.119203 11:0.5 12:0.73105901 13:0.119203 14:0.047426 15:0.26894099 16:0.73105901 17:0.73105901 18:0.017986 19:0.047426 20:0.26894099 21:0.039352 #
-4.2383812307980059941314721072558 1:0.00091100001 2:0.00091100001 3:0.00033499999 4:0.00012300001 5:0.002473 6:0.002473 7:0.00091100001 8:0.00091100001 9:0.00091100001 10:0.00091100001 11:0.002473 12:0.00091100001 13:0.002473 14:0.047426 15:0.00033499999 16:0.00091100001 17:0.00091100001 18:0.99999797 19:0.119203 20:0.00091100001 21:1.1180561 #
-4.2383812307980059941314721072558 1:0.5 2:0.73105901 3:0.26894099 4:0.5 5:0.017986 6:0.88079703 7:0.95257401 8:0.047426 9:0.26894099 10:0.88079703 11:0.5 12:0.5 13:0.95257401 14:0.047426 15:0.047426 16:0.26894099 17:0.26894099 18:0.017986 19:0.047426 20:0.5 21:0.057870001 #
10.850255950842894847596653562505 1:0.5 2:0.006693 3:0.006693 4:0.006693 5:0.5 6:0.017986 7:0.047426 8:0.006693 9:0.006693 10:0.982014 11:0.88079703 12:0.006693 13:0.73105901 14:0.88079703 15:0.26894099 16:0.119203 17:0.26894099 18:0.73105901 19:0.5 20:0.88079703 21:0.127315 #
-4.2383812307980059941314721072558 1:0.73105901 2:0.5 3:0.73105901 4:0.88079703 5:0.017986 6:0.73105901 7:0.73105901 8:0.5 9:0.119203 10:0.26894099 11:0.119203 12:0.73105901 13:0.26894099 14:0.119203 15:0.73105901 16:0.88079703 17:0.26894099 18:0.006693 19:0.047426 20:0.119203 21:0.041666999 #
10.850255950842894847596653562505 1:0.047426 2:0.047426 3:0.017986 4:0.017986 5:0.119203 6:0.017986 7:0.017986 8:0.006693 9:0.26894099 10:0.88079703 11:0.88079703 12:0.017986 13:0.95257401 14:0.982014 15:0.047426 16:0.017986 17:0.26894099 18:0.997527 19:0.73105901 20:0.88079703 21:0.157407 #
-4.2383812307980059941314721072558 1:0.00091100001 2:0.00091100001 3:0.00033499999 4:0.00012300001 5:0.00091100001 6:0.002473 7:0.00091100001 8:0.002473 9:0.00091100001 10:0.00091100001 11:0.002473 12:0.00091100001 13:0.002473 14:0.017986 15:0.00033499999 16:0.00091100001 17:0.00091100001 18:0.99999797 19:0.119203 20:0.002473 21:1.122685 #
10.850255950842894847596653562505 1:0.017986 2:0.95257401 3:0.017986 4:0.017986 5:0.00091100001 6:0.119203 7:0.047426 8:0.006693 9:0.017986 10:0.002473 11:0.002473 12:0.99966502 13:0.006693 14:0.00091100001 15:0.006693 16:0.017986 17:0.017986 18:0.00091100001 19:0.006693 20:0.002473 21:0.488426 #
-4.2383812307980059941314721072558 1:0.73105901 2:0.5 3:0.5 4:0.73105901 5:0.5 6:0.73105901 7:0.5 8:0.119203 9:0.73105901 10:0.119203 11:0.26894099 12:0.95257401 13:0.73105901 14:0.119203 15:0.119203 16:0.73105901 17:0.5 18:0.017986 19:0.119203 20:0.26894099 21:0.034722 #
-4.2383812307980059941314721072558 1:0.00091100001 2:0.00091100001 3:0.00033499999 4:0.00012300001 5:0.017986 6:0.002473 7:0.00091100001 8:0.00091100001 9:0.00091100001 10:0.00091100001 11:0.002473 12:0.00091100001 13:0.002473 14:0.047426 15:0.00033499999 16:0.00091100001 17:0.00091100001 18:0.99999797 19:0.119203 20:0.00091100001 21:1.1180561 #
-4.2383812307980059941314721072558 1:0.5 2:0.73105901 3:0.73105901 4:0.73105901 5:0.26894099 6:0.73105901 7:0.73105901 8:0.119203 9:0.73105901 10:0.119203 11:0.26894099 12:0.73105901 13:0.119203 14:0.047426 15:0.26894099 16:0.5 17:0.73105901 18:0.047426 19:0.119203 20:0.5 21:0.027778 #
10.850255950842894847596653562505 1:0.006693 2:0.017986 3:0.006693 4:0.006693 5:0.00033499999 6:0.99987698 7:0.047426 8:0.26894099 9:0.26894099 10:0.00033499999 11:0.00091100001 12:0.017986 13:0.006693 14:0.00033499999 15:0.002473 16:0.017986 17:0.006693 18:0.00091100001 19:0.002473 20:0.00091100001 21:0.66203701 #
-4.2383812307980059941314721072558 1:0.5 2:0.26894099 3:0.5 4:0.73105901 5:0.047426 6:0.73105901 7:0.88079703 8:0.119203 9:0.26894099 10:0.26894099 11:0.119203 12:0.95257401 13:0.26894099 14:0.047426 15:0.88079703 16:0.5 17:0.73105901 18:0.017986 19:0.047426 20:0.5 21:0.055555999 #
-4.2383812307980059941314721072558 1:0.00091100001 2:0.00091100001 3:0.00033499999 4:0.00012300001 5:0.00091100001 6:0.00091100001 7:0.00033499999 8:0.00091100001 9:0.00091100001 10:0.00091100001 11:0.006693 12:0.00033499999 13:0.002473 14:0.017986 15:0.00033499999 16:0.00091100001 17:0.00091100001 18:0.99999797 19:0.5 20:0.00033499999 21:1.136574 #
-4.2383812307980059941314721072558 1:0.73105901 2:0.26894099 3:0.26894099 4:0.5 5:0.047426 6:0.73105901 7:0.88079703 8:0.26894099 9:0.26894099 10:0.5 11:0.119203 12:0.73105901 13:0.26894099 14:0.047426 15:0.119203 16:0.73105901 17:0.73105901 18:0.017986 19:0.047426 20:0.5 21:0.037037 #
-4.2383812307980059941314721072558 1:0.00091100001 2:0.002473 3:0.00012300001 4:0.00012300001 5:0.00091100001 6:0.00091100001 7:0.00033499999 8:0.00091100001 9:0.00091100001 10:0.00091100001 11:0.006693 12:0.00033499999 13:0.017986 14:0.017986 15:0.00012300001 16:0.00033499999 17:0.00091100001 18:0.99999797 19:0.119203 20:0.00033499999 21:1.134259 #
-4.2383812307980059941314721072558 1:0.5 2:0.88079703 3:0.5 4:0.88079703 5:0.5 6:0.73105901 7:0.88079703 8:0.26894099 9:0.73105901 10:0.5 11:0.119203 12:0.73105901 13:0.119203 14:0.047426 15:0.119203 16:0.5 17:0.5 18:0.047426 19:0.119203 20:0.26894099 21:0.039352 #
-4.2383812307980059941314721072558 1:0.5 2:0.88079703 3:0.5 4:0.88079703 5:0.5 6:0.73105901 7:0.88079703 8:0.26894099 9:0.73105901 10:0.5 11:0.119203 12:0.73105901 13:0.119203 14:0.047426 15:0.119203 16:0.5 17:0.5 18:0.047426 19:0.119203 20:0.26894099 21:0.039352 #
-4.2383812307980059941314721072558 1:0.00091100001 2:0.00091100001 3:4.5000001e-05 4:1.7e-05 5:0.00012300001 6:0.00012300001 7:0.00012300001 8:0.00091100001 9:0.002473 10:0.00091100001 11:0.00091100001 12:0.00012300001 13:0.006693 14:0.73105901 15:4.5000001e-05 16:0.00033499999 17:0.00012300001 18:0.99999797 19:0.119203 20:0.00012300001 21:1.1319439 #
10.850255950842894847596653562505 1:0.006693 2:0.006693 3:0.119203 4:0.99966502 5:0.00091100001 6:0.047426 7:0.5 8:0.006693 9:0.017986 10:0.00091100001 11:0.00091100001 12:0.017986 13:0.002473 14:0.00091100001 15:0.006693 16:0.047426 17:0.017986 18:0.00033499999 19:0.002473 20:0.00091100001 21:0.58101898 #
-4.2383812307980059941314721072558 1:0.5 2:0.5 3:0.26894099 4:0.5 5:0.119203 6:0.73105901 7:0.95257401 8:0.047426 9:0.73105901 10:0.5 11:0.26894099 12:0.88079703 13:0.26894099 14:0.017986 15:0.73105901 16:0.26894099 17:0.5 18:0.017986 19:0.119203 20:0.5 21:0.048611 #
10.850255950842894847596653562505 1:0.26894099 2:0.047426 3:0.047426 4:0.002473 5:0.119203 6:0.006693 7:0.006693 8:0.006693 9:0.006693 10:0.88079703 11:0.95257401 12:0.017986 13:0.73105901 14:0.95257401 15:0.006693 16:0.017986 17:0.119203 18:0.997527 19:0.5 20:0.88079703 21:0.166667 #
-4.2383812307980059941314721072558 1:0.00033499999 2:0.00033499999 3:0.006693 4:4.5000001e-05 5:0.002473 6:0.00091100001 7:0.00033499999 8:0.006693 9:0.00033499999 10:0.00033499999 11:0.00091100001 12:0.00091100001 13:0.00091100001 14:0.5 15:0.00012300001 16:0.00091100001 17:0.00033499999 18:0.99999797 19:0.119203 20:0.00033499999 21:1.104167 #
-4.2383812307980059941314721072558 1:0.5 2:0.26894099 3:0.73105901 4:0.5 5:0.006693 6:0.5 7:0.73105901 8:0.26894099 9:0.26894099 10:0.119203 11:0.26894099 12:0.95257401 13:0.5 14:0.017986 15:0.95257401 16:0.5 17:0.5 18:0.006693 19:0.047426 20:0.5 21:0.050926 #
-4.2383812307980059941314721072558 1:0.00033499999 2:0.00033499999 3:0.00012300001 4:4.5000001e-05 5:0.00033499999 6:0.00091100001 7:0.00033499999 8:0.00033499999 9:0.00091100001 10:0.00033499999 11:0.00091100001 12:0.00033499999 13:0.00091100001 14:0.047426 15:0.00012300001 16:0.00033499999 17:0.00033499999 18:0.99999797 19:0.73105901 20:0.00033499999 21:1.157407 #
-4.2383812307980059941314721072558 1:0.5 2:0.95257401 3:0.5 4:0.5 5:0.119203 6:0.95257401 7:0.88079703 8:0.119203 9:0.26894099 10:0.119203 11:0.5 12:0.73105901 13:0.26894099 14:0.047426 15:0.26894099 16:0.5 17:0.26894099 18:0.006693 19:0.047426 20:0.26894099 21:0.057870001 #
-4.2383812307980059941314721072558 1:0.00091100001 2:0.00091100001 3:0.00033499999 4:0.00012300001 5:0.00091100001 6:0.002473 7:0.00091100001 8:0.00091100001 9:0.00091100001 10:0.00091100001 11:0.017986 12:0.00091100001 13:0.002473 14:0.047426 15:0.00033499999 16:0.00091100001 17:0.00091100001 18:0.99999797 19:0.119203 20:0.00091100001 21:1.108796 #
-4.2383812307980059941314721072558 1:0.26894099 2:0.73105901 3:0.5 4:0.95257401 5:0.26894099 6:0.73105901 7:0.95257401 8:0.26894099 9:0.5 10:0.26894099 11:0.119203 12:0.5 13:0.5 14:0.017986 15:0.26894099 16:0.5 17:0.5 18:0.017986 19:0.047426 20:0.26894099 21:0.057870001 #
10.850255950842894847596653562505 1:0.017986 2:0.006693 3:0.006693 4:0.002473 5:0.017986 6:0.017986 7:0.002473 8:0.002473 9:0.047426 10:0.95257401 11:0.982014 12:0.006693 13:0.88079703 14:0.88079703 15:0.006693 16:0.017986 17:0.047426 18:0.997527 19:0.95257401 20:0.88079703 21:0.210648 #
10.850255950842894847596653562505 1:0.017986 2:0.99330699 3:0.017986 4:0.017986 5:0.00091100001 6:0.119203 7:0.047426 8:0.006693 9:0.017986 10:0.002473 11:0.002473 12:0.999089 13:0.006693 14:0.00091100001 15:0.006693 16:0.017986 17:0.017986 18:0.002473 19:0.006693 20:0.002473 21:0.44675899 #
-4.2383812307980059941314721072558 1:0.5 2:0.5 3:0.5 4:0.5 5:0.047426 6:0.73105901 7:0.982014 8:0.047426 9:0.5 10:0.26894099 11:0.26894099 12:0.88079703 13:0.26894099 14:0.047426 15:0.047426 16:0.73105901 17:0.26894099 18:0.006693 19:0.047426 20:0.73105901 21:0.071759 #
-4.2383812307980059941314721072558 1:0.00091100001 2:0.00033499999 3:0.00012300001 4:0.00012300001 5:0.119203 6:0.00091100001 7:0.00033499999 8:0.00091100001 9:0.00091100001 10:0.00091100001 11:0.002473 12:0.00033499999 13:0.002473 14:0.017986 15:0.00012300001 16:0.00033499999 17:0.00091100001 18:0.99999797 19:0.119203 20:0.00033499999 21:1.159722 #
10.850255950842894847596653562505 1:0.002473 2:0.006693 3:0.95257401 4:0.99966502 5:0.00033499999 6:0.119203 7:0.119203 8:0.006693 9:0.017986 10:0.00033499999 11:0.00033499999 12:0.047426 13:0.00033499999 14:0.00033499999 15:0.017986 16:0.047426 17:0.006693 18:0.00012300001 19:0.00033499999 20:0.00033499999 21:0.539352 #
-4.2383812307980059941314721072558 1:0.26894099 2:0.5 3:0.5 4:0.73105901 5:0.047426 6:0.73105901 7:0.982014 8:0.119203 9:0.5 10:0.119203 11:0.5 12:0.73105901 13:0.73105901 14:0.047426 15:0.119203 16:0.26894099 17:0.73105901 18:0.017986 19:0.047426 20:0.26894099 21:0.0625 #
-4.2383812307980059941314721072558 1:0.00091100001 2:0.00033499999 3:0.00012300001 4:0.00012300001 5:0.119203 6:0.00091100001 7:0.00033499999 8:0.00091100001 9:0.00091100001 10:0.00091100001 11:0.002473 12:0.00033499999 13:0.002473 14:0.017986 15:0.00012300001 16:0.00033499999 17:0.00091100001 18:0.99999797 19:0.119203 20:0.00033499999 21:1.159722 #
-4.2383812307980059941314721072558 1:0.26894099 2:0.73105901 3:0.119203 4:0.5 5:0.047426 6:0.88079703 7:0.88079703 8:0.119203 9:0.26894099 10:0.5 11:0.73105901 12:0.88079703 13:0.73105901 14:0.047426 15:0.119203 16:0.26894099 17:0.5 18:0.047426 19:0.047426 20:0.5 21:0.039352 #
10.850255950842894847596653562505 1:0.047426 2:0.017986 3:0.006693 4:0.006693 5:0.119203 6:0.017986 7:0.006693 8:0.006693 9:0.047426 10:0.982014 11:0.73105901 12:0.017986 13:0.73105901 14:0.982014 15:0.006693 16:0.017986 17:0.047426 18:0.982014 19:0.88079703 20:0.95257401 21:0.178241 #
-4.2383812307980059941314721072558 1:0.5 2:0.5 3:0.88079703 4:0.26894099 5:0.047426 6:0.5 7:0.88079703 8:0.047426 9:0.119203 10:0.73105901 11:0.119203 12:0.88079703 13:0.26894099 14:0.047426 15:0.047426 16:0.26894099 17:0.73105901 18:0.017986 19:0.047426 20:0.88079703 21:0.055555999 #
-4.2383812307980059941314721072558 1:0.00091100001 2:0.00091100001 3:0.00033499999 4:0.00012300001 5:0.00091100001 6:0.002473 7:0.00091100001 8:0.00091100001 9:0.00091100001 10:0.00091100001 11:0.006693 12:0.00091100001 13:0.006693 14:0.26894099 15:0.00033499999 16:0.00091100001 17:0.00091100001 18:0.99999797 19:0.119203 20:0.00091100001 21:1.083333 #
-4.2383812307980059941314721072558 1:0.73105901 2:0.5 3:0.26894099 4:0.73105901 5:0.26894099 6:0.73105901 7:0.73105901 8:0.119203 9:0.119203 10:0.5 11:0.119203 12:0.5 13:0.73105901 14:0.119203 15:0.5 16:0.73105901 17:0.88079703 18:0.017986 19:0.119203 20:0.26894099 21:0.030092999 #
-4.2383812307980059941314721072558 1:0.00091100001 2:0.00091100001 3:0.00033499999 4:0.00033499999 5:0.002473 6:0.002473 7:0.00091100001 8:0.00091100001 9:0.002473 10:0.00091100001 11:0.002473 12:0.00091100001 13:0.006693 14:0.047426 15:0.00033499999 16:0.00091100001 17:0.002473 18:0.99999797 19:0.26894099 20:0.00091100001 21:1.104167 #
-4.2383812307980059941314721072558 1:0.73105901 2:0.73105901 3:0.26894099 4:0.73105901 5:0.119203 6:0.5 7:0.5 8:0.26894099 9:0.26894099 10:0.5 11:0.5 12:0.73105901 13:0.5 14:0.119203 15:0.5 16:0.5 17:0.5 18:0.047426 19:0.119203 20:0.5 21:0.013889 #
10.850255950842894847596653562505 1:0.119203 2:0.017986 3:0.047426 4:0.006693 5:0.047426 6:0.017986 7:0.017986 8:0.006693 9:0.26894099 10:0.88079703 11:0.982014 12:0.017986 13:0.88079703 14:0.5 15:0.017986 16:0.017986 17:0.119203 18:0.982014 19:0.95257401 20:0.88079703 21:0.171296 #
-4.2383812307980059941314721072558 1:0.5 2:0.95257401 3:0.26894099 4:0.5 5:0.047426 6:0.73105901 7:0.88079703 8:0.047426 9:0.88079703 10:0.5 11:0.26894099 12:0.73105901 13:0.5 14:0.119203 15:0.047426 16:0.26894099 17:0.5 18:0.017986 19:0.119203 20:0.5 21:0.046296 #
10.850255950842894847596653562505 1:0.006693 2:0.006693 3:0.006693 4:0.047426 5:0.00091100001 6:0.5 7:0.99966502 8:0.002473 9:0.006693 10:0.00091100001 11:0.00091100001 12:0.017986 13:0.002473 14:0.00091100001 15:0.017986 16:0.047426 17:0.006693 18:0.00091100001 19:0.002473 20:0.00091100001 21:0.58101898 #
-4.2383812307980059941314721072558 1:0.00091100001 2:0.002473 3:0.00033499999 4:0.00033499999 5:0.017986 6:0.002473 7:0.00091100001 8:0.002473 9:0.00091100001 10:0.00091100001 11:0.006693 12:0.00091100001 13:0.002473 14:0.047426 15:0.00033499999 16:0.00091100001 17:0.00091100001 18:0.99999797 19:0.119203 20:0.00091100001 21:1.099537 #
-4.2383812307980059941314721072558 1:0.5 2:0.5 3:0.5 4:0.88079703 5:0.047426 6:0.26894099 7:0.95257401 8:0.5 9:0.73105901 10:0.119203 11:0.26894099 12:0.5 13:0.73105901 14:0.047426 15:0.5 16:0.5 17:0.88079703 18:0.017986 19:0.047426 20:0.26894099 21:0.046296 #
-4.2383812307980059941314721072558 1:0.00091100001 2:0.00091100001 3:0.00033499999 4:0.00033499999 5:0.002473 6:0.002473 7:0.00091100001 8:0.00091100001 9:0.002473 10:0.00091100001 11:0.002473 12:0.00091100001 13:0.006693 14:0.047426 15:0.00033499999 16:0.00091100001 17:0.002473 18:0.99999797 19:0.26894099 20:0.00091100001 21:1.1018521 #
-4.2383812307980059941314721072558 1:0.5 2:0.5 3:0.26894099 4:0.88079703 5:0.017986 6:0.73105901 7:0.88079703 8:0.047426 9:0.26894099 10:0.73105901 11:0.26894099 12:0.5 13:0.73105901 14:0.047426 15:0.95257401 16:0.119203 17:0.119203 18:0.017986 19:0.047426 20:0.5 21:0.0625 #
10.850255950842894847596653562505 1:0.047426 2:0.017986 3:0.006693 4:0.006693 5:0.95257401 6:0.017986 7:0.006693 8:0.047426 9:0.017986 10:0.88079703 11:0.982014 12:0.017986 13:0.99330699 14:0.5 15:0.73105901 16:0.119203 17:0.119203 18:0.95257401 19:0.26894099 20:0.5 21:0.150463 #
-4.2383812307980059941314721072558 1:0.5 2:0.26894099 3:0.26894099 4:0.73105901 5:0.5 6:0.5 7:0.73105901 8:0.5 9:0.119203 10:0.5 11:0.73105901 12:0.5 13:0.73105901 14:0.119203 15:0.26894099 16:0.5 17:0.88079703 18:0.017986 19:0.047426 20:0.5 21:0.020833001 #
10.850255950842894847596653562505 1:0.002473 2:0.002473 3:0.5 4:0.99966502 5:0.00033499999 6:0.006693 7:0.119203 8:0.006693 9:0.047426 10:0.00033499999 11:0.00033499999 12:0.006693 13:0.00033499999 14:0.00033499999 15:0.002473 16:0.006693 17:0.006693 18:0.00012300001 19:0.00033499999 20:0.00033499999 21:0.65046299 #
-4.2383812307980059941314721072558 1:0.002473 2:0.002473 3:0.00091100001 4:0.00091100001 5:0.002473 6:0.002473 7:0.00091100001 8:0.00091100001 9:0.002473 10:0.00091100001 11:0.002473 12:0.00091100001 13:0.002473 14:0.26894099 15:0.00091100001 16:0.002473 17:0.002473 18:0.99999797 19:0.047426 20:0.00091100001 21:1.081019 #
-4.2383812307980059941314721072558 1:0.26894099 2:0.26894099 3:0.73105901 4:0.73105901 5:0.119203 6:0.73105901 7:0.88079703 8:0.26894099 9:0.5 10:0.5 11:0.5 12:0.73105901 13:0.88079703 14:0.119203 15:0.26894099 16:0.73105901 17:0.26894099 18:0.047426 19:0.119203 20:0.5 21:0.027778 #
10.850255950842894847596653562505 1:0.017986 2:0.997527 3:0.017986 4:0.017986 5:0.00091100001 6:0.5 7:0.047426 8:0.006693 9:0.017986 10:0.002473 11:0.002473 12:0.997527 13:0.006693 14:0.00091100001 15:0.006693 16:0.017986 17:0.017986 18:0.002473 19:0.006693 20:0.002473 21:0.42361099 #
-4.2383812307980059941314721072558 1:0.00091100001 2:0.002473 3:0.00033499999 4:0.00033499999 5:0.017986 6:0.002473 7:0.00091100001 8:0.002473 9:0.00091100001 10:0.00091100001 11:0.006693 12:0.00091100001 13:0.002473 14:0.047426 15:0.00033499999 16:0.00091100001 17:0.00091100001 18:0.99999797 19:0.119203 20:0.00091100001 21:1.097222 #
-4.2383812307980059941314721072558 1:0.73105901 2:0.73105901 3:0.26894099 4:0.73105901 5:0.017986 6:0.95257401 7:0.95257401 8:0.047426 9:0.119203 10:0.26894099 11:0.88079703 12:0.26894099 13:0.5 14:0.047426 15:0.047426 16:0.26894099 17:0.26894099 18:0.017986 19:0.047426 20:0.5 21:0.0625 #
10.850255950842894847596653562505 1:0.047426 2:0.017986 3:0.017986 4:0.006693 5:0.017986 6:0.017986 7:0.006693 8:0.006693 9:0.26894099 10:0.982014 11:0.88079703 12:0.017986 13:0.88079703 14:0.5 15:0.017986 16:0.017986 17:0.119203 18:0.88079703 19:0.982014 20:0.982014 21:0.173611 #
-4.2383812307980059941314721072558 1:0.00091100001 2:0.002473 3:0.00033499999 4:0.00033499999 5:0.017986 6:0.002473 7:0.00091100001 8:0.002473 9:0.00091100001 10:0.00091100001 11:0.006693 12:0.00091100001 13:0.002473 14:0.047426 15:0.00033499999 16:0.00091100001 17:0.00091100001 18:0.99999797 19:0.119203 20:0.002473 21:1.097222 #
-4.2383812307980059941314721072558 1:0.26894099 2:0.5 3:0.88079703 4:0.88079703 5:0.5 6:0.26894099 7:0.95257401 8:0.047426 9:0.119203 10:0.88079703 11:0.119203 12:0.5 13:0.119203 14:0.047426 15:0.047426 16:0.5 17:0.5 18:0.017986 19:0.047426 20:0.73105901 21:0.055555999 #
-4.2383812307980059941314721072558 1:0.73105901 2:0.73105901 3:0.119203 4:0.95257401 5:0.119203 6:0.5 7:0.95257401 8:0.26894099 9:0.73105901 10:0.26894099 11:0.5 12:0.26894099 13:0.5 14:0.047426 15:0.26894099 16:0.5 17:0.5 18:0.006693 19:0.119203 20:0.119203 21:0.048611 #
-4.2383812307980059941314721072558 1:0.00033499999 2:0.00033499999 3:0.00012300001 4:4.5000001e-05 5:0.00033499999 6:0.00091100001 7:0.00033499999 8:0.00033499999 9:0.00091100001 10:0.00033499999 11:0.00091100001 12:0.00033499999 13:0.00091100001 14:0.119203 15:0.00012300001 16:0.00033499999 17:0.00033499999 18:0.99999797 19:0.73105901 20:0.00033499999 21:1.145833 #
-4.2383812307980059941314721072558 1:0.26894099 2:0.26894099 3:0.88079703 4:0.5 5:0.26894099 6:0.88079703 7:0.95257401 8:0.26894099 9:0.26894099 10:0.26894099 11:0.26894099 12:0.5 13:0.73105901 14:0.047426 15:0.5 16:0.5 17:0.73105901 18:0.006693 19:0.119203 20:0.119203 21:0.037037 #
10.850255950842894847596653562505 1:0.006693 2:0.006693 3:0.119203 4:0.99966502 5:0.00091100001 6:0.047426 7:0.5 8:0.006693 9:0.017986 10:0.002473 11:0.00091100001 12:0.017986 13:0.002473 14:0.00091100001 15:0.006693 16:0.047426 17:0.017986 18:0.00033499999 19:0.002473 20:0.002473 21:0.57407397 #
-4.2383812307980059941314721072558 1:0.00091100001 2:0.006693 3:0.00033499999 4:0.00012300001 5:0.00091100001 6:0.00091100001 7:0.00091100001 8:0.00091100001 9:0.00091100001 10:0.00091100001 11:0.006693 12:0.00033499999 13:0.017986 14:0.047426 15:0.00033499999 16:0.00091100001 17:0.00091100001 18:0.99999797 19:0.119203 20:0.002473 21:1.12037 #
10.850255950842894847596653562505 1:0.26894099 2:0.017986 3:0.017986 4:0.006693 5:0.88079703 6:0.047426 7:0.017986 8:0.017986 9:0.017986 10:0.88079703 11:0.982014 12:0.017986 13:0.95257401 14:0.73105901 15:0.017986 16:0.047426 17:0.119203 18:0.88079703 19:0.119203 20:0.88079703 21:0.134259 #
-4.2383812307980059941314721072558 1:0.73105901 2:0.5 3:0.26894099 4:0.73105901 5:0.26894099 6:0.73105901 7:0.73105901 8:0.119203 9:0.119203 10:0.5 11:0.119203 12:0.5 13:0.73105901 14:0.119203 15:0.5 16:0.73105901 17:0.88079703 18:0.017986 19:0.119203 20:0.26894099 21:0.032407001 #
-4.2383812307980059941314721072558 1:0.00033499999 2:0.00033499999 3:0.017986 4:4.5000001e-05 5:0.002473 6:0.00091100001 7:0.00033499999 8:0.006693 9:0.00033499999 10:0.00033499999 11:0.00091100001 12:0.00033499999 13:0.00091100001 14:0.5 15:0.00012300001 16:0.00091100001 17:0.00033499999 18:0.99999797 19:0.119203 20:0.00033499999 21:1.106481 #
-4.2383812307980059941314721072558 1:0.88079703 2:0.5 3:0.26894099 4:0.5 5:0.047426 6:0.73105901 7:0.88079703 8:0.26894099 9:0.26894099 10:0.26894099 11:0.5 12:0.5 13:0.26894099 14:0.047426 15:0.119203 16:0.5 17:0.5 18:0.017986 19:0.047426 20:0.5 21:0.041666999 #
-4.2383812307980059941314721072558 1:0.26894099 2:0.5 3:0.73105901 4:0.5 5:0.73105901 6:0.95257401 7:0.73105901 8:0.119203 9:0.88079703 10:0.73105901 11:0.119203 12:0.73105901 13:0.119203 14:0.047426 15:0.047426 16:0.5 17:0.88079703 18:0.017986 19:0.119203 20:0.26894099 21:0.048611 #
10.850255950842894847596653562505 1:0.26894099 2:0.047426 3:0.047426 4:0.017986 5:0.95257401 6:0.047426 7:0.047426 8:0.017986 9:0.047426 10:0.95257401 11:0.73105901 12:0.047426 13:0.88079703 14:0.73105901 15:0.047426 16:0.119203 17:0.5 18:0.95257401 19:0.26894099 20:0.95257401 21:0.078704 #
-4.2383812307980059941314721072558 1:0.00091100001 2:0.00091100001 3:0.00033499999 4:0.00012300001 5:0.017986 6:0.002473 7:0.00091100001 8:0.00091100001 9:0.00091100001 10:0.00091100001 11:0.006693 12:0.00091100001 13:0.017986 14:0.047426 15:0.00033499999 16:0.002473 17:0.00091100001 18:0.99999797 19:0.119203 20:0.00091100001 21:1.111111 #
-4.2383812307980059941314721072558 1:0.5 2:0.5 3:0.73105901 4:0.5 5:0.047426 6:0.73105901 7:0.5 8:0.5 9:0.88079703 10:0.5 11:0.26894099 12:0.5 13:0.73105901 14:0.047426 15:0.73105901 16:0.5 17:0.5 18:0.047426 19:0.119203 20:0.5 21:0.0069439998 #
10.850255950842894847596653562505 1:0.006693 2:0.017986 3:0.88079703 4:0.047426 5:0.00033499999 6:0.119203 7:0.99966502 8:0.002473 9:0.017986 10:0.00091100001 11:0.00091100001 12:0.017986 13:0.002473 14:0.00091100001 15:0.006693 16:0.017986 17:0.017986 18:0.00091100001 19:0.002473 20:0.00091100001 21:0.54398102 #
-4.2383812307980059941314721072558 1:0.5 2:0.5 3:0.73105901 4:0.5 5:0.119203 6:0.26894099 7:0.95257401 8:0.26894099 9:0.119203 10:0.5 11:0.73105901 12:0.5 13:0.88079703 14:0.119203 15:0.047426 16:0.119203 17:0.5 18:0.017986 19:0.047426 20:0.5 21:0.037037 #
