SVM-light Version V6.02
3 # kernel type
3 # kernel parameter -d 
1 # kernel parameter -g 
1 # kernel parameter -s 
1 # kernel parameter -r 
empty# kernel parameter -u 
21 # highest feature index 
73654 # number of training documents 
5086 # number of support vectors plus 1 
288.50837 # threshold b, each following line is a SV (starting with alpha*y)
-4.2370172945757840210490030585788 1:0.26894099 2:0.26894099 3:0.5 4:0.73105901 5:0.006693 6:0.5 7:0.73105901 8:0.73105901 9:0.047426 10:0.119203 11:0.017986 12:0.95257401 13:0.017986 14:0.047426 15:0.88079703 16:0.26894099 17:0.119203 18:0.006693 19:0.26894099 20:0.26894099 21:0.078704 #
10.846764274114006454396985645872 1:0.73105901 2:0.119203 3:0.047426 4:0.047426 5:0.047426 6:0.982014 7:0.26894099 8:0.047426 9:0.5 10:0.5 11:0.5 12:0.26894099 13:0.5 14:0.5 15:0.047426 16:0.5 17:0.73105901 18:0.017986 19:0.26894099 20:0.88079703 21:0.0625 #
-4.2370172945757840210490030585788 1:0.00091100001 2:0.00091100001 3:0.00012300001 4:4.5000001e-05 5:0.00033499999 6:0.00091100001 7:0.00012300001 8:4.5000001e-05 9:0.00091100001 10:0.119203 11:0.997527 12:0.00012300001 13:0.982014 14:0.99330699 15:0.00012300001 16:0.00033499999 17:0.00091100001 18:0.006693 19:0.002473 20:0.017986 21:0.472222 #
10.846764274114006454396985645872 1:0.006693 2:0.00033499999 3:0.002473 4:0.00091100001 5:0.002473 6:0.00091100001 7:0.00091100001 8:0.5 9:0.00033499999 10:0.006693 11:0.00091100001 12:0.00091100001 13:0.00033499999 14:0.00012300001 15:0.99987698 16:0.006693 17:0.002473 18:0.00012300001 19:0.00012300001 20:0.006693 21:0.70138901 #
-4.2370172945757840210490030585788 1:0.119203 2:0.88079703 3:0.88079703 4:0.88079703 5:0.006693 6:0.73105901 7:0.88079703 8:0.95257401 9:0.26894099 10:0.006693 11:0.006693 12:0.88079703 13:0.006693 14:0.002473 15:0.95257401 16:0.119203 17:0.047426 18:0.002473 19:0.006693 20:0.006693 21:0.125 #
4.2370169090921736554378185246605 1:0.119203 2:0.88079703 3:0.26894099 4:0.5 5:0.047426 6:0.5 7:0.5 8:0.017986 9:0.73105901 10:0.73105901 11:0.95257401 12:0.73105901 13:0.95257401 14:0.26894099 15:0.017986 16:0.119203 17:0.119203 18:0.017986 19:0.26894099 20:0.5 21:0.057870001 #
-4.2370172945757840210490030585788 1:0.002473 2:0.00033499999 3:0.00033499999 4:0.00033499999 5:0.002473 6:0.00033499999 7:0.00033499999 8:0.00012300001 9:0.00033499999 10:0.99966502 11:0.047426 12:0.00033499999 13:0.017986 14:0.006693 15:0.00033499999 16:0.00091100001 17:0.006693 18:0.00033499999 19:0.002473 20:0.95257401 21:0.56018502 #
-4.2370172945757840210490030585788 1:0.119203 2:0.119203 3:0.88079703 4:0.95257401 5:0.006693 6:0.26894099 7:0.5 8:0.95257401 9:0.26894099 10:0.006693 11:0.006693 12:0.73105901 13:0.006693 14:0.006693 15:0.982014 16:0.88079703 17:0.5 18:0.002473 19:0.017986 20:0.017986 21:0.12963 #
10.846764274114006454396985645872 1:0.26894099 2:0.119203 3:0.5 4:0.26894099 5:0.047426 6:0.5 7:0.5 8:0.017986 9:0.73105901 10:0.88079703 11:0.5 12:0.119203 13:0.5 14:0.5 15:0.017986 16:0.26894099 17:0.73105901 18:0.88079703 19:0.95257401 20:0.88079703 21:0.043981001 #
-4.2370172945757840210490030585788 1:0.002473 2:0.00091100001 3:0.00033499999 4:0.00033499999 5:0.00091100001 6:0.00091100001 7:0.00033499999 8:0.00033499999 9:0.00091100001 10:0.006693 11:0.73105901 12:0.002473 13:0.73105901 14:0.999089 15:0.00033499999 16:0.00091100001 17:0.00091100001 18:0.999955 19:0.119203 20:0.002473 21:0.61111099 #
10.846764274114006454396985645872 1:0.002473 2:0.00033499999 3:0.002473 4:0.00091100001 5:0.00033499999 6:0.00033499999 7:0.00033499999 8:0.99966502 9:0.00033499999 10:4.5000001e-05 11:4.5000001e-05 12:0.00091100001 13:0.00012300001 14:0.00012300001 15:0.00033499999 16:0.002473 17:0.00091100001 18:0.00033499999 19:0.00012300001 20:0.00012300001 21:0.71296299 #
-4.2370172945757840210490030585788 1:0.5 2:0.73105901 3:0.119203 4:0.73105901 5:0.047426 6:0.88079703 7:0.73105901 8:0.26894099 9:0.26894099 10:0.006693 11:0.017986 12:0.73105901 13:0.006693 14:0.002473 15:0.982014 16:0.73105901 17:0.5 18:0.002473 19:0.017986 20:0.017986 21:0.094907001 #
-4.2370172945757840210490030585788 1:0.002473 2:0.00033499999 3:0.00012300001 4:0.00091100001 5:0.00033499999 6:0.00091100001 7:0.00033499999 8:0.00033499999 9:0.00091100001 10:0.002473 11:0.006693 12:0.00033499999 13:0.88079703 14:0.99330699 15:0.00012300001 16:0.00033499999 17:0.00091100001 18:0.99999398 19:0.5 20:0.00091100001 21:0.868056 #
10.846764274114006454396985645872 1:0.26894099 2:0.119203 3:0.5 4:0.26894099 5:0.047426 6:0.5 7:0.5 8:0.017986 9:0.73105901 10:0.88079703 11:0.5 12:0.119203 13:0.5 14:0.5 15:0.017986 16:0.26894099 17:0.73105901 18:0.88079703 19:0.95257401 20:0.88079703 21:0.043981001 #
-4.2370172945757840210490030585788 1:0.73105901 2:0.26894099 3:0.73105901 4:0.88079703 5:0.119203 6:0.5 7:0.73105901 8:0.88079703 9:0.26894099 10:0.047426 11:0.017986 12:0.5 13:0.017986 14:0.006693 15:0.88079703 16:0.5 17:0.5 18:0.006693 19:0.017986 20:0.047426 21:0.074074 #
10.846764274114006454396985645872 1:0.006693 2:0.00033499999 3:0.00033499999 4:0.00091100001 5:0.00012300001 6:0.00091100001 7:0.00091100001 8:0.00033499999 9:0.00033499999 10:0.00012300001 11:0.00012300001 12:0.00091100001 13:0.00012300001 14:4.5000001e-05 15:0.99987698 16:0.002473 17:0.00091100001 18:4.5000001e-05 19:0.00012300001 20:0.00033499999 21:0.84027803 #
-4.2370172945757840210490030585788 1:0.017986 2:0.00091100001 3:0.00033499999 4:0.00033499999 5:0.002473 6:0.00091100001 7:0.00091100001 8:0.00033499999 9:0.00033499999 10:0.95257401 11:0.047426 12:0.00091100001 13:0.047426 14:0.017986 15:0.00091100001 16:0.002473 17:0.006693 18:0.00091100001 19:0.002473 20:0.99966502 21:0.53009301 #
-4.2370172945757840210490030585788 1:0.26894099 2:0.119203 3:0.88079703 4:0.73105901 5:0.047426 6:0.5 7:0.73105901 8:0.88079703 9:0.26894099 10:0.017986 11:0.017986 12:0.88079703 13:0.017986 14:0.006693 15:0.982014 16:0.5 17:0.26894099 18:0.006693 19:0.017986 20:0.017986 21:0.113426 #
-4.2370172945757840210490030585788 1:0.00012300001 2:0.00012300001 3:4.5000001e-05 4:0.00091100001 5:0.002473 6:0.00033499999 7:0.00012300001 8:0.00012300001 9:0.00033499999 10:0.002473 11:0.006693 12:0.00012300001 13:0.73105901 14:0.73105901 15:4.5000001e-05 16:0.00033499999 17:0.00012300001 18:0.99999797 19:0.73105901 20:0.006693 21:1.030093 #
-4.2370172945757840210490030585788 1:0.88079703 2:0.26894099 3:0.26894099 4:0.88079703 5:0.006693 6:0.5 7:0.88079703 8:0.73105901 9:0.26894099 10:0.017986 11:0.017986 12:0.73105901 13:0.017986 14:0.002473 15:0.88079703 16:0.73105901 17:0.5 18:0.002473 19:0.006693 20:0.047426 21:0.078704 #
10.846764274114006454396985645872 1:0.26894099 2:0.119203 3:0.5 4:0.26894099 5:0.047426 6:0.5 7:0.5 8:0.017986 9:0.73105901 10:0.88079703 11:0.5 12:0.119203 13:0.5 14:0.5 15:0.017986 16:0.26894099 17:0.73105901 18:0.88079703 19:0.95257401 20:0.88079703 21:0.043981001 #
-4.2370172945757840210490030585788 1:0.00012300001 2:0.00012300001 3:4.5000001e-05 4:4.5000001e-05 5:0.00012300001 6:0.00033499999 7:0.00012300001 8:0.00091100001 9:0.00012300001 10:0.047426 11:0.047426 12:0.00012300001 13:0.95257401 14:0.119203 15:4.5000001e-05 16:0.00091100001 17:0.00012300001 18:0.99999797 19:0.26894099 20:0.002473 21:1.027778 #
-4.2370172945757840210490030585788 1:0.5 2:0.26894099 3:0.73105901 4:0.73105901 5:0.017986 6:0.88079703 7:0.26894099 8:0.73105901 9:0.047426 10:0.006693 11:0.006693 12:0.119203 13:0.017986 14:0.006693 15:0.95257401 16:0.95257401 17:0.73105901 18:0.006693 19:0.017986 20:0.017986 21:0.12037 #
-4.2370172945757840210490030585788 1:0.00033499999 2:0.00012300001 3:4.5000001e-05 4:0.00091100001 5:0.002473 6:0.00033499999 7:0.00012300001 8:0.00012300001 9:0.006693 10:0.002473 11:0.119203 12:0.00012300001 13:0.88079703 14:0.73105901 15:4.5000001e-05 16:0.00033499999 17:0.00033499999 18:0.99999797 19:0.73105901 20:0.017986 21:0.92824101 #
10.846764274114006454396985645872 1:0.002473 2:0.00091100001 3:0.00091100001 4:0.00091100001 5:0.00033499999 6:0.002473 7:0.002473 8:0.00091100001 9:0.00091100001 10:0.00033499999 11:0.00033499999 12:0.002473 13:0.00033499999 14:0.00012300001 15:0.99987698 16:0.002473 17:0.002473 18:0.00012300001 19:0.00033499999 20:0.00033499999 21:0.828704 #
-4.2370172945757840210490030585788 1:0.26894099 2:0.88079703 3:0.5 4:0.26894099 5:0.017986 6:0.5 7:0.5 8:0.95257401 9:0.119203 10:0.006693 11:0.017986 12:0.73105901 13:0.017986 14:0.006693 15:0.982014 16:0.5 17:0.26894099 18:0.002473 19:0.006693 20:0.017986 21:0.115741 #
10.846764274114006454396985645872 1:0.119203 2:0.5 3:0.5 4:0.26894099 5:0.119203 6:0.5 7:0.73105901 8:0.047426 9:0.5 10:0.73105901 11:0.26894099 12:0.5 13:0.26894099 14:0.88079703 15:0.017986 16:0.5 17:0.88079703 18:0.73105901 19:0.95257401 20:0.5 21:0.037037 #
-4.2370172945757840210490030585788 1:0.017986 2:0.00091100001 3:0.00091100001 4:0.00091100001 5:0.047426 6:0.002473 7:0.00091100001 8:0.00091100001 9:0.00091100001 10:0.95257401 11:0.047426 12:0.002473 13:0.047426 14:0.006693 15:0.00091100001 16:0.002473 17:0.017986 18:0.00091100001 19:0.006693 20:0.999089 21:0.49537 #
-4.2370172945757840210490030585788 1:0.5 2:0.88079703 3:0.88079703 4:0.95257401 5:0.047426 6:0.26894099 7:0.119203 8:0.73105901 9:0.119203 10:0.006693 11:0.017986 12:0.26894099 13:0.017986 14:0.017986 15:0.95257401 16:0.88079703 17:0.5 18:0.006693 19:0.017986 20:0.017986 21:0.101852 #
-4.2370172945757840210490030585788 1:0.00012300001 2:0.00012300001 3:4.5000001e-05 4:1.7e-05 5:0.00012300001 6:0.00033499999 7:0.00012300001 8:0.00012300001 9:0.00033499999 10:0.00033499999 11:0.00091100001 12:0.00012300001 13:0.00091100001 14:0.982014 15:0.00091100001 16:0.00012300001 17:0.00012300001 18:0.99999797 19:0.5 20:0.00012300001 21:1.0694439 #
-4.2370172945757840210490030585788 1:0.73105901 2:0.95257401 3:0.5 4:0.73105901 5:0.017986 6:0.26894099 7:0.26894099 8:0.95257401 9:0.119203 10:0.006693 11:0.017986 12:0.73105901 13:0.017986 14:0.006693 15:0.88079703 16:0.5 17:0.26894099 18:0.006693 19:0.017986 20:0.017986 21:0.101852 #
-4.2370172945757840210490030585788 1:0.00012300001 2:0.00012300001 3:4.5000001e-05 4:4.5000001e-05 5:0.00012300001 6:0.00033499999 7:0.00012300001 8:0.00012300001 9:0.00033499999 10:0.00033499999 11:0.047426 12:0.00012300001 13:0.00091100001 14:0.95257401 15:4.5000001e-05 16:0.002473 17:0.006693 18:0.99999797 19:0.5 20:0.00012300001 21:1.030093 #
10.846764274114006454396985645872 1:0.26894099 2:0.88079703 3:0.119203 4:0.119203 5:0.26894099 6:0.119203 7:0.047426 8:0.017986 9:0.5 10:0.88079703 11:0.5 12:0.26894099 13:0.26894099 14:0.88079703 15:0.017986 16:0.5 17:0.73105901 18:0.95257401 19:0.88079703 20:0.88079703 21:0.055555999 #
-4.2370172945757840210490030585788 1:0.88079703 2:0.73105901 3:0.26894099 4:0.88079703 5:0.017986 6:0.73105901 7:0.73105901 8:0.73105901 9:0.5 10:0.006693 11:0.047426 12:0.73105901 13:0.047426 14:0.006693 15:0.95257401 16:0.5 17:0.26894099 18:0.006693 19:0.047426 20:0.017986 21:0.083333001 #
10.846764274114006454396985645872 1:0.002473 2:0.00091100001 3:0.00091100001 4:0.00091100001 5:0.00033499999 6:0.002473 7:0.002473 8:0.00091100001 9:0.00091100001 10:0.00033499999 11:0.00033499999 12:0.002473 13:0.00033499999 14:0.00012300001 15:0.99987698 16:0.002473 17:0.002473 18:0.00012300001 19:0.00033499999 20:0.00033499999 21:0.82407397 #
-4.2370172945757840210490030585788 1:0.002473 2:0.00091100001 3:0.00012300001 4:4.5000001e-05 5:0.00033499999 6:0.00091100001 7:0.00033499999 8:0.00033499999 9:0.00091100001 10:0.002473 11:0.047426 12:0.00033499999 13:0.002473 14:0.73105901 15:0.00012300001 16:0.00033499999 17:0.00033499999 18:0.99999797 19:0.73105901 20:0.00091100001 21:1.013889 #
-4.2370172945757840210490030585788 1:0.73105901 2:0.5 3:0.5 4:0.26894099 5:0.017986 6:0.5 7:0.5 8:0.95257401 9:0.73105901 10:0.006693 11:0.017986 12:0.88079703 13:0.047426 14:0.017986 15:0.95257401 16:0.5 17:0.26894099 18:0.006693 19:0.017986 20:0.017986 21:0.108796 #
-4.2370172945757840210490030585788 1:0.006693 2:0.00091100001 3:0.00091100001 4:0.00091100001 5:0.006693 6:0.00091100001 7:0.00091100001 8:0.00033499999 9:0.00091100001 10:0.99966502 11:0.119203 12:0.00091100001 13:0.047426 14:0.017986 15:0.00091100001 16:0.002473 17:0.006693 18:0.00091100001 19:0.006693 20:0.73105901 21:0.578704 #
-4.2370172945757840210490030585788 1:0.26894099 2:0.73105901 3:0.5 4:0.88079703 5:0.006693 6:0.5 7:0.95257401 8:0.73105901 9:0.73105901 10:0.006693 11:0.006693 12:0.26894099 13:0.047426 14:0.006693 15:0.95257401 16:0.26894099 17:0.5 18:0.006693 19:0.017986 20:0.017986 21:0.115741 #
10.846764274114006454396985645872 1:0.119203 2:0.73105901 3:0.119203 4:0.5 5:0.26894099 6:0.5 7:0.26894099 8:0.017986 9:0.88079703 10:0.88079703 11:0.26894099 12:0.88079703 13:0.26894099 14:0.73105901 15:0.047426 16:0.119203 17:0.73105901 18:0.88079703 19:0.73105901 20:0.73105901 21:0.041666999 #
-4.2370172945757840210490030585788 1:0.00033499999 2:0.00033499999 3:0.00012300001 4:4.5000001e-05 5:0.00033499999 6:0.00033499999 7:0.00012300001 8:0.00012300001 9:0.00091100001 10:0.00033499999 11:0.002473 12:0.00012300001 13:0.00091100001 14:0.26894099 15:4.5000001e-05 16:0.00012300001 17:0.00033499999 18:0.99999797 19:0.99330699 20:0.00033499999 21:1.0393521 #
-4.2370172945757840210490030585788 1:0.006693 2:0.00033499999 3:0.00033499999 4:0.00033499999 5:0.002473 6:0.00091100001 7:0.00033499999 8:0.00033499999 9:0.00033499999 10:0.997527 11:0.26894099 12:0.00091100001 13:0.047426 14:0.006693 15:0.00033499999 16:0.00091100001 17:0.006693 18:0.00033499999 19:0.002473 20:0.997527 21:0.46990699 #
-4.2370172945757840210490030585788 1:0.73105901 2:0.26894099 3:0.119203 4:0.5 5:0.006693 6:0.73105901 7:0.88079703 8:0.95257401 9:0.119203 10:0.006693 11:0.006693 12:0.88079703 13:0.047426 14:0.006693 15:0.95257401 16:0.26894099 17:0.5 18:0.006693 19:0.017986 20:0.017986 21:0.113426 #
-4.2370172945757840210490030585788 1:0.00091100001 2:0.00091100001 3:0.00033499999 4:0.00012300001 5:0.00091100001 6:0.002473 7:0.00091100001 8:0.00091100001 9:0.00091100001 10:0.00091100001 11:0.006693 12:0.00091100001 13:0.047426 14:0.95257401 15:0.00033499999 16:0.00091100001 17:0.00091100001 18:0.99999797 19:0.26894099 20:0.00091100001 21:1.011574 #
10.846764274114006454396985645872 1:0.119203 2:0.26894099 3:0.047426 4:0.047426 5:0.047426 6:0.88079703 7:0.26894099 8:0.047426 9:0.5 10:0.88079703 11:0.88079703 12:0.73105901 13:0.88079703 14:0.73105901 15:0.017986 16:0.119203 17:0.5 18:0.73105901 19:0.5 20:0.88079703 21:0.053241 #
-4.2370172945757840210490030585788 1:0.73105901 2:0.73105901 3:0.5 4:0.88079703 5:0.006693 6:0.88079703 7:0.88079703 8:0.5 9:0.26894099 10:0.006693 11:0.017986 12:0.88079703 13:0.017986 14:0.017986 15:0.88079703 16:0.5 17:0.5 18:0.006693 19:0.017986 20:0.017986 21:0.085648 #
10.846764274114006454396985645872 1:0.006693 2:0.00091100001 3:0.006693 4:0.002473 5:0.00033499999 6:0.00091100001 7:0.00091100001 8:0.99966502 9:0.00091100001 10:0.00012300001 11:0.00012300001 12:0.00091100001 13:0.00033499999 14:0.00033499999 15:0.00091100001 16:0.006693 17:0.00091100001 18:0.00033499999 19:0.00033499999 20:0.00033499999 21:0.67592603 #
-4.2370172945757840210490030585788 1:0.00091100001 2:0.00091100001 3:0.00033499999 4:0.00012300001 5:0.00091100001 6:0.002473 7:0.00091100001 8:0.00091100001 9:0.00091100001 10:0.00091100001 11:0.006693 12:0.00091100001 13:0.047426 14:0.95257401 15:0.00033499999 16:0.00091100001 17:0.00091100001 18:0.99999797 19:0.26894099 20:0.00091100001 21:1.011574 #
-4.2370172945757840210490030585788 1:0.88079703 2:0.119203 3:0.73105901 4:0.73105901 5:0.017986 6:0.73105901 7:0.5 8:0.88079703 9:0.047426 10:0.017986 11:0.017986 12:0.5 13:0.047426 14:0.006693 15:0.88079703 16:0.88079703 17:0.26894099 18:0.006693 19:0.017986 20:0.047426 21:0.085648 #
10.846764274114006454396985645872 1:0.002473 2:0.00091100001 3:0.00091100001 4:0.002473 5:0.00033499999 6:0.002473 7:0.002473 8:0.00091100001 9:0.00091100001 10:0.00033499999 11:0.00033499999 12:0.002473 13:0.00091100001 14:0.00012300001 15:0.99987698 16:0.002473 17:0.002473 18:0.00012300001 19:0.00033499999 20:0.00091100001 21:0.81713003 #
-4.2370172945757840210490030585788 1:0.88079703 2:0.119203 3:0.73105901 4:0.73105901 5:0.017986 6:0.73105901 7:0.5 8:0.88079703 9:0.047426 10:0.017986 11:0.017986 12:0.5 13:0.047426 14:0.017986 15:0.88079703 16:0.88079703 17:0.5 18:0.006693 19:0.017986 20:0.047426 21:0.083333001 #
-4.2370172945757840210490030585788 1:0.002473 2:0.00091100001 3:0.00033499999 4:0.00033499999 5:0.002473 6:0.002473 7:0.00091100001 8:0.00091100001 9:0.002473 10:0.002473 11:0.006693 12:0.00091100001 13:0.006693 14:0.88079703 15:0.00033499999 16:0.00091100001 17:0.002473 18:0.99999797 19:0.88079703 20:0.002473 21:0.92824101 #
10.846764274114006454396985645872 1:0.5 2:0.73105901 3:0.26894099 4:0.047426 5:0.5 6:0.5 7:0.119203 8:0.047426 9:0.95257401 10:0.73105901 11:0.5 12:0.5 13:0.73105901 14:0.73105901 15:0.047426 16:0.26894099 17:0.26894099 18:0.73105901 19:0.73105901 20:0.88079703 21:0.032407001 #
-4.2370172945757840210490030585788 1:0.88079703 2:0.73105901 3:0.26894099 4:0.5 5:0.017986 6:0.73105901 7:0.88079703 8:0.73105901 9:0.26894099 10:0.017986 11:0.017986 12:0.95257401 13:0.047426 14:0.006693 15:0.88079703 16:0.5 17:0.26894099 18:0.006693 19:0.017986 20:0.047426 21:0.087963 #
-4.2370172945757840210490030585788 1:0.00033499999 2:0.00012300001 3:0.00012300001 4:4.5000001e-05 5:0.00033499999 6:0.00033499999 7:0.00012300001 8:0.00033499999 9:0.00033499999 10:0.00033499999 11:0.00091100001 12:0.00012300001 13:0.00091100001 14:0.95257401 15:4.5000001e-05 16:0.00012300001 17:0.00033499999 18:0.99999797 19:0.047426 20:0.00033499999 21:1.081019 #
-4.2370172945757840210490030585788 1:0.26894099 2:0.88079703 3:0.88079703 4:0.88079703 5:0.017986 6:0.5 7:0.73105901 8:0.88079703 9:0.26894099 10:0.017986 11:0.017986 12:0.73105901 13:0.047426 14:0.017986 15:0.88079703 16:0.5 17:0.26894099 18:0.017986 19:0.017986 20:0.047426 21:0.083333001 #
-4.2370172945757840210490030585788 1:0.00033499999 2:0.00012300001 3:4.5000001e-05 4:4.5000001e-05 5:0.00033499999 6:0.00033499999 7:0.00012300001 8:0.00012300001 9:0.00033499999 10:0.00033499999 11:0.00033499999 12:0.00012300001 13:0.00091100001 14:0.119203 15:4.5000001e-05 16:0.00012300001 17:0.00033499999 18:0.99999797 19:0.95257401 20:0.00012300001 21:1.122685 #
10.846764274114006454396985645872 1:0.5 2:0.5 3:0.119203 4:0.5 5:0.047426 6:0.73105901 7:0.26894099 8:0.047426 9:0.88079703 10:0.5 11:0.5 12:0.5 13:0.73105901 14:0.73105901 15:0.047426 16:0.5 17:0.5 18:0.982014 19:0.73105901 20:0.5 21:0.025463 #
-4.2370172945757840210490030585788 1:0.006693 2:0.00091100001 3:0.00091100001 4:0.00091100001 5:0.006693 6:0.00091100001 7:0.00091100001 8:0.00033499999 9:0.00091100001 10:0.99966502 11:0.119203 12:0.002473 13:0.047426 14:0.017986 15:0.00091100001 16:0.002473 17:0.017986 18:0.002473 19:0.006693 20:0.95257401 21:0.5 #
10.846764274114006454396985645872 1:0.002473 2:0.00091100001 3:0.00091100001 4:0.002473 5:0.00033499999 6:0.002473 7:0.002473 8:0.00091100001 9:0.00091100001 10:0.00033499999 11:0.00033499999 12:0.002473 13:0.00091100001 14:0.00012300001 15:0.99987698 16:0.002473 17:0.002473 18:0.00012300001 19:0.00033499999 20:0.00091100001 21:0.8125 #
-4.2370172945757840210490030585788 1:0.119203 2:0.88079703 3:0.88079703 4:0.119203 5:0.006693 6:0.95257401 7:0.26894099 8:0.88079703 9:0.99330699 10:0.006693 11:0.006693 12:0.5 13:0.047426 14:0.006693 15:0.982014 16:0.73105901 17:0.047426 18:0.006693 19:0.017986 20:0.017986 21:0.145833 #
10.846764274114006454396985645872 1:0.119203 2:0.95257401 3:0.119203 4:0.047426 5:0.88079703 6:0.5 7:0.26894099 8:0.047426 9:0.26894099 10:0.5 11:0.26894099 12:0.73105901 13:0.5 14:0.5 15:0.006693 16:0.26894099 17:0.88079703 18:0.73105901 19:0.88079703 20:0.73105901 21:0.057870001 #
-4.2370172945757840210490030585788 1:0.73105901 2:0.5 3:0.119203 4:0.73105901 5:0.26894099 6:0.5 7:0.88079703 8:0.95257401 9:0.119203 10:0.017986 11:0.017986 12:0.73105901 13:0.017986 14:0.017986 15:0.88079703 16:0.26894099 17:0.26894099 18:0.006693 19:0.017986 20:0.047426 21:0.094907001 #
-4.2370172945757840210490030585788 1:0.002473 2:0.00091100001 3:0.00033499999 4:0.00033499999 5:0.002473 6:0.002473 7:0.00091100001 8:0.00091100001 9:0.002473 10:0.002473 11:0.017986 12:0.00091100001 13:0.047426 14:0.88079703 15:0.00033499999 16:0.00091100001 17:0.006693 18:0.99999797 19:0.5 20:0.002473 21:0.96296299 #
-4.2370172945757840210490030585788 1:0.5 2:0.26894099 3:0.5 4:0.982014 5:0.017986 6:0.119203 7:0.5 8:0.88079703 9:0.5 10:0.017986 11:0.047426 12:0.5 13:0.017986 14:0.006693 15:0.95257401 16:0.5 17:0.26894099 18:0.006693 19:0.017986 20:0.017986 21:0.113426 #
-4.2370172945757840210490030585788 1:0.00091100001 2:0.002473 3:0.00012300001 4:0.00091100001 5:0.00033499999 6:0.00033499999 7:0.00012300001 8:0.00091100001 9:0.002473 10:0.00033499999 11:0.006693 12:0.00012300001 13:0.00091100001 14:0.26894099 15:0.00091100001 16:0.00091100001 17:0.00033499999 18:0.99999797 19:0.88079703 20:0.00012300001 21:1.060185 #
-4.2370172945757840210490030585788 1:0.73105901 2:0.119203 3:0.5 4:0.73105901 5:0.017986 6:0.5 7:0.88079703 8:0.95257401 9:0.5 10:0.017986 11:0.017986 12:0.26894099 13:0.017986 14:0.017986 15:0.982014 16:0.5 17:0.26894099 18:0.006693 19:0.017986 20:0.047426 21:0.118056 #
-4.2370172945757840210490030585788 1:0.00033499999 2:0.00012300001 3:0.00012300001 4:4.5000001e-05 5:0.00012300001 6:0.00012300001 7:0.00012300001 8:0.00012300001 9:0.00091100001 10:0.002473 11:0.006693 12:0.00012300001 13:0.002473 14:0.999955 15:4.5000001e-05 16:0.00012300001 17:0.00033499999 18:0.99330699 19:0.26894099 20:0.00091100001 21:0.82175899 #
-4.2370172945757840210490030585788 1:0.5 2:0.73105901 3:0.26894099 4:0.95257401 5:0.017986 6:0.73105901 7:0.88079703 8:0.73105901 9:0.5 10:0.017986 11:0.017986 12:0.26894099 13:0.017986 14:0.006693 15:0.95257401 16:0.73105901 17:0.26894099 18:0.006693 19:0.047426 20:0.047426 21:0.104167 #
10.846764274114006454396985645872 1:0.017986 2:4.5000001e-05 3:4.5000001e-05 4:0.00012300001 5:1.7e-05 6:0.00012300001 7:0.00012300001 8:4.5000001e-05 9:4.5000001e-05 10:1.7e-05 11:1.7e-05 12:0.00012300001 13:4.5000001e-05 14:6.0000002e-06 15:0.99987698 16:0.047426 17:0.00012300001 18:6.0000002e-06 19:1.7e-05 20:4.5000001e-05 21:0.85416698 #
-4.2370172945757840210490030585788 1:0.00033499999 2:0.00091100001 3:0.00012300001 4:4.5000001e-05 5:0.00033499999 6:0.00091100001 7:0.00033499999 8:0.00091100001 9:0.006693 10:0.00033499999 11:0.00091100001 12:0.00033499999 13:0.00091100001 14:0.017986 15:0.00012300001 16:0.00033499999 17:0.00033499999 18:0.99999797 19:0.95257401 20:0.00033499999 21:1.099537 #
10.846764274114006454396985645872 1:0.26894099 2:0.5 3:0.5 4:0.88079703 5:0.017986 6:0.26894099 7:0.26894099 8:0.047426 9:0.5 10:0.73105901 11:0.119203 12:0.119203 13:0.119203 14:0.88079703 15:0.017986 16:0.26894099 17:0.88079703 18:0.99330699 19:0.95257401 20:0.5 21:0.067129999 #
-4.2370172945757840210490030585788 1:0.88079703 2:0.26894099 3:0.26894099 4:0.73105901 5:0.017986 6:0.119203 7:0.73105901 8:0.73105901 9:0.119203 10:0.047426 11:0.017986 12:0.88079703 13:0.047426 14:0.006693 15:0.95257401 16:0.5 17:0.73105901 18:0.002473 19:0.006693 20:0.119203 21:0.081018999 #
10.846764274114006454396985645872 1:0.017986 2:0.00033499999 3:0.002473 4:0.00091100001 5:0.006693 6:0.00091100001 7:0.00091100001 8:0.99966502 9:0.00091100001 10:0.00012300001 11:0.00012300001 12:0.00091100001 13:0.00033499999 14:0.00033499999 15:0.00033499999 16:0.002473 17:0.00091100001 18:0.00033499999 19:0.002473 20:0.00012300001 21:0.67361099 #
-4.2370172945757840210490030585788 1:0.00033499999 2:0.00033499999 3:0.00012300001 4:4.5000001e-05 5:0.00033499999 6:0.00091100001 7:0.00033499999 8:0.00033499999 9:0.00091100001 10:0.00033499999 11:0.00091100001 12:0.00033499999 13:0.00091100001 14:0.017986 15:0.00012300001 16:0.00033499999 17:0.00033499999 18:0.99999797 19:0.88079703 20:0.002473 21:1.122685 #
-4.2370172945757840210490030585788 1:0.73105901 2:0.119203 3:0.26894099 4:0.73105901 5:0.017986 6:0.26894099 7:0.88079703 8:0.73105901 9:0.119203 10:0.017986 11:0.017986 12:0.88079703 13:0.047426 14:0.006693 15:0.95257401 16:0.5 17:0.5 18:0.006693 19:0.017986 20:0.047426 21:0.097222 #
-4.2370172945757840210490030585788 1:0.006693 2:0.00033499999 3:0.00012300001 4:0.00012300001 5:0.017986 6:0.00033499999 7:0.00033499999 8:0.00012300001 9:0.00012300001 10:0.99330699 11:0.5 12:0.00033499999 13:0.047426 14:0.017986 15:0.00033499999 16:0.00033499999 17:0.002473 18:0.00033499999 19:0.00091100001 20:0.999089 21:0.46296301 #
10.846764274114006454396985645872 1:0.119203 2:0.73105901 3:0.5 4:0.26894099 5:0.047426 6:0.73105901 7:0.5 8:0.047426 9:0.73105901 10:0.73105901 11:0.26894099 12:0.88079703 13:0.26894099 14:0.5 15:0.047426 16:0.26894099 17:0.88079703 18:0.95257401 19:0.5 20:0.5 21:0.027778 #
-4.2370172945757840210490030585788 1:0.73105901 2:0.5 3:0.5 4:0.95257401 5:0.047426 6:0.5 7:0.95257401 8:0.73105901 9:0.119203 10:0.017986 11:0.017986 12:0.5 13:0.017986 14:0.017986 15:0.95257401 16:0.5 17:0.5 18:0.017986 19:0.047426 20:0.047426 21:0.081018999 #
-4.2370172945757840210490030585788 1:0.00091100001 2:0.00091100001 3:0.00033499999 4:0.00012300001 5:0.00091100001 6:0.00091100001 7:0.00033499999 8:0.00091100001 9:0.00091100001 10:0.002473 11:0.002473 12:0.00033499999 13:0.002473 14:0.26894099 15:0.00033499999 16:0.00091100001 17:0.002473 18:0.99999797 19:0.73105901 20:0.00091100001 21:1.0694439 #
-4.2370172945757840210490030585788 1:0.73105901 2:0.26894099 3:0.26894099 4:0.73105901 5:0.006693 6:0.5 7:0.982014 8:0.88079703 9:0.119203 10:0.017986 11:0.006693 12:0.73105901 13:0.017986 14:0.017986 15:0.95257401 16:0.26894099 17:0.26894099 18:0.006693 19:0.017986 20:0.017986 21:0.12037 #
10.846764274114006454396985645872 1:0.002473 2:0.00033499999 3:0.00091100001 4:0.00091100001 5:0.00033499999 6:0.00091100001 7:0.002473 8:0.00033499999 9:0.00033499999 10:0.00033499999 11:0.00033499999 12:0.002473 13:0.006693 14:0.00012300001 15:0.99987698 16:0.002473 17:0.002473 18:0.00012300001 19:0.00033499999 20:0.002473 21:0.81481498 #
-4.2370172945757840210490030585788 1:0.00033499999 2:0.00012300001 3:4.5000001e-05 4:4.5000001e-05 5:0.00033499999 6:0.00033499999 7:0.00091100001 8:0.00091100001 9:0.00033499999 10:0.00012300001 11:0.00033499999 12:0.00012300001 13:0.00033499999 14:0.73105901 15:4.5000001e-05 16:0.00012300001 17:0.00033499999 18:0.99999797 19:0.119203 20:0.00033499999 21:1.159722 #
10.846764274114006454396985645872 1:0.26894099 2:0.73105901 3:0.119203 4:0.5 5:0.26894099 6:0.26894099 7:0.88079703 8:0.119203 9:0.5 10:0.26894099 11:0.73105901 12:0.119203 13:0.5 14:0.88079703 15:0.017986 16:0.26894099 17:0.5 18:0.88079703 19:0.5 20:0.73105901 21:0.032407001 #
-4.2370172945757840210490030585788 1:0.73105901 2:0.88079703 3:0.26894099 4:0.73105901 5:0.047426 6:0.5 7:0.88079703 8:0.88079703 9:0.26894099 10:0.017986 11:0.047426 12:0.73105901 13:0.047426 14:0.017986 15:0.88079703 16:0.73105901 17:0.26894099 18:0.017986 19:0.047426 20:0.047426 21:0.074074 #
-4.2370172945757840210490030585788 1:0.00091100001 2:0.00091100001 3:4.5000001e-05 4:1.7e-05 5:0.00012300001 6:0.00012300001 7:0.00012300001 8:0.00091100001 9:0.002473 10:0.00091100001 11:0.00091100001 12:0.00012300001 13:0.006693 14:0.73105901 15:4.5000001e-05 16:0.00033499999 17:0.00012300001 18:0.99999797 19:0.119203 20:0.00012300001 21:1.1319439 #
-4.2370172945757840210490030585788 1:0.5 2:0.5 3:0.73105901 4:0.73105901 5:0.119203 6:0.5 7:0.5 8:0.88079703 9:0.88079703 10:0.047426 11:0.017986 12:0.88079703 13:0.047426 14:0.017986 15:0.982014 16:0.26894099 17:0.5 18:0.017986 19:0.047426 20:0.047426 21:0.087963 #
-4.2370172945757840210490030585788 1:0.002473 2:0.002473 3:0.00091100001 4:0.00033499999 5:0.002473 6:0.002473 7:0.00091100001 8:0.002473 9:0.002473 10:0.002473 11:0.006693 12:0.00091100001 13:0.006693 14:0.88079703 15:0.00091100001 16:0.002473 17:0.002473 18:0.99999398 19:0.26894099 20:0.002473 21:1.016204 #
-4.2370172945757840210490030585788 1:0.5 2:0.26894099 3:0.982014 4:0.88079703 5:0.88079703 6:0.26894099 7:0.26894099 8:0.73105901 9:0.73105901 10:0.006693 11:0.017986 12:0.119203 13:0.017986 14:0.017986 15:0.95257401 16:0.73105901 17:0.26894099 18:0.006693 19:0.017986 20:0.047426 21:0.108796 #
10.846764274114006454396985645872 1:0.5 2:0.5 3:0.5 4:0.119203 5:0.88079703 6:0.73105901 7:0.119203 8:0.047426 9:0.88079703 10:0.5 11:0.5 12:0.119203 13:0.88079703 14:0.73105901 15:0.047426 16:0.5 17:0.5 18:0.982014 19:0.88079703 20:0.5 21:0.032407001 #
-4.2370172945757840210490030585788 1:0.00033499999 2:0.00033499999 3:0.00012300001 4:4.5000001e-05 5:0.00033499999 6:0.00091100001 7:0.00033499999 8:0.00033499999 9:0.00091100001 10:0.00033499999 11:0.00091100001 12:0.00033499999 13:0.00091100001 14:0.119203 15:0.00012300001 16:0.00033499999 17:0.00033499999 18:0.99999797 19:0.73105901 20:0.00033499999 21:1.145833 #
-4.2370172945757840210490030585788 1:0.73105901 2:0.26894099 3:0.5 4:0.73105901 5:0.017986 6:0.5 7:0.73105901 8:0.88079703 9:0.047426 10:0.047426 11:0.017986 12:0.88079703 13:0.119203 14:0.006693 15:0.88079703 16:0.88079703 17:0.5 18:0.006693 19:0.047426 20:0.047426 21:0.071759 #
10.846764274114006454396985645872 1:0.002473 2:0.00091100001 3:0.00091100001 4:0.002473 5:0.00033499999 6:0.002473 7:0.002473 8:0.00091100001 9:0.00091100001 10:0.00033499999 11:0.00033499999 12:0.002473 13:0.00033499999 14:0.00012300001 15:0.99987698 16:0.002473 17:0.006693 18:0.00012300001 19:0.00033499999 20:0.00091100001 21:0.8125 #
-4.2370172945757840210490030585788 1:0.00033499999 2:0.00012300001 3:0.00012300001 4:4.5000001e-05 5:0.00012300001 6:0.00012300001 7:0.00012300001 8:0.00012300001 9:0.00091100001 10:0.002473 11:0.002473 12:0.00012300001 13:0.002473 14:0.999955 15:4.5000001e-05 16:0.002473 17:0.00033499999 18:0.95257401 19:0.26894099 20:0.00091100001 21:0.83333302 #
-4.2370172945757840210490030585788 1:0.5 2:0.26894099 3:0.26894099 4:0.73105901 5:0.006693 6:0.5 7:0.95257401 8:0.73105901 9:0.119203 10:0.017986 11:0.047426 12:0.73105901 13:0.047426 14:0.006693 15:0.982014 16:0.73105901 17:0.26894099 18:0.006693 19:0.017986 20:0.047426 21:0.108796 #
-4.2370172945757840210490030585788 1:0.00012300001 2:0.00012300001 3:4.5000001e-05 4:1.7e-05 5:0.00012300001 6:0.00012300001 7:0.00012300001 8:0.00012300001 9:0.00012300001 10:0.00012300001 11:0.00033499999 12:4.5000001e-05 13:0.00033499999 14:0.002473 15:4.5000001e-05 16:0.00012300001 17:0.00012300001 18:0.99999797 19:0.73105901 20:0.00012300001 21:1.236111 #
10.846764274114006454396985645872 1:0.119203 2:0.5 3:0.73105901 4:0.26894099 5:0.119203 6:0.5 7:0.73105901 8:0.047426 9:0.5 10:0.5 11:0.26894099 12:0.5 13:0.26894099 14:0.88079703 15:0.047426 16:0.5 17:0.88079703 18:0.73105901 19:0.95257401 20:0.5 21:0.032407001 #
-4.2370172945757840210490030585788 1:0.73105901 2:0.88079703 3:0.5 4:0.73105901 5:0.047426 6:0.95257401 7:0.73105901 8:0.5 9:0.5 10:0.017986 11:0.047426 12:0.73105901 13:0.119203 14:0.006693 15:0.95257401 16:0.5 17:0.26894099 18:0.006693 19:0.017986 20:0.047426 21:0.076389 #
-4.2370172945757840210490030585788 1:0.95257401 2:0.119203 3:0.26894099 4:0.73105901 5:0.017986 6:0.26894099 7:0.73105901 8:0.88079703 9:0.119203 10:0.017986 11:0.047426 12:0.119203 13:0.119203 14:0.006693 15:0.88079703 16:0.73105901 17:0.88079703 18:0.006693 19:0.017986 20:0.047426 21:0.087963 #
-4.2370172945757840210490030585788 1:0.00091100001 2:0.00091100001 3:0.00033499999 4:0.00033499999 5:0.00091100001 6:0.00091100001 7:0.00091100001 8:0.006693 9:0.00091100001 10:0.002473 11:0.002473 12:0.00091100001 13:0.002473 14:0.982014 15:0.00033499999 16:0.00091100001 17:0.00091100001 18:0.99999398 19:0.119203 20:0.00091100001 21:0.9375 #
-4.2370172945757840210490030585788 1:0.88079703 2:0.88079703 3:0.26894099 4:0.88079703 5:0.047426 6:0.119203 7:0.26894099 8:0.73105901 9:0.119203 10:0.017986 11:0.017986 12:0.119203 13:0.047426 14:0.006693 15:0.88079703 16:0.73105901 17:0.73105901 18:0.006693 19:0.017986 20:0.047426 21:0.094907001 #
10.846764274114006454396985645872 1:0.006693 2:0.00091100001 3:0.00091100001 4:0.002473 5:0.00033499999 6:0.002473 7:0.002473 8:0.00091100001 9:0.00091100001 10:0.00033499999 11:0.00033499999 12:0.002473 13:0.00091100001 14:0.00033499999 15:0.99987698 16:0.006693 17:0.002473 18:0.00033499999 19:0.00033499999 20:0.00091100001 21:0.805556 #
10.846764274114006454396985645872 1:0.5 2:0.5 3:0.73105901 4:0.119203 5:0.88079703 6:0.73105901 7:0.119203 8:0.047426 9:0.88079703 10:0.5 11:0.5 12:0.5 13:0.88079703 14:0.73105901 15:0.047426 16:0.5 17:0.5 18:0.982014 19:0.26894099 20:0.5 21:0.025463 #
-4.2370172945757840210490030585788 1:0.00033499999 2:0.00033499999 3:0.00012300001 4:4.5000001e-05 5:0.00033499999 6:0.00091100001 7:0.00033499999 8:0.00033499999 9:0.00091100001 10:0.00033499999 11:0.00091100001 12:0.00033499999 13:0.00091100001 14:0.047426 15:0.00012300001 16:0.00033499999 17:0.00033499999 18:0.99999797 19:0.73105901 20:0.00033499999 21:1.157407 #
-4.2370172945757840210490030585788 1:0.26894099 2:0.5 3:0.88079703 4:0.26894099 5:0.006693 6:0.5 7:0.119203 8:0.5 9:0.119203 10:0.006693 11:0.017986 12:0.88079703 13:0.017986 14:0.017986 15:0.982014 16:0.88079703 17:0.88079703 18:0.002473 19:0.006693 20:0.047426 21:0.106481 #
-4.2370172945757840210490030585788 1:0.002473 2:0.00033499999 3:0.00033499999 4:0.00012300001 5:0.002473 6:0.00091100001 7:0.00033499999 8:0.00012300001 9:0.00033499999 10:0.99330699 11:0.99330699 12:0.00033499999 13:0.119203 14:0.006693 15:0.00033499999 16:0.00091100001 17:0.002473 18:0.00091100001 19:0.002473 20:0.95257401 21:0.39583299 #
-4.2370172945757840210490030585788 1:0.00091100001 2:0.00033499999 3:0.00012300001 4:0.00012300001 5:0.00033499999 6:0.00033499999 7:0.00033499999 8:0.00033499999 9:0.00091100001 10:0.006693 11:0.047426 12:0.00033499999 13:0.002473 14:0.997527 15:0.00012300001 16:0.00033499999 17:0.00033499999 18:0.99999398 19:0.119203 20:0.002473 21:0.83333302 #
-4.2370172945757840210490030585788 1:0.88079703 2:0.5 3:0.26894099 4:0.73105901 5:0.017986 6:0.5 7:0.88079703 8:0.95257401 9:0.119203 10:0.017986 11:0.017986 12:0.5 13:0.017986 14:0.006693 15:0.88079703 16:0.5 17:0.119203 18:0.017986 19:0.047426 20:0.047426 21:0.090278 #
10.846764274114006454396985645872 1:0.26894099 2:0.73105901 3:0.26894099 4:0.26894099 5:0.73105901 6:0.26894099 7:0.26894099 8:0.119203 9:0.73105901 10:0.95257401 11:0.5 12:0.26894099 13:0.73105901 14:0.26894099 15:0.017986 16:0.26894099 17:0.73105901 18:0.88079703 19:0.5 20:0.73105901 21:0.032407001 #
10.846764274114006454396985645872 1:0.002473 2:0.00091100001 3:0.00091100001 4:0.00091100001 5:0.00033499999 6:0.002473 7:0.002473 8:0.00091100001 9:0.00091100001 10:0.00033499999 11:0.00033499999 12:0.002473 13:0.00033499999 14:0.00012300001 15:0.99987698 16:0.006693 17:0.002473 18:0.00012300001 19:0.00033499999 20:0.002473 21:0.79861099 #
-4.2370172945757840210490030585788 1:0.73105901 2:0.95257401 3:0.5 4:0.73105901 5:0.006693 6:0.26894099 7:0.26894099 8:0.5 9:0.047426 10:0.002473 11:0.006693 12:0.95257401 13:0.017986 14:0.002473 15:0.982014 16:0.5 17:0.26894099 18:0.002473 19:0.006693 20:0.017986 21:0.122685 #
-4.2370172945757840210490030585788 1:0.00091100001 2:0.00033499999 3:0.00012300001 4:0.00012300001 5:0.00033499999 6:0.00033499999 7:0.00033499999 8:0.00033499999 9:0.00091100001 10:0.006693 11:0.047426 12:0.00033499999 13:0.002473 14:0.997527 15:0.00012300001 16:0.00033499999 17:0.00033499999 18:0.99999398 19:0.119203 20:0.006693 21:0.828704 #
-4.2370172945757840210490030585788 1:0.26894099 2:0.26894099 3:0.88079703 4:0.95257401 5:0.006693 6:0.73105901 7:0.95257401 8:0.73105901 9:0.26894099 10:0.017986 11:0.017986 12:0.5 13:0.047426 14:0.006693 15:0.88079703 16:0.26894099 17:0.26894099 18:0.006693 19:0.017986 20:0.017986 21:0.108796 #
-4.2370172945757840210490030585788 1:0.002473 2:0.00012300001 3:0.00012300001 4:0.00012300001 5:0.00091100001 6:0.00012300001 7:0.00012300001 8:4.5000001e-05 9:0.00012300001 10:0.997527 11:0.88079703 12:0.00012300001 13:0.006693 14:0.047426 15:0.00012300001 16:0.00033499999 17:0.002473 18:0.00012300001 19:0.00091100001 20:0.997527 21:0.45601901 #
10.846764274114006454396985645872 1:0.119203 2:0.73105901 3:0.119203 4:0.26894099 5:0.73105901 6:0.26894099 7:0.26894099 8:0.047426 9:0.26894099 10:0.88079703 11:0.26894099 12:0.26894099 13:0.88079703 14:0.26894099 15:0.017986 16:0.26894099 17:0.95257401 18:0.982014 19:0.5 20:0.73105901 21:0.060185 #
-4.2370172945757840210490030585788 1:0.119203 2:0.88079703 3:0.26894099 4:0.88079703 5:0.017986 6:0.5 7:0.88079703 8:0.73105901 9:0.119203 10:0.017986 11:0.017986 12:0.88079703 13:0.047426 14:0.017986 15:0.95257401 16:0.5 17:0.73105901 18:0.017986 19:0.017986 20:0.047426 21:0.101852 #
-4.2370172945757840210490030585788 1:0.00033499999 2:0.00033499999 3:0.00012300001 4:4.5000001e-05 5:0.00033499999 6:0.00091100001 7:0.00033499999 8:0.00033499999 9:0.00091100001 10:0.002473 11:0.006693 12:0.00033499999 13:0.00091100001 14:0.017986 15:0.00012300001 16:0.00033499999 17:0.00033499999 18:0.99999797 19:0.73105901 20:0.00033499999 21:1.12963 #
-4.2370172945757840210490030585788 1:0.5 2:0.5 3:0.5 4:0.5 5:0.047426 6:0.982014 7:0.5 8:0.73105901 9:0.26894099 10:0.017986 11:0.047426 12:0.119203 13:0.047426 14:0.006693 15:0.88079703 16:0.73105901 17:0.88079703 18:0.017986 19:0.017986 20:0.047426 21:0.092592999 #
10.846764274114006454396985645872 1:0.017986 2:0.00091100001 3:0.006693 4:0.002473 5:0.00091100001 6:0.00091100001 7:0.00091100001 8:0.99966502 9:0.00091100001 10:0.00012300001 11:0.00033499999 12:0.002473 13:0.00091100001 14:0.00033499999 15:0.00091100001 16:0.006693 17:0.002473 18:0.00091100001 19:0.00033499999 20:0.00033499999 21:0.65509301 #
-4.2370172945757840210490030585788 1:0.00091100001 2:0.00091100001 3:0.00033499999 4:0.00012300001 5:0.00091100001 6:0.00091100001 7:0.00033499999 8:0.00091100001 9:0.047426 10:0.00091100001 11:0.006693 12:0.00033499999 13:0.002473 14:0.982014 15:0.00033499999 16:0.00091100001 17:0.002473 18:0.99999398 19:0.26894099 20:0.00091100001 21:0.95138901 #
10.846764274114006454396985645872 1:0.047426 2:0.73105901 3:0.119203 4:0.017986 5:0.119203 6:0.119203 7:0.26894099 8:0.017986 9:0.26894099 10:0.73105901 11:0.5 12:0.5 13:0.5 14:0.95257401 15:0.017986 16:0.119203 17:0.95257401 18:0.73105901 19:0.88079703 20:0.88079703 21:0.076389 #
-4.2370172945757840210490030585788 1:0.88079703 2:0.5 3:0.26894099 4:0.73105901 5:0.047426 6:0.88079703 7:0.5 8:0.88079703 9:0.119203 10:0.047426 11:0.017986 12:0.73105901 13:0.119203 14:0.017986 15:0.88079703 16:0.73105901 17:0.26894099 18:0.017986 19:0.017986 20:0.047426 21:0.078704 #
10.846764274114006454396985645872 1:0.017986 2:0.00091100001 3:0.00091100001 4:0.002473 5:0.00033499999 6:0.002473 7:0.002473 8:0.002473 9:0.00091100001 10:0.00033499999 11:0.002473 12:0.002473 13:0.00091100001 14:0.00012300001 15:0.99987698 16:0.002473 17:0.002473 18:0.00012300001 19:0.00033499999 20:0.00091100001 21:0.79166698 #
-4.2370172945757840210490030585788 1:0.006693 2:4.5000001e-05 3:0.00012300001 4:1.7e-05 5:0.006693 6:0.00012300001 7:4.5000001e-05 8:0.00033499999 9:0.006693 10:0.017986 11:0.017986 12:4.5000001e-05 13:0.017986 14:0.95257401 15:1.7e-05 16:0.00033499999 17:0.00091100001 18:0.99999398 19:0.88079703 20:0.047426 21:0.92361099 #
-4.2370172945757840210490030585788 1:0.119203 2:0.5 3:0.5 4:0.73105901 5:0.017986 6:0.73105901 7:0.73105901 8:0.95257401 9:0.119203 10:0.017986 11:0.017986 12:0.95257401 13:0.047426 14:0.006693 15:0.73105901 16:0.5 17:0.5 18:0.006693 19:0.017986 20:0.017986 21:0.099537 #
-4.2370172945757840210490030585788 1:0.002473 2:0.00033499999 3:0.00012300001 4:0.00012300001 5:0.002473 6:0.00033499999 7:0.00033499999 8:0.00012300001 9:0.00033499999 10:0.997527 11:0.99330699 12:0.00033499999 13:0.119203 14:0.017986 15:0.00033499999 16:0.00033499999 17:0.002473 18:0.00091100001 19:0.002473 20:0.95257401 21:0.40740699 #
10.846764274114006454396985645872 1:0.119203 2:0.5 3:0.119203 4:0.26894099 5:0.119203 6:0.26894099 7:0.95257401 8:0.017986 9:0.26894099 10:0.73105901 11:0.73105901 12:0.26894099 13:0.5 14:0.73105901 15:0.047426 16:0.26894099 17:0.73105901 18:0.88079703 19:0.119203 20:0.73105901 21:0.046296 #
-4.2370172945757840210490030585788 1:0.002473 2:0.00033499999 3:0.00012300001 4:0.00012300001 5:0.017986 6:0.00091100001 7:0.00033499999 8:0.006693 9:0.00091100001 10:0.047426 11:0.00091100001 12:0.00033499999 13:0.006693 14:0.26894099 15:0.00012300001 16:0.00033499999 17:0.00033499999 18:0.99999797 19:0.73105901 20:0.002473 21:1.030093 #
-4.2370172945757840210490030585788 1:0.047426 2:0.95257401 3:0.5 4:0.95257401 5:0.006693 6:0.95257401 7:0.88079703 8:0.73105901 9:0.5 10:0.006693 11:0.017986 12:0.73105901 13:0.017986 14:0.006693 15:0.88079703 16:0.119203 17:0.119203 18:0.006693 19:0.017986 20:0.006693 21:0.131944 #
-4.2370172945757840210490030585788 1:0.26894099 2:0.5 3:0.5 4:0.88079703 5:0.047426 6:0.5 7:0.95257401 8:0.73105901 9:0.26894099 10:0.017986 11:0.017986 12:0.5 13:0.047426 14:0.017986 15:0.982014 16:0.5 17:0.5 18:0.017986 19:0.047426 20:0.017986 21:0.099537 #
10.846764274114006454396985645872 1:0.26894099 2:0.5 3:0.26894099 4:0.047426 5:0.73105901 6:0.26894099 7:0.26894099 8:0.047426 9:0.73105901 10:0.73105901 11:0.73105901 12:0.26894099 13:0.73105901 14:0.982014 15:0.047426 16:0.26894099 17:0.26894099 18:0.88079703 19:0.73105901 20:0.73105901 21:0.043981001 #
-4.2370172945757840210490030585788 1:0.00091100001 2:0.017986 3:0.002473 4:0.00012300001 5:0.00091100001 6:0.002473 7:0.00033499999 8:0.00091100001 9:0.00091100001 10:0.006693 11:0.002473 12:0.00033499999 13:0.006693 14:0.73105901 15:0.00012300001 16:0.00033499999 17:0.002473 18:0.99999797 19:0.26894099 20:0.006693 21:1.034722 #
-4.2370172945757840210490030585788 1:0.047426 2:0.73105901 3:0.88079703 4:0.73105901 5:0.047426 6:0.5 7:0.5 8:0.88079703 9:0.26894099 10:0.006693 11:0.017986 12:0.982014 13:0.017986 14:0.017986 15:0.88079703 16:0.5 17:0.119203 18:0.006693 19:0.047426 20:0.006693 21:0.115741 #
-4.2370172945757840210490030585788 1:0.006693 2:0.00091100001 3:0.00033499999 4:0.00033499999 5:0.006693 6:0.00091100001 7:0.00091100001 8:0.00033499999 9:0.00033499999 10:0.95257401 11:0.88079703 12:0.00091100001 13:0.047426 14:0.006693 15:0.00091100001 16:0.002473 17:0.006693 18:0.00091100001 19:0.002473 20:0.999089 21:0.4375 #
-4.2370172945757840210490030585788 1:0.00091100001 2:0.00091100001 3:0.00033499999 4:0.00012300001 5:0.00091100001 6:0.00091100001 7:0.00091100001 8:0.00091100001 9:0.047426 10:0.00091100001 11:0.006693 12:0.00091100001 13:0.002473 14:0.982014 15:0.00033499999 16:0.00091100001 17:0.006693 18:0.99999398 19:0.26894099 20:0.00091100001 21:0.93981498 #
10.846764274114006454396985645872 1:0.002473 2:0.002473 3:0.002473 4:0.00091100001 5:0.00033499999 6:0.002473 7:0.002473 8:0.00091100001 9:0.00091100001 10:0.00033499999 11:0.00091100001 12:0.002473 13:0.00033499999 14:0.00012300001 15:0.99987698 16:0.006693 17:0.006693 18:0.00012300001 19:0.00033499999 20:0.00033499999 21:0.78703701 #
-4.2370172945757840210490030585788 1:0.5 2:0.26894099 3:0.73105901 4:0.119203 5:0.047426 6:0.88079703 7:0.119203 8:0.95257401 9:0.26894099 10:0.017986 11:0.017986 12:0.88079703 13:0.047426 14:0.017986 15:0.982014 16:0.5 17:0.26894099 18:0.017986 19:0.017986 20:0.047426 21:0.113426 #
-4.2370172945757840210490030585788 1:0.00033499999 2:0.017986 3:0.00033499999 4:0.00012300001 5:0.00033499999 6:0.00091100001 7:0.00033499999 8:0.002473 9:0.00091100001 10:0.00091100001 11:0.002473 12:0.00091100001 13:0.00091100001 14:0.99330699 15:0.00033499999 16:0.00033499999 17:0.002473 18:0.99999398 19:0.119203 20:0.002473 21:0.90972197 #
10.846764274114006454396985645872 1:0.017986 2:0.00091100001 3:0.006693 4:0.002473 5:0.00091100001 6:0.002473 7:0.00091100001 8:0.99966502 9:0.00091100001 10:0.00012300001 11:0.00033499999 12:0.002473 13:0.00091100001 14:0.00033499999 15:0.00091100001 16:0.006693 17:0.002473 18:0.00091100001 19:0.00033499999 20:0.00033499999 21:0.65277803 #
-4.2370172945757840210490030585788 1:0.5 2:0.73105901 3:0.26894099 4:0.88079703 5:0.017986 6:0.5 7:0.88079703 8:0.982014 9:0.5 10:0.006693 11:0.006693 12:0.26894099 13:0.006693 14:0.047426 15:0.88079703 16:0.5 17:0.26894099 18:0.002473 19:0.047426 20:0.017986 21:0.111111 #
10.846764274114006454396985645872 1:0.047426 2:0.73105901 3:0.119203 4:0.017986 5:0.119203 6:0.119203 7:0.26894099 8:0.017986 9:0.119203 10:0.73105901 11:0.5 12:0.5 13:0.5 14:0.95257401 15:0.017986 16:0.119203 17:0.95257401 18:0.73105901 19:0.88079703 20:0.88079703 21:0.076389 #
-4.2370172945757840210490030585788 1:0.00091100001 2:0.00012300001 3:4.5000001e-05 4:1.7e-05 5:0.006693 6:0.00012300001 7:0.00012300001 8:0.00091100001 9:0.00012300001 10:0.00091100001 11:0.00091100001 12:4.5000001e-05 13:0.00033499999 14:0.5 15:4.5000001e-05 16:0.00012300001 17:0.00012300001 18:0.99999797 19:0.119203 20:0.00012300001 21:1.162037 #
10.846764274114006454396985645872 1:0.00091100001 2:0.00091100001 3:0.00091100001 4:0.002473 5:4.5000001e-05 6:0.00033499999 7:0.00033499999 8:0.00012300001 9:0.017986 10:4.5000001e-05 11:0.00091100001 12:0.00091100001 13:0.00012300001 14:4.5000001e-05 15:0.99987698 16:0.006693 17:0.00091100001 18:0.00091100001 19:0.00091100001 20:0.00012300001 21:0.81481498 #
-4.2370172945757840210490030585788 1:0.88079703 2:0.119203 3:0.73105901 4:0.119203 5:0.017986 6:0.5 7:0.73105901 8:0.73105901 9:0.119203 10:0.017986 11:0.017986 12:0.26894099 13:0.047426 14:0.006693 15:0.95257401 16:0.95257401 17:0.73105901 18:0.006693 19:0.017986 20:0.119203 21:0.101852 #
-4.2370172945757840210490030585788 1:0.00091100001 2:0.002473 3:0.00033499999 4:0.00033499999 5:0.00091100001 6:0.00091100001 7:0.00091100001 8:0.00091100001 9:0.002473 10:0.00091100001 11:0.002473 12:0.00091100001 13:0.002473 14:0.982014 15:0.00033499999 16:0.00091100001 17:0.006693 18:0.99999398 19:0.99330699 20:0.00091100001 21:0.835648 #
-4.2370172945757840210490030585788 1:0.26894099 2:0.119203 3:0.5 4:0.73105901 5:0.047426 6:0.5 7:0.95257401 8:0.5 9:0.5 10:0.017986 11:0.017986 12:0.88079703 13:0.017986 14:0.006693 15:0.88079703 16:0.5 17:0.88079703 18:0.006693 19:0.017986 20:0.047426 21:0.094907001 #
10.846764274114006454396985645872 1:0.5 2:0.047426 3:0.26894099 4:0.119203 5:0.5 6:0.5 7:0.26894099 8:0.119203 9:0.95257401 10:0.5 11:0.26894099 12:0.047426 13:0.95257401 14:0.73105901 15:0.017986 16:0.73105901 17:0.73105901 18:0.982014 19:0.5 20:0.73105901 21:0.050926 #
-4.2370172945757840210490030585788 1:0.26894099 2:0.119203 3:0.5 4:0.73105901 5:0.119203 6:0.26894099 7:0.95257401 8:0.73105901 9:0.5 10:0.047426 11:0.047426 12:0.88079703 13:0.017986 14:0.006693 15:0.88079703 16:0.5 17:0.88079703 18:0.006693 19:0.047426 20:0.047426 21:0.092592999 #
-4.2370172945757840210490030585788 1:0.00091100001 2:0.006693 3:0.00033499999 4:0.00033499999 5:0.006693 6:0.002473 7:0.00091100001 8:0.00091100001 9:0.006693 10:0.002473 11:0.002473 12:0.00091100001 13:0.006693 14:0.5 15:0.00033499999 16:0.00091100001 17:0.002473 18:0.99999398 19:0.99330699 20:0.00091100001 21:0.88657397 #
-4.2370172945757840210490030585788 1:0.002473 2:0.00033499999 3:0.00012300001 4:0.00033499999 5:0.002473 6:0.00033499999 7:0.00012300001 8:0.00033499999 9:0.00012300001 10:0.99966502 11:0.26894099 12:0.00033499999 13:0.26894099 14:0.002473 15:0.00033499999 16:0.00091100001 17:0.006693 18:0.00033499999 19:0.00091100001 20:0.88079703 21:0.59490699 #
-4.2370172945757840210490030585788 1:0.73105901 2:0.73105901 3:0.95257401 4:0.26894099 5:0.006693 6:0.88079703 7:0.95257401 8:0.73105901 9:0.26894099 10:0.017986 11:0.006693 12:0.5 13:0.017986 14:0.002473 15:0.95257401 16:0.119203 17:0.119203 18:0.017986 19:0.017986 20:0.047426 21:0.122685 #
10.846764274114006454396985645872 1:0.26894099 2:0.26894099 3:0.047426 4:0.017986 5:0.5 6:0.119203 7:0.5 8:0.047426 9:0.73105901 10:0.73105901 11:0.73105901 12:0.5 13:0.26894099 14:0.26894099 15:0.017986 16:0.5 17:0.88079703 18:0.997527 19:0.5 20:0.88079703 21:0.067129999 #
-4.2370172945757840210490030585788 1:0.00091100001 2:0.006693 3:0.00033499999 4:0.00012300001 5:0.00091100001 6:0.00091100001 7:0.00033499999 8:0.002473 9:0.00091100001 10:0.00091100001 11:0.017986 12:0.00033499999 13:0.017986 14:0.119203 15:0.00033499999 16:0.00033499999 17:0.00091100001 18:0.99999797 19:0.73105901 20:0.006693 21:1.0555561 #
10.846764274114006454396985645872 1:0.119203 2:0.119203 3:0.119203 4:0.119203 5:0.047426 6:0.26894099 7:0.119203 8:0.017986 9:0.5 10:0.95257401 11:0.73105901 12:0.5 13:0.5 14:0.88079703 15:0.017986 16:0.119203 17:0.73105901 18:0.88079703 19:0.88079703 20:0.73105901 21:0.067129999 #
-4.2370172945757840210490030585788 1:0.73105901 2:0.73105901 3:0.5 4:0.73105901 5:0.017986 6:0.88079703 7:0.88079703 8:0.5 9:0.26894099 10:0.017986 11:0.017986 12:0.88079703 13:0.047426 14:0.017986 15:0.95257401 16:0.73105901 17:0.26894099 18:0.017986 19:0.017986 20:0.047426 21:0.087963 #
-4.2370172945757840210490030585788 1:0.002473 2:0.002473 3:0.00091100001 4:0.00033499999 5:0.002473 6:0.006693 7:0.002473 8:0.002473 9:0.002473 10:0.002473 11:0.047426 12:0.002473 13:0.006693 14:0.88079703 15:0.00091100001 16:0.002473 17:0.002473 18:0.99999797 19:0.26894099 20:0.002473 21:0.93518502 #
10.846764274114006454396985645872 1:0.006693 2:0.00091100001 3:0.00091100001 4:0.002473 5:0.00091100001 6:0.002473 7:0.002473 8:0.00091100001 9:0.00091100001 10:0.00091100001 11:0.00033499999 12:0.002473 13:0.00091100001 14:0.00033499999 15:0.99987698 16:0.017986 17:0.002473 18:0.00033499999 19:0.00033499999 20:0.00091100001 21:0.789352 #
-4.2370172945757840210490030585788 1:0.73105901 2:0.26894099 3:0.26894099 4:0.5 5:0.047426 6:0.26894099 7:0.95257401 8:0.73105901 9:0.119203 10:0.017986 11:0.047426 12:0.88079703 13:0.047426 14:0.017986 15:0.95257401 16:0.5 17:0.5 18:0.006693 19:0.017986 20:0.119203 21:0.090278 #
-4.2370172945757840210490030585788 1:0.73105901 2:0.26894099 3:0.26894099 4:0.73105901 5:0.002473 6:0.26894099 7:0.88079703 8:0.5 9:0.047426 10:0.017986 11:0.006693 12:0.95257401 13:0.017986 14:0.017986 15:0.982014 16:0.5 17:0.73105901 18:0.002473 19:0.006693 20:0.047426 21:0.113426 #
-4.2370172945757840210490030585788 1:0.002473 2:0.00033499999 3:0.00012300001 4:0.00012300001 5:0.00091100001 6:0.00033499999 7:0.00012300001 8:0.00012300001 9:0.00012300001 10:0.99966502 11:0.88079703 12:0.00033499999 13:0.26894099 14:0.002473 15:0.00033499999 16:0.00033499999 17:0.002473 18:0.006693 19:0.00091100001 20:0.95257401 21:0.49074101 #
-4.2370172945757840210490030585788 1:0.73105901 2:0.119203 3:0.26894099 4:0.5 5:0.047426 6:0.119203 7:0.95257401 8:0.95257401 9:0.5 10:0.006693 11:0.006693 12:0.73105901 13:0.119203 14:0.006693 15:0.73105901 16:0.88079703 17:0.5 18:0.002473 19:0.017986 20:0.047426 21:0.094907001 #
-4.2370172945757840210490030585788 1:0.00091100001 2:0.00091100001 3:0.00033499999 4:0.00012300001 5:0.00091100001 6:0.00091100001 7:0.00091100001 8:0.00091100001 9:0.006693 10:0.00091100001 11:0.002473 12:0.00091100001 13:0.002473 14:0.88079703 15:0.00033499999 16:0.00091100001 17:0.00091100001 18:0.99998301 19:0.999089 20:0.00091100001 21:0.80324101 #
-4.2370172945757840210490030585788 1:0.00091100001 2:0.00091100001 3:0.00033499999 4:0.00012300001 5:0.00091100001 6:0.002473 7:0.00091100001 8:0.00091100001 9:0.00091100001 10:0.00091100001 11:0.002473 12:0.00033499999 13:0.006693 14:0.5 15:0.00033499999 16:0.00091100001 17:0.00091100001 18:0.99999797 19:0.119203 20:0.00091100001 21:1.099537 #
-4.2370172945757840210490030585788 1:0.119203 2:0.26894099 3:0.5 4:0.26894099 5:0.26894099 6:0.26894099 7:0.26894099 8:0.73105901 9:0.26894099 10:0.047426 11:0.017986 12:0.95257401 13:0.119203 14:0.017986 15:0.95257401 16:0.95257401 17:0.73105901 18:0.006693 19:0.017986 20:0.047426 21:0.099537 #
10.846764274114006454396985645872 1:0.119203 2:0.88079703 3:0.047426 4:0.047426 5:0.017986 6:0.5 7:0.119203 8:0.017986 9:0.73105901 10:0.88079703 11:0.73105901 12:0.5 13:0.95257401 14:0.982014 15:0.006693 16:0.119203 17:0.119203 18:0.5 19:0.95257401 20:0.5 21:0.081018999 #
-4.2370172945757840210490030585788 1:0.00091100001 2:0.00012300001 3:0.00012300001 4:4.5000001e-05 5:0.00012300001 6:0.00033499999 7:0.00091100001 8:4.5000001e-05 9:0.017986 10:0.00033499999 11:0.002473 12:0.00012300001 13:0.00033499999 14:0.5 15:4.5000001e-05 16:0.00012300001 17:0.00033499999 18:0.99987698 19:0.99987698 20:0.002473 21:0.79861099 #
-4.2370172945757840210490030585788 1:0.006693 2:0.00091100001 3:0.00091100001 4:0.00091100001 5:0.017986 6:0.00091100001 7:0.00091100001 8:0.00033499999 9:0.00091100001 10:0.99966502 11:0.88079703 12:0.00091100001 13:0.047426 14:0.017986 15:0.00091100001 16:0.002473 17:0.006693 18:0.002473 19:0.006693 20:0.5 21:0.465278 #
-4.2370172945757840210490030585788 1:0.26894099 2:0.26894099 3:0.88079703 4:0.95257401 5:0.017986 6:0.88079703 7:0.88079703 8:0.73105901 9:0.26894099 10:0.017986 11:0.017986 12:0.88079703 13:0.047426 14:0.017986 15:0.88079703 16:0.73105901 17:0.26894099 18:0.017986 19:0.047426 20:0.017986 21:0.092592999 #
-4.2370172945757840210490030585788 1:0.00091100001 2:0.00033499999 3:0.00033499999 4:0.00012300001 5:0.00033499999 6:0.00033499999 7:0.00091100001 8:0.00033499999 9:0.002473 10:0.006693 11:0.006693 12:0.00033499999 13:0.006693 14:0.99987698 15:0.00012300001 16:0.00033499999 17:0.00091100001 18:0.999089 19:0.5 20:0.002473 21:0.73842603 #
10.846764274114006454396985645872 1:0.006693 2:0.00091100001 3:0.002473 4:0.002473 5:0.00091100001 6:0.002473 7:0.002473 8:0.00091100001 9:0.00091100001 10:0.00091100001 11:0.00091100001 12:0.006693 13:0.00091100001 14:0.00033499999 15:0.99987698 16:0.006693 17:0.006693 18:0.00033499999 19:0.00091100001 20:0.00091100001 21:0.796296 #
10.846764274114006454396985645872 1:0.119203 2:0.73105901 3:0.119203 4:0.047426 5:0.047426 6:0.88079703 7:0.119203 8:0.017986 9:0.5 10:0.5 11:0.26894099 12:0.26894099 13:0.26894099 14:0.95257401 15:0.017986 16:0.119203 17:0.95257401 18:0.73105901 19:0.5 20:0.88079703 21:0.081018999 #
-4.2370172945757840210490030585788 1:0.26894099 2:0.5 3:0.95257401 4:0.95257401 5:0.006693 6:0.73105901 7:0.5 8:0.73105901 9:0.5 10:0.017986 11:0.006693 12:0.73105901 13:0.047426 14:0.006693 15:0.982014 16:0.119203 17:0.047426 18:0.006693 19:0.006693 20:0.017986 21:0.141204 #
10.846764274114006454396985645872 1:0.26894099 2:0.5 3:0.73105901 4:0.5 5:0.5 6:0.5 7:0.119203 8:0.119203 9:0.73105901 10:0.73105901 11:0.5 12:0.26894099 13:0.73105901 14:0.88079703 15:0.047426 16:0.5 17:0.119203 18:0.5 19:0.73105901 20:0.73105901 21:0.020833001 #
-4.2370172945757840210490030585788 1:0.002473 2:0.002473 3:0.00091100001 4:0.00033499999 5:0.002473 6:0.002473 7:0.002473 8:0.002473 9:0.006693 10:0.006693 11:0.017986 12:0.00091100001 13:0.017986 14:0.99330699 15:0.00091100001 16:0.002473 17:0.002473 18:0.99999398 19:0.26894099 20:0.002473 21:0.83796299 #
-4.2370172945757840210490030585788 1:0.26894099 2:0.73105901 3:0.88079703 4:0.73105901 5:0.017986 6:0.73105901 7:0.5 8:0.73105901 9:0.95257401 10:0.047426 11:0.119203 12:0.73105901 13:0.047426 14:0.017986 15:0.982014 16:0.5 17:0.26894099 18:0.017986 19:0.047426 20:0.047426 21:0.078704 #
-4.2370172945757840210490030585788 1:0.017986 2:0.00091100001 3:0.00033499999 4:0.00033499999 5:0.006693 6:0.00091100001 7:0.00091100001 8:0.00033499999 9:0.00033499999 10:0.982014 11:0.047426 12:0.00091100001 13:0.119203 14:0.006693 15:0.00091100001 16:0.002473 17:0.006693 18:0.00091100001 19:0.002473 20:0.999089 21:0.49537 #
-4.2370172945757840210490030585788 1:0.26894099 2:0.88079703 3:0.119203 4:0.26894099 5:0.006693 6:0.73105901 7:0.26894099 8:0.73105901 9:0.73105901 10:0.017986 11:0.017986 12:0.88079703 13:0.017986 14:0.006693 15:0.99330699 16:0.5 17:0.5 18:0.006693 19:0.047426 20:0.017986 21:0.138889 #
-4.2370172945757840210490030585788 1:0.00091100001 2:0.00091100001 3:0.00033499999 4:0.00033499999 5:0.00091100001 6:0.00091100001 7:0.00033499999 8:0.00033499999 9:0.002473 10:0.006693 11:0.006693 12:0.00033499999 13:0.006693 14:0.99966502 15:0.00033499999 16:0.00091100001 17:0.00091100001 18:0.999955 19:0.26894099 20:0.002473 21:0.733796 #
-4.2370172945757840210490030585788 1:0.88079703 2:0.95257401 3:0.119203 4:0.017986 5:0.017986 6:0.047426 7:0.047426 8:0.73105901 9:0.119203 10:0.017986 11:0.017986 12:0.88079703 13:0.017986 14:0.006693 15:0.95257401 16:0.88079703 17:0.5 18:0.006693 19:0.017986 20:0.017986 21:0.12963 #
10.846764274114006454396985645872 1:0.006693 2:0.006693 3:0.00091100001 4:0.002473 5:0.00091100001 6:0.006693 7:0.002473 8:0.00091100001 9:0.00091100001 10:0.00091100001 11:0.00033499999 12:0.002473 13:0.00091100001 14:0.00033499999 15:0.99987698 16:0.006693 17:0.002473 18:0.00033499999 19:0.00033499999 20:0.00091100001 21:0.78472197 #
-4.2370172945757840210490030585788 1:0.5 2:0.26894099 3:0.73105901 4:0.5 5:0.047426 6:0.5 7:0.5 8:0.73105901 9:0.119203 10:0.017986 11:0.047426 12:0.95257401 13:0.047426 14:0.017986 15:0.95257401 16:0.88079703 17:0.5 18:0.017986 19:0.047426 20:0.047426 21:0.090278 #
-4.2370172945757840210490030585788 1:0.00091100001 2:0.00091100001 3:0.00033499999 4:0.00033499999 5:0.00091100001 6:0.00091100001 7:0.00033499999 8:0.00033499999 9:0.002473 10:0.006693 11:0.017986 12:0.00033499999 13:0.006693 14:0.99966502 15:0.00033499999 16:0.00091100001 17:0.00091100001 18:0.999955 19:0.26894099 20:0.002473 21:0.72916698 #
10.846764274114006454396985645872 1:0.017986 2:0.00091100001 3:0.006693 4:0.002473 5:0.00091100001 6:0.002473 7:0.00091100001 8:0.99966502 9:0.00091100001 10:0.00033499999 11:0.00033499999 12:0.002473 13:0.00091100001 14:0.00033499999 15:0.00091100001 16:0.006693 17:0.002473 18:0.00091100001 19:0.00033499999 20:0.00033499999 21:0.65046299 #
-4.2370172945757840210490030585788 1:0.73105901 2:0.047426 3:0.26894099 4:0.5 5:0.017986 6:0.119203 7:0.95257401 8:0.95257401 9:0.5 10:0.006693 11:0.006693 12:0.73105901 13:0.119203 14:0.006693 15:0.73105901 16:0.88079703 17:0.5 18:0.002473 19:0.017986 20:0.047426 21:0.097222 #
10.846764274114006454396985645872 1:0.26894099 2:0.88079703 3:0.119203 4:0.017986 5:0.26894099 6:0.26894099 7:0.047426 8:0.017986 9:0.99330699 10:0.73105901 11:0.73105901 12:0.5 13:0.73105901 14:0.88079703 15:0.006693 16:0.119203 17:0.26894099 18:0.73105901 19:0.5 20:0.73105901 21:0.085648 #
-4.2370172945757840210490030585788 1:0.006693 2:0.00033499999 3:0.00033499999 4:0.00033499999 5:0.119203 6:0.00033499999 7:0.00033499999 8:0.00012300001 9:0.00033499999 10:0.999089 11:0.88079703 12:0.00033499999 13:0.119203 14:0.006693 15:0.00033499999 16:0.00091100001 17:0.017986 18:0.00033499999 19:0.002473 20:0.95257401 21:0.44675899 #
-4.2370172945757840210490030585788 1:0.00091100001 2:0.00091100001 3:0.00091100001 4:0.00033499999 5:0.00033499999 6:0.00091100001 7:0.00091100001 8:0.00033499999 9:0.017986 10:0.002473 11:0.002473 12:0.00091100001 13:0.002473 14:0.88079703 15:0.00033499999 16:0.00091100001 17:0.00091100001 18:0.95257401 19:0.999955 20:0.002473 21:0.79398102 #
-4.2370172945757840210490030585788 1:0.5 2:0.73105901 3:0.73105901 4:0.119203 5:0.006693 6:0.5 7:0.88079703 8:0.73105901 9:0.26894099 10:0.017986 11:0.006693 12:0.73105901 13:0.047426 14:0.002473 15:0.99330699 16:0.73105901 17:0.047426 18:0.002473 19:0.017986 20:0.017986 21:0.152778 #
10.846764274114006454396985645872 1:0.047426 2:0.73105901 3:0.047426 4:0.017986 5:0.047426 6:0.26894099 7:0.5 8:0.006693 9:0.26894099 10:0.95257401 11:0.73105901 12:0.88079703 13:0.26894099 14:0.5 15:0.017986 16:0.047426 17:0.119203 18:0.99330699 19:0.5 20:0.88079703 21:0.085648 #
-4.2370172945757840210490030585788 1:0.002473 2:0.00091100001 3:0.00091100001 4:0.00033499999 5:0.002473 6:0.002473 7:0.00091100001 8:0.00091100001 9:0.006693 10:0.002473 11:0.006693 12:0.00091100001 13:0.006693 14:0.982014 15:0.00033499999 16:0.00091100001 17:0.002473 18:0.99999398 19:0.99330699 20:0.002473 21:0.789352 #
-4.2370172945757840210490030585788 1:0.5 2:0.88079703 3:0.5 4:0.73105901 5:0.002473 6:0.26894099 7:0.73105901 8:0.5 9:0.26894099 10:0.002473 11:0.006693 12:0.73105901 13:0.006693 14:0.002473 15:0.99330699 16:0.5 17:0.26894099 18:0.00091100001 19:0.006693 20:0.047426 21:0.138889 #
-4.2370172945757840210490030585788 1:0.002473 2:0.00033499999 3:0.00012300001 4:0.00012300001 5:0.00091100001 6:0.00033499999 7:0.00033499999 8:0.00012300001 9:0.00012300001 10:0.999089 11:0.88079703 12:0.00033499999 13:0.26894099 14:0.017986 15:0.00033499999 16:0.00033499999 17:0.002473 18:0.00033499999 19:0.017986 20:0.95257401 21:0.45833299 #
-4.2370172945757840210490030585788 1:0.002473 2:0.00091100001 3:0.00033499999 4:0.00033499999 5:0.002473 6:0.00091100001 7:0.00033499999 8:0.00033499999 9:0.00033499999 10:0.99966502 11:0.26894099 12:0.00091100001 13:0.26894099 14:0.017986 15:0.00091100001 16:0.00091100001 17:0.006693 18:0.00091100001 19:0.002473 20:0.73105901 21:0.54861099 #
-4.2370172945757840210490030585788 1:0.26894099 2:0.26894099 3:0.26894099 4:0.5 5:0.006693 6:0.88079703 7:0.73105901 8:0.88079703 9:0.119203 10:0.006693 11:0.006693 12:0.88079703 13:0.006693 14:0.002473 15:0.99330699 16:0.26894099 17:0.26894099 18:0.002473 19:0.006693 20:0.006693 21:0.166667 #
-4.2370172945757840210490030585788 1:0.002473 2:0.00091100001 3:0.00091100001 4:0.00033499999 5:0.002473 6:0.002473 7:0.00091100001 8:0.00091100001 9:0.006693 10:0.002473 11:0.006693 12:0.00091100001 13:0.006693 14:0.982014 15:0.00033499999 16:0.00091100001 17:0.002473 18:0.99999398 19:0.99330699 20:0.002473 21:0.789352 #
10.846764274114006454396985645872 1:0.26894099 2:0.95257401 3:0.119203 4:0.047426 5:0.26894099 6:0.5 7:0.119203 8:0.047426 9:0.26894099 10:0.5 11:0.88079703 12:0.5 13:0.5 14:0.5 15:0.017986 16:0.26894099 17:0.26894099 18:0.73105901 19:0.5 20:0.73105901 21:0.055555999 #
10.846764274114006454396985645872 1:0.006693 2:0.00033499999 3:0.00091100001 4:0.00033499999 5:0.00091100001 6:0.002473 7:0.00091100001 8:0.00033499999 9:0.00033499999 10:0.00033499999 11:0.00012300001 12:0.00091100001 13:0.002473 14:4.5000001e-05 15:0.99987698 16:0.047426 17:0.002473 18:4.5000001e-05 19:0.00012300001 20:0.00091100001 21:0.79398102 #
-4.2370172945757840210490030585788 1:0.119203 2:0.88079703 3:0.5 4:0.982014 5:0.006693 6:0.5 7:0.26894099 8:0.95257401 9:0.26894099 10:0.006693 11:0.017986 12:0.73105901 13:0.017986 14:0.006693 15:0.88079703 16:0.26894099 17:0.119203 18:0.006693 19:0.017986 20:0.017986 21:0.141204 #
-4.2370172945757840210490030585788 1:0.119203 2:0.26894099 3:0.95257401 4:0.88079703 5:0.002473 6:0.5 7:0.73105901 8:0.982014 9:0.73105901 10:0.006693 11:0.006693 12:0.5 13:0.119203 14:0.017986 15:0.95257401 16:0.047426 17:0.047426 18:0.002473 19:0.017986 20:0.006693 21:0.141204 #
-4.2370172945757840210490030585788 1:0.00033499999 2:0.00033499999 3:0.00033499999 4:0.00012300001 5:0.00033499999 6:0.00033499999 7:0.00012300001 8:0.00012300001 9:0.002473 10:0.002473 11:0.006693 12:0.00033499999 13:0.047426 14:0.99987698 15:0.00012300001 16:0.00033499999 17:0.00033499999 18:0.88079703 19:0.982014 20:0.002473 21:0.73842603 #
10.846764274114006454396985645872 1:0.73105901 2:0.73105901 3:0.119203 4:0.047426 5:0.26894099 6:0.88079703 7:0.26894099 8:0.047426 9:0.5 10:0.88079703 11:0.5 12:0.5 13:0.26894099 14:0.26894099 15:0.047426 16:0.26894099 17:0.26894099 18:0.73105901 19:0.73105901 20:0.88079703 21:0.037037 #
-4.2370172945757840210490030585788 1:0.88079703 2:0.26894099 3:0.5 4:0.88079703 5:0.119203 6:0.26894099 7:0.73105901 8:0.73105901 9:0.26894099 10:0.047426 11:0.017986 12:0.73105901 13:0.119203 14:0.006693 15:0.73105901 16:0.73105901 17:0.5 18:0.006693 19:0.017986 20:0.047426 21:0.067129999 #
10.846764274114006454396985645872 1:0.5 2:0.5 3:0.26894099 4:0.119203 5:0.047426 6:0.5 7:0.5 8:0.119203 9:0.982014 10:0.5 11:0.5 12:0.119203 13:0.5 14:0.73105901 15:0.017986 16:0.26894099 17:0.26894099 18:0.95257401 19:0.982014 20:0.5 21:0.064815 #
-4.2370172945757840210490030585788 1:0.00091100001 2:0.00033499999 3:0.00033499999 4:0.00033499999 5:0.00091100001 6:0.00033499999 7:0.00033499999 8:0.00033499999 9:0.002473 10:0.006693 11:0.017986 12:0.00033499999 13:0.006693 14:0.99987698 15:0.00033499999 16:0.00091100001 17:0.00091100001 18:0.99966502 19:0.5 20:0.002473 21:0.70833302 #
-4.2370172945757840210490030585788 1:0.119203 2:0.26894099 3:0.95257401 4:0.88079703 5:0.002473 6:0.5 7:0.73105901 8:0.982014 9:0.73105901 10:0.006693 11:0.006693 12:0.5 13:0.119203 14:0.017986 15:0.95257401 16:0.047426 17:0.047426 18:0.002473 19:0.017986 20:0.006693 21:0.141204 #
-4.2370172945757840210490030585788 1:0.006693 2:0.00091100001 3:0.00091100001 4:0.00091100001 5:0.006693 6:0.002473 7:0.00091100001 8:0.00033499999 9:0.00091100001 10:0.999089 11:0.982014 12:0.002473 13:0.119203 14:0.017986 15:0.00091100001 16:0.002473 17:0.006693 18:0.002473 19:0.006693 20:0.26894099 21:0.42361099 #
10.846764274114006454396985645872 1:0.017986 2:0.00091100001 3:0.006693 4:0.002473 5:0.00091100001 6:0.002473 7:0.00091100001 8:0.99966502 9:0.00091100001 10:0.00033499999 11:0.00033499999 12:0.002473 13:0.00091100001 14:0.00033499999 15:0.00091100001 16:0.006693 17:0.002473 18:0.00091100001 19:0.00033499999 20:0.00033499999 21:0.64351898 #
-4.2370172945757840210490030585788 1:0.73105901 2:0.5 3:0.26894099 4:0.88079703 5:0.006693 6:0.73105901 7:0.982014 8:0.88079703 9:0.119203 10:0.006693 11:0.006693 12:0.5 13:0.006693 14:0.002473 15:0.73105901 16:0.26894099 17:0.26894099 18:0.002473 19:0.017986 20:0.017986 21:0.122685 #
-4.2370172945757840210490030585788 1:0.5 2:0.017986 3:0.017986 4:0.006693 5:0.88079703 6:0.017986 7:0.017986 8:0.006693 9:0.017986 10:0.982014 11:0.88079703 12:0.017986 13:0.5 14:0.047426 15:0.88079703 16:0.047426 17:0.5 18:0.017986 19:0.047426 20:0.95257401 21:0.131944 #
4.2370172398559144966156964073889 1:0.26894099 2:0.006693 3:0.006693 4:0.006693 5:0.73105901 6:0.006693 7:0.017986 8:0.047426 9:0.006693 10:0.017986 11:0.047426 12:0.017986 13:0.017986 14:0.002473 15:0.99966502 16:0.047426 17:0.26894099 18:0.002473 19:0.002473 20:0.88079703 21:0.41203699 #
-4.2370172945757840210490030585788 1:0.002473 2:0.002473 3:0.00091100001 4:0.00033499999 5:0.002473 6:0.002473 7:0.002473 8:0.002473 9:0.006693 10:0.006693 11:0.017986 12:0.002473 13:0.017986 14:0.99330699 15:0.00091100001 16:0.002473 17:0.002473 18:0.99999398 19:0.26894099 20:0.002473 21:0.80786997 #
-4.2370172945757840210490030585788 1:0.88079703 2:0.88079703 3:0.119203 4:0.73105901 5:0.017986 6:0.5 7:0.88079703 8:0.73105901 9:0.5 10:0.017986 11:0.119203 12:0.119203 13:0.119203 14:0.006693 15:0.95257401 16:0.5 17:0.5 18:0.017986 19:0.047426 20:0.047426 21:0.081018999 #
10.846764274114006454396985645872 1:0.017986 2:0.00091100001 3:0.00091100001 4:0.002473 5:0.017986 6:0.002473 7:0.002473 8:0.00091100001 9:0.00091100001 10:0.00033499999 11:0.002473 12:0.002473 13:0.00091100001 14:0.00033499999 15:0.99987698 16:0.002473 17:0.006693 18:0.00012300001 19:0.00033499999 20:0.00091100001 21:0.77777803 #
10.846764274114006454396985645872 1:0.26894099 2:0.5 3:0.5 4:0.73105901 5:0.047426 6:0.119203 7:0.26894099 8:0.119203 9:0.26894099 10:0.5 11:0.5 12:0.119203 13:0.119203 14:0.73105901 15:0.047426 16:0.5 17:0.88079703 18:0.88079703 19:0.982014 20:0.73105901 21:0.043981001 #
-4.2370172945757840210490030585788 1:0.73105901 2:0.119203 3:0.5 4:0.5 5:0.006693 6:0.73105901 7:0.88079703 8:0.73105901 9:0.119203 10:0.006693 11:0.119203 12:0.73105901 13:0.047426 14:0.006693 15:0.99330699 16:0.26894099 17:0.26894099 18:0.006693 19:0.017986 20:0.017986 21:0.118056 #
-4.2370172945757840210490030585788 1:0.00091100001 2:0.00091100001 3:0.00033499999 4:0.00012300001 5:0.00091100001 6:0.00091100001 7:0.00091100001 8:0.00033499999 9:0.006693 10:0.002473 11:0.006693 12:0.00091100001 13:0.002473 14:0.982014 15:0.00033499999 16:0.00091100001 17:0.00091100001 18:0.99998301 19:0.999089 20:0.00091100001 21:0.72222197 #
-4.2370172945757840210490030585788 1:0.26894099 2:0.26894099 3:0.26894099 4:0.88079703 5:0.017986 6:0.73105901 7:0.95257401 8:0.5 9:0.119203 10:0.017986 11:0.017986 12:0.73105901 13:0.017986 14:0.006693 15:0.99330699 16:0.73105901 17:0.5 18:0.006693 19:0.017986 20:0.017986 21:0.127315 #
-4.2370172945757840210490030585788 1:0.006693 2:0.002473 3:0.00091100001 4:0.00033499999 5:0.006693 6:0.002473 7:0.00091100001 8:0.00033499999 9:0.00091100001 10:0.95257401 11:0.997527 12:0.00091100001 13:0.119203 14:0.017986 15:0.00091100001 16:0.002473 17:0.017986 18:0.002473 19:0.006693 20:0.88079703 21:0.37268499 #
-4.2370172945757840210490030585788 1:0.00091100001 2:0.00091100001 3:0.00033499999 4:0.00012300001 5:0.00091100001 6:0.002473 7:0.00091100001 8:0.00091100001 9:0.00091100001 10:0.00091100001 11:0.002473 12:0.00091100001 13:0.006693 14:0.5 15:0.00033499999 16:0.00091100001 17:0.00091100001 18:0.99999797 19:0.119203 20:0.00091100001 21:1.099537 #
10.846764274114006454396985645872 1:0.047426 2:0.26894099 3:0.047426 4:0.017986 5:0.119203 6:0.88079703 7:0.047426 8:0.017986 9:0.95257401 10:0.95257401 11:0.26894099 12:0.119203 13:0.88079703 14:0.88079703 15:0.017986 16:0.119203 17:0.73105901 18:0.88079703 19:0.73105901 20:0.88079703 21:0.083333001 #
-4.2370172945757840210490030585788 1:0.26894099 2:0.119203 3:0.73105901 4:0.95257401 5:0.017986 6:0.73105901 7:0.95257401 8:0.5 9:0.5 10:0.017986 11:0.017986 12:0.73105901 13:0.047426 14:0.006693 15:0.88079703 16:0.73105901 17:0.5 18:0.006693 19:0.017986 20:0.047426 21:0.101852 #
-4.2370172945757840210490030585788 1:0.26894099 2:0.26894099 3:0.95257401 4:0.73105901 5:0.73105901 6:0.73105901 7:0.5 8:0.73105901 9:0.88079703 10:0.047426 11:0.047426 12:0.5 13:0.047426 14:0.017986 15:0.73105901 16:0.88079703 17:0.119203 18:0.002473 19:0.017986 20:0.047426 21:0.069444001 #
-4.2370172945757840210490030585788 1:0.00091100001 2:0.00091100001 3:0.00033499999 4:0.00033499999 5:0.00091100001 6:0.00033499999 7:0.00033499999 8:0.00033499999 9:0.002473 10:0.006693 11:0.017986 12:0.00033499999 13:0.017986 14:0.99987698 15:0.00033499999 16:0.00091100001 17:0.00091100001 18:0.95257401 19:0.88079703 20:0.006693 21:0.71527803 #
10.846764274114006454396985645872 1:0.5 2:0.88079703 3:0.047426 4:0.047426 5:0.047426 6:0.119203 7:0.26894099 8:0.006693 9:0.5 10:0.88079703 11:0.047426 12:0.88079703 13:0.119203 14:0.26894099 15:0.006693 16:0.047426 17:0.26894099 18:0.95257401 19:0.99330699 20:0.88079703 21:0.108796 #
-4.2370172945757840210490030585788 1:0.017986 2:0.00091100001 3:0.00091100001 4:0.00091100001 5:0.006693 6:0.002473 7:0.00091100001 8:0.00091100001 9:0.00091100001 10:0.982014 11:0.119203 12:0.002473 13:0.047426 14:0.006693 15:0.00091100001 16:0.002473 17:0.017986 18:0.00091100001 19:0.006693 20:0.999089 21:0.47453699 #
-4.2370172945757840210490030585788 1:0.5 2:0.5 3:0.5 4:0.73105901 5:0.017986 6:0.73105901 7:0.88079703 8:0.73105901 9:0.95257401 10:0.017986 11:0.017986 12:0.95257401 13:0.047426 14:0.017986 15:0.73105901 16:0.73105901 17:0.26894099 18:0.006693 19:0.047426 20:0.047426 21:0.078704 #
10.846764274114006454396985645872 1:0.006693 2:0.002473 3:0.002473 4:0.006693 5:0.00091100001 6:0.006693 7:0.006693 8:0.002473 9:0.002473 10:0.00091100001 11:0.00091100001 12:0.006693 13:0.002473 14:0.00033499999 15:0.99987698 16:0.006693 17:0.006693 18:0.00033499999 19:0.00091100001 20:0.002473 21:0.76388901 #
-4.2370172945757840210490030585788 1:0.00033499999 2:0.00033499999 3:0.00091100001 4:0.00033499999 5:0.00012300001 6:0.002473 7:0.00012300001 8:0.00012300001 9:0.047426 10:0.00033499999 11:0.017986 12:0.00012300001 13:0.006693 14:0.73105901 15:4.5000001e-05 16:0.00012300001 17:0.00091100001 18:0.99998301 19:0.999089 20:0.00091100001 21:0.82175899 #
-4.2370172945757840210490030585788 1:0.5 2:0.26894099 3:0.26894099 4:0.5 5:0.017986 6:0.26894099 7:0.5 8:0.73105901 9:0.047426 10:0.017986 11:0.017986 12:0.5 13:0.26894099 14:0.017986 15:0.982014 16:0.88079703 17:0.95257401 18:0.006693 19:0.017986 20:0.047426 21:0.104167 #
10.846764274114006454396985645872 1:0.119203 2:0.73105901 3:0.119203 4:0.047426 5:0.5 6:0.26894099 7:0.26894099 8:0.017986 9:0.88079703 10:0.5 11:0.73105901 12:0.119203 13:0.73105901 14:0.73105901 15:0.017986 16:0.119203 17:0.5 18:0.997527 19:0.95257401 20:0.73105901 21:0.087963 #
-4.2370172945757840210490030585788 1:0.002473 2:0.017986 3:0.00091100001 4:0.00033499999 5:0.002473 6:0.002473 7:0.002473 8:0.002473 9:0.006693 10:0.006693 11:0.006693 12:0.002473 13:0.006693 14:0.982014 15:0.00091100001 16:0.002473 17:0.002473 18:0.99999398 19:0.73105901 20:0.002473 21:0.84490699 #
-4.2370172945757840210490030585788 1:0.26894099 2:0.73105901 3:0.95257401 4:0.95257401 5:0.006693 6:0.5 7:0.26894099 8:0.5 9:0.119203 10:0.047426 11:0.017986 12:0.26894099 13:0.047426 14:0.017986 15:0.95257401 16:0.88079703 17:0.5 18:0.002473 19:0.017986 20:0.047426 21:0.094907001 #
-4.2370172945757840210490030585788 1:0.017986 2:0.00091100001 3:0.00091100001 4:0.00091100001 5:0.006693 6:0.002473 7:0.00091100001 8:0.00091100001 9:0.00091100001 10:0.997527 11:0.119203 12:0.002473 13:0.047426 14:0.017986 15:0.00091100001 16:0.002473 17:0.017986 18:0.00091100001 19:0.006693 20:0.997527 21:0.43981501 #
-4.2370172945757840210490030585788 1:0.006693 2:0.00033499999 3:0.00012300001 4:0.00012300001 5:0.00033499999 6:0.00091100001 7:0.00012300001 8:0.002473 9:0.00091100001 10:0.00091100001 11:0.002473 12:0.00012300001 13:0.002473 14:0.999089 15:0.00012300001 16:0.017986 17:0.006693 18:0.99998301 19:0.5 20:0.00091100001 21:0.78472197 #
10.846764274114006454396985645872 1:0.26894099 2:0.119203 3:0.73105901 4:0.26894099 5:0.119203 6:0.26894099 7:0.26894099 8:0.119203 9:0.73105901 10:0.88079703 11:0.5 12:0.26894099 13:0.26894099 14:0.73105901 15:0.047426 16:0.5 17:0.88079703 18:0.5 19:0.88079703 20:0.73105901 21:0.027778 #
-4.2370172945757840210490030585788 1:0.26894099 2:0.73105901 3:0.88079703 4:0.5 5:0.017986 6:0.5 7:0.5 8:0.95257401 9:0.5 10:0.017986 11:0.047426 12:0.88079703 13:0.047426 14:0.017986 15:0.88079703 16:0.5 17:0.26894099 18:0.017986 19:0.047426 20:0.119203 21:0.085648 #
10.846764274114006454396985645872 1:0.006693 2:0.002473 3:0.002473 4:0.006693 5:0.00091100001 6:0.006693 7:0.006693 8:0.002473 9:0.002473 10:0.00091100001 11:0.00091100001 12:0.006693 13:0.002473 14:0.00033499999 15:0.99987698 16:0.006693 17:0.006693 18:0.00033499999 19:0.00091100001 20:0.002473 21:0.76388901 #
-4.2370172945757840210490030585788 1:0.26894099 2:0.26894099 3:0.5 4:0.26894099 5:0.5 6:0.73105901 7:0.5 8:0.982014 9:0.047426 10:0.006693 11:0.006693 12:0.26894099 13:0.017986 14:0.006693 15:0.95257401 16:0.73105901 17:0.26894099 18:0.006693 19:0.017986 20:0.017986 21:0.141204 #
-4.2370172945757840210490030585788 1:0.00033499999 2:0.00033499999 3:0.00012300001 4:4.5000001e-05 5:0.00012300001 6:0.00033499999 7:0.00012300001 8:0.00012300001 9:0.047426 10:0.00033499999 11:0.00091100001 12:0.00012300001 13:0.00091100001 14:0.982014 15:4.5000001e-05 16:0.00033499999 17:0.00033499999 18:0.999089 19:0.99987698 20:0.00033499999 21:0.766204 #
-4.2370172945757840210490030585788 1:0.73105901 2:0.5 3:0.73105901 4:0.119203 5:0.006693 6:0.047426 7:0.26894099 8:0.982014 9:0.047426 10:0.002473 11:0.002473 12:0.26894099 13:0.006693 14:0.002473 15:0.982014 16:0.73105901 17:0.5 18:0.002473 19:0.006693 20:0.017986 21:0.152778 #
-4.2370172945757840210490030585788 1:0.006693 2:0.00091100001 3:0.00091100001 4:0.00033499999 5:0.017986 6:0.00091100001 7:0.00091100001 8:0.00033499999 9:0.00091100001 10:0.999089 11:0.73105901 12:0.00091100001 13:0.26894099 14:0.006693 15:0.00091100001 16:0.002473 17:0.017986 18:0.00091100001 19:0.002473 20:0.982014 21:0.421296 #
10.846764274114006454396985645872 1:0.5 2:0.5 3:0.5 4:0.73105901 5:0.047426 6:0.26894099 7:0.26894099 8:0.047426 9:0.5 10:0.73105901 11:0.26894099 12:0.119203 13:0.26894099 14:0.73105901 15:0.047426 16:0.5 17:0.73105901 18:0.5 19:0.982014 20:0.5 21:0.050926 #
10.846764274114006454396985645872 1:0.017986 2:0.00091100001 3:0.006693 4:0.002473 5:0.00091100001 6:0.002473 7:0.00091100001 8:0.99966502 9:0.002473 10:0.00033499999 11:0.00033499999 12:0.002473 13:0.00091100001 14:0.00033499999 15:0.00091100001 16:0.006693 17:0.002473 18:0.00091100001 19:0.00033499999 20:0.00033499999 21:0.63888901 #
-4.2370172945757840210490030585788 1:0.002473 2:0.00091100001 3:0.00091100001 4:0.00033499999 5:0.002473 6:0.006693 7:0.00091100001 8:0.002473 9:0.017986 10:0.002473 11:0.006693 12:0.002473 13:0.006693 14:0.997527 15:0.00091100001 16:0.00091100001 17:0.002473 18:0.99999398 19:0.119203 20:0.002473 21:0.81018502 #
-4.2370172945757840210490030585788 1:0.5 2:0.119203 3:0.26894099 4:0.95257401 5:0.017986 6:0.73105901 7:0.982014 8:0.88079703 9:0.73105901 10:0.017986 11:0.017986 12:0.5 13:0.047426 14:0.017986 15:0.95257401 16:0.5 17:0.26894099 18:0.017986 19:0.047426 20:0.047426 21:0.115741 #
-4.2370172945757840210490030585788 1:0.5 2:0.73105901 3:0.26894099 4:0.73105901 5:0.047426 6:0.5 7:0.88079703 8:0.5 9:0.119203 10:0.017986 11:0.017986 12:0.88079703 13:0.047426 14:0.006693 15:0.982014 16:0.73105901 17:0.26894099 18:0.006693 19:0.047426 20:0.017986 21:0.115741 #
-4.2370172945757840210490030585788 1:0.00091100001 2:0.00091100001 3:0.00091100001 4:0.00033499999 5:0.00033499999 6:0.002473 7:0.00033499999 8:0.00012300001 9:0.047426 10:0.00033499999 11:0.017986 12:0.00033499999 13:0.006693 14:0.73105901 15:0.00012300001 16:0.00033499999 17:0.002473 18:0.99998301 19:0.999089 20:0.00091100001 21:0.8125 #
10.846764274114006454396985645872 1:0.73105901 2:0.047426 3:0.047426 4:0.017986 5:0.5 6:0.73105901 7:0.26894099 8:0.047426 9:0.119203 10:0.73105901 11:0.26894099 12:0.047426 13:0.95257401 14:0.88079703 15:0.047426 16:0.73105901 17:0.73105901 18:0.88079703 19:0.88079703 20:0.88079703 21:0.0625 #
-4.2370172945757840210490030585788 1:0.119203 2:0.73105901 3:0.119203 4:0.119203 5:0.006693 6:0.119203 7:0.5 8:0.982014 9:0.5 10:0.047426 11:0.047426 12:0.73105901 13:0.047426 14:0.017986 15:0.95257401 16:0.88079703 17:0.26894099 18:0.006693 19:0.047426 20:0.017986 21:0.118056 #
-4.2370172945757840210490030585788 1:0.006693 2:0.00091100001 3:0.00091100001 4:0.00091100001 5:0.006693 6:0.00091100001 7:0.00091100001 8:0.00033499999 9:0.00091100001 10:0.999089 11:0.73105901 12:0.002473 13:0.119203 14:0.017986 15:0.00091100001 16:0.002473 17:0.017986 18:0.002473 19:0.006693 20:0.95257401 21:0.44213 #
10.846764274114006454396985645872 1:0.006693 2:0.002473 3:0.002473 4:0.006693 5:0.00091100001 6:0.006693 7:0.006693 8:0.002473 9:0.002473 10:0.00091100001 11:0.00091100001 12:0.006693 13:0.002473 14:0.00033499999 15:0.99987698 16:0.006693 17:0.006693 18:0.00033499999 19:0.00091100001 20:0.002473 21:0.76388901 #
10.846764274114006454396985645872 1:0.047426 2:0.95257401 3:0.26894099 4:0.017986 5:0.119203 6:0.26894099 7:0.119203 8:0.006693 9:0.88079703 10:0.95257401 11:0.73105901 12:0.119203 13:0.5 14:0.73105901 15:0.006693 16:0.119203 17:0.26894099 18:0.73105901 19:0.88079703 20:0.73105901 21:0.087963 #
-4.2370172945757840210490030585788 1:0.00091100001 2:0.00033499999 3:0.017986 4:0.00012300001 5:0.00091100001 6:0.00091100001 7:0.00033499999 8:0.00033499999 9:0.00091100001 10:0.00091100001 11:0.002473 12:0.00033499999 13:0.002473 14:0.99330699 15:0.017986 16:0.00033499999 17:0.00091100001 18:0.99999398 19:0.73105901 20:0.017986 21:0.86574101 #
-4.2370172945757840210490030585788 1:0.73105901 2:0.5 3:0.73105901 4:0.73105901 5:0.119203 6:0.26894099 7:0.73105901 8:0.95257401 9:0.26894099 10:0.017986 11:0.047426 12:0.26894099 13:0.017986 14:0.006693 15:0.88079703 16:0.73105901 17:0.5 18:0.047426 19:0.017986 20:0.119203 21:0.076389 #
-4.2370172945757840210490030585788 1:0.00091100001 2:0.00091100001 3:0.00091100001 4:0.00033499999 5:0.00091100001 6:0.00091100001 7:0.00091100001 8:0.00091100001 9:0.002473 10:0.006693 11:0.017986 12:0.00091100001 13:0.017986 14:0.999955 15:0.00033499999 16:0.00091100001 17:0.00091100001 18:0.73105901 19:0.5 20:0.006693 21:0.74074101 #
-4.2370172945757840210490030585788 1:0.26894099 2:0.26894099 3:0.88079703 4:0.5 5:0.047426 6:0.5 7:0.5 8:0.73105901 9:0.88079703 10:0.017986 11:0.017986 12:0.88079703 13:0.047426 14:0.017986 15:0.982014 16:0.5 17:0.5 18:0.002473 19:0.119203 20:0.047426 21:0.092592999 #
-4.2370172945757840210490030585788 1:0.006693 2:0.00091100001 3:0.00091100001 4:0.00091100001 5:0.006693 6:0.002473 7:0.00091100001 8:0.00091100001 9:0.00091100001 10:0.99966502 11:0.5 12:0.002473 13:0.119203 14:0.017986 15:0.00091100001 16:0.002473 17:0.006693 18:0.002473 19:0.006693 20:0.73105901 21:0.51157397 #
-4.2370172945757840210490030585788 1:0.047426 2:0.047426 3:0.26894099 4:0.73105901 5:0.002473 6:0.26894099 7:0.73105901 8:0.982014 9:0.99330699 10:0.006693 11:0.002473 12:0.73105901 13:0.006693 14:0.017986 15:0.95257401 16:0.5 17:0.047426 18:0.002473 19:0.006693 20:0.002473 21:0.168981 #
10.846764274114006454396985645872 1:0.119203 2:0.73105901 3:0.26894099 4:0.119203 5:0.119203 6:0.26894099 7:0.119203 8:0.017986 9:0.73105901 10:0.95257401 11:0.5 12:0.73105901 13:0.5 14:0.73105901 15:0.017986 16:0.119203 17:0.73105901 18:0.119203 19:0.95257401 20:0.73105901 21:0.057870001 #
-4.2370172945757840210490030585788 1:0.002473 2:0.006693 3:0.00091100001 4:0.00091100001 5:0.002473 6:0.006693 7:0.002473 8:0.002473 9:0.006693 10:0.006693 11:0.047426 12:0.002473 13:0.047426 14:0.95257401 15:0.00091100001 16:0.002473 17:0.002473 18:0.99999398 19:0.5 20:0.002473 21:0.84953701 #
-4.2370172945757840210490030585788 1:0.73105901 2:0.5 3:0.26894099 4:0.88079703 5:0.006693 6:0.73105901 7:0.982014 8:0.73105901 9:0.119203 10:0.006693 11:0.006693 12:0.5 13:0.006693 14:0.002473 15:0.73105901 16:0.26894099 17:0.26894099 18:0.002473 19:0.017986 20:0.017986 21:0.12037 #
-4.2370172945757840210490030585788 1:0.5 2:0.5 3:0.119203 4:0.119203 5:0.006693 6:0.26894099 7:0.5 8:0.95257401 9:0.5 10:0.047426 11:0.047426 12:0.5 13:0.047426 14:0.017986 15:0.95257401 16:0.95257401 17:0.26894099 18:0.006693 19:0.047426 20:0.017986 21:0.115741 #
-4.2370172945757840210490030585788 1:0.017986 2:0.00091100001 3:0.00091100001 4:0.00033499999 5:0.006693 6:0.002473 7:0.00091100001 8:0.00091100001 9:0.00033499999 10:0.982014 11:0.047426 12:0.002473 13:0.119203 14:0.006693 15:0.00091100001 16:0.002473 17:0.017986 18:0.00091100001 19:0.002473 20:0.999089 21:0.476852 #
10.846764274114006454396985645872 1:0.017986 2:0.00091100001 3:0.006693 4:0.002473 5:0.00091100001 6:0.002473 7:0.00091100001 8:0.99966502 9:0.00091100001 10:0.00012300001 11:0.00033499999 12:0.002473 13:0.00091100001 14:0.00033499999 15:0.00091100001 16:0.017986 17:0.002473 18:0.00091100001 19:0.00033499999 20:0.00033499999 21:0.648148 #
-4.2370172945757840210490030585788 1:0.00091100001 2:0.00091100001 3:0.017986 4:0.00012300001 5:0.00091100001 6:0.00091100001 7:0.00033499999 8:0.00091100001 9:0.00091100001 10:0.00091100001 11:0.002473 12:0.00033499999 13:0.002473 14:0.982014 15:0.017986 16:0.00091100001 17:0.00091100001 18:0.99999398 19:0.73105901 20:0.017986 21:0.87963003 #
10.846764274114006454396985645872 1:0.119203 2:0.5 3:0.017986 4:0.047426 5:0.047426 6:0.26894099 7:0.73105901 8:0.006693 9:0.5 10:0.73105901 11:0.95257401 12:0.119203 13:0.95257401 14:0.5 15:0.006693 16:0.047426 17:0.5 18:0.73105901 19:0.5 20:0.88079703 21:0.081018999 #
10.846764274114006454396985645872 1:0.047426 2:0.00091100001 3:0.002473 4:0.00091100001 5:0.006693 6:0.002473 7:0.002473 8:0.00091100001 9:0.00091100001 10:0.002473 11:0.00091100001 12:0.002473 13:0.00033499999 14:0.00012300001 15:0.99987698 16:0.006693 17:0.002473 18:0.00012300001 19:0.00033499999 20:0.006693 21:0.756944 #
-4.2370172945757840210490030585788 1:0.5 2:0.88079703 3:0.88079703 4:0.119203 5:0.017986 6:0.26894099 7:0.73105901 8:0.95257401 9:0.119203 10:0.047426 11:0.119203 12:0.73105901 13:0.119203 14:0.017986 15:0.73105901 16:0.73105901 17:0.73105901 18:0.017986 19:0.017986 20:0.047426 21:0.0625 #
-4.2370172945757840210490030585788 1:0.00033499999 2:0.00033499999 3:0.00012300001 4:0.00033499999 5:0.00033499999 6:0.00033499999 7:0.00091100001 8:0.00091100001 9:0.00091100001 10:0.006693 11:0.119203 12:0.00033499999 13:0.006693 14:0.997527 15:0.00012300001 16:0.00033499999 17:0.00033499999 18:0.99998301 19:0.88079703 20:0.002473 21:0.75 #
-4.2370172945757840210490030585788 1:0.5 2:0.5 3:0.982014 4:0.95257401 5:0.017986 6:0.5 7:0.73105901 8:0.88079703 9:0.73105901 10:0.017986 11:0.017986 12:0.5 13:0.26894099 14:0.017986 15:0.88079703 16:0.5 17:0.119203 18:0.017986 19:0.047426 20:0.047426 21:0.087963 #
-4.2370172945757840210490030585788 1:0.006693 2:0.00091100001 3:0.00091100001 4:0.00091100001 5:0.006693 6:0.00091100001 7:0.00091100001 8:0.00033499999 9:0.00091100001 10:0.99966502 11:0.119203 12:0.00091100001 13:0.047426 14:0.017986 15:0.00091100001 16:0.002473 17:0.017986 18:0.002473 19:0.006693 20:0.88079703 21:0.53472197 #
10.846764274114006454396985645872 1:0.26894099 2:0.73105901 3:0.119203 4:0.047426 5:0.047426 6:0.95257401 7:0.119203 8:0.017986 9:0.95257401 10:0.26894099 11:0.26894099 12:0.5 13:0.88079703 14:0.95257401 15:0.017986 16:0.5 17:0.73105901 18:0.5 19:0.5 20:0.5 21:0.067129999 #
-4.2370172945757840210490030585788 1:0.88079703 2:0.88079703 3:0.26894099 4:0.26894099 5:0.119203 6:0.73105901 7:0.73105901 8:0.73105901 9:0.26894099 10:0.047426 11:0.047426 12:0.95257401 13:0.047426 14:0.017986 15:0.88079703 16:0.5 17:0.26894099 18:0.017986 19:0.047426 20:0.119203 21:0.0625 #
-4.2370172945757840210490030585788 1:0.00091100001 2:0.00033499999 3:0.00033499999 4:0.00012300001 5:0.006693 6:0.00091100001 7:0.00033499999 8:0.00033499999 9:0.00091100001 10:0.00091100001 11:0.002473 12:0.00033499999 13:0.002473 14:0.99330699 15:0.00012300001 16:0.047426 17:0.00091100001 18:0.99999398 19:0.5 20:0.00091100001 21:0.89351898 #
10.846764274114006454396985645872 1:0.5 2:0.26894099 3:0.047426 4:0.26894099 5:0.73105901 6:0.26894099 7:0.26894099 8:0.119203 9:0.5 10:0.88079703 11:0.73105901 12:0.119203 13:0.73105901 14:0.73105901 15:0.047426 16:0.26894099 17:0.5 18:0.88079703 19:0.5 20:0.88079703 21:0.030092999 #
-4.2370172945757840210490030585788 1:0.26894099 2:0.73105901 3:0.95257401 4:0.95257401 5:0.006693 6:0.5 7:0.26894099 8:0.5 9:0.119203 10:0.047426 11:0.017986 12:0.26894099 13:0.047426 14:0.017986 15:0.95257401 16:0.95257401 17:0.5 18:0.006693 19:0.017986 20:0.047426 21:0.094907001 #
-4.2370172945757840210490030585788 1:0.00033499999 2:0.00033499999 3:0.002473 4:0.017986 5:0.26894099 6:0.00091100001 7:0.00033499999 8:0.00033499999 9:0.00091100001 10:0.00091100001 11:0.002473 12:0.00033499999 13:0.002473 14:0.982014 15:0.00012300001 16:0.002473 17:0.00033499999 18:0.99999797 19:0.047426 20:0.00033499999 21:0.95138901 #
-4.2370172945757840210490030585788 1:0.73105901 2:0.119203 3:0.73105901 4:0.95257401 5:0.017986 6:0.5 7:0.88079703 8:0.73105901 9:0.88079703 10:0.006693 11:0.017986 12:0.5 13:0.047426 14:0.017986 15:0.73105901 16:0.73105901 17:0.5 18:0.017986 19:0.047426 20:0.047426 21:0.074074 #
10.846764274114006454396985645872 1:0.006693 2:0.006693 3:0.002473 4:0.00091100001 5:0.006693 6:0.002473 7:0.002473 8:0.00091100001 9:0.00091100001 10:0.006693 11:0.002473 12:0.002473 13:0.00033499999 14:0.002473 15:0.99987698 16:0.006693 17:0.002473 18:0.00012300001 19:0.00033499999 20:0.006693 21:0.75463003 #
-4.2370172945757840210490030585788 1:0.00091100001 2:0.00091100001 3:0.00033499999 4:0.00033499999 5:0.00091100001 6:0.00091100001 7:0.00033499999 8:0.00033499999 9:0.002473 10:0.006693 11:0.017986 12:0.00033499999 13:0.119203 14:0.99987698 15:0.00033499999 16:0.00091100001 17:0.00091100001 18:0.99987698 19:0.26894099 20:0.002473 21:0.69675899 #
10.846764274114006454396985645872 1:0.26894099 2:0.26894099 3:0.047426 4:0.26894099 5:0.047426 6:0.5 7:0.26894099 8:0.119203 9:0.73105901 10:0.88079703 11:0.88079703 12:0.047426 13:0.73105901 14:0.88079703 15:0.017986 16:0.047426 17:0.26894099 18:0.95257401 19:0.88079703 20:0.5 21:0.055555999 #
-4.2370172945757840210490030585788 1:0.5 2:0.119203 3:0.73105901 4:0.5 5:0.002473 6:0.26894099 7:0.26894099 8:0.982014 9:0.119203 10:0.002473 11:0.006693 12:0.73105901 13:0.006693 14:0.006693 15:0.95257401 16:0.73105901 17:0.26894099 18:0.00091100001 19:0.047426 20:0.017986 21:0.12963 #
-4.2370172945757840210490030585788 1:0.017986 2:0.00091100001 3:0.00091100001 4:0.00091100001 5:0.006693 6:0.002473 7:0.00091100001 8:0.00091100001 9:0.00091100001 10:0.99330699 11:0.119203 12:0.002473 13:0.047426 14:0.017986 15:0.002473 16:0.002473 17:0.017986 18:0.00091100001 19:0.006693 20:0.999089 21:0.43518499 #
-4.2370172945757840210490030585788 1:0.5 2:0.73105901 3:0.88079703 4:0.73105901 5:0.26894099 6:0.73105901 7:0.88079703 8:0.5 9:0.5 10:0.017986 11:0.017986 12:0.95257401 13:0.047426 14:0.006693 15:0.73105901 16:0.73105901 17:0.26894099 18:0.006693 19:0.047426 20:0.017986 21:0.078704 #
-4.2370172945757840210490030585788 1:0.00091100001 2:0.00091100001 3:0.00091100001 4:0.00033499999 5:0.00091100001 6:0.00091100001 7:0.00091100001 8:0.00033499999 9:0.017986 10:0.002473 11:0.002473 12:0.00091100001 13:0.002473 14:0.982014 15:0.00033499999 16:0.00091100001 17:0.00091100001 18:0.99330699 19:0.99987698 20:0.002473 21:0.70138901 #
-4.2370172945757840210490030585788 1:0.017986 2:0.002473 3:0.00091100001 4:0.00033499999 5:0.002473 6:0.002473 7:0.002473 8:0.002473 9:0.002473 10:0.006693 11:0.017986 12:0.00091100001 13:0.119203 14:0.95257401 15:0.00091100001 16:0.002473 17:0.006693 18:0.99999398 19:0.5 20:0.006693 21:0.87268502 #
-4.2370172945757840210490030585788 1:0.5 2:0.26894099 3:0.73105901 4:0.88079703 5:0.006693 6:0.95257401 7:0.982014 8:0.5 9:0.047426 10:0.006693 11:0.006693 12:0.5 13:0.017986 14:0.006693 15:0.88079703 16:0.88079703 17:0.119203 18:0.006693 19:0.017986 20:0.006693 21:0.125 #
-4.2370172945757840210490030585788 1:0.002473 2:0.00091100001 3:0.00033499999 4:0.00033499999 5:0.002473 6:0.00091100001 7:0.00033499999 8:0.00033499999 9:0.00033499999 10:0.73105901 11:0.999089 12:0.00091100001 13:0.26894099 14:0.017986 15:0.002473 16:0.00091100001 17:0.006693 18:0.002473 19:0.002473 20:0.73105901 21:0.45833299 #
10.846764274114006454396985645872 1:0.26894099 2:0.73105901 3:0.119203 4:0.047426 5:0.047426 6:0.95257401 7:0.119203 8:0.017986 9:0.95257401 10:0.26894099 11:0.26894099 12:0.5 13:0.88079703 14:0.95257401 15:0.017986 16:0.5 17:0.73105901 18:0.5 19:0.5 20:0.5 21:0.067129999 #
-4.2370172945757840210490030585788 1:0.73105901 2:0.119203 3:0.73105901 4:0.95257401 5:0.017986 6:0.5 7:0.88079703 8:0.73105901 9:0.88079703 10:0.006693 11:0.017986 12:0.5 13:0.047426 14:0.017986 15:0.73105901 16:0.73105901 17:0.5 18:0.017986 19:0.047426 20:0.047426 21:0.076389 #
10.846764274114006454396985645872 1:0.006693 2:0.002473 3:0.006693 4:0.002473 5:0.00091100001 6:0.006693 7:0.006693 8:0.002473 9:0.002473 10:0.00091100001 11:0.002473 12:0.006693 13:0.00091100001 14:0.00033499999 15:0.99987698 16:0.006693 17:0.006693 18:0.00033499999 19:0.00091100001 20:0.006693 21:0.75 #
-4.2370172945757840210490030585788 1:0.002473 2:0.00091100001 3:0.00033499999 4:0.00012300001 5:0.26894099 6:0.00091100001 7:0.00033499999 8:0.00091100001 9:0.047426 10:0.00091100001 11:0.002473 12:0.00033499999 13:0.002473 14:0.73105901 15:0.00033499999 16:0.002473 17:0.00091100001 18:0.99999797 19:0.95257401 20:0.00091100001 21:0.94907397 #
-4.2370172945757840210490030585788 1:0.26894099 2:0.73105901 3:0.26894099 4:0.88079703 5:0.006693 6:0.88079703 7:0.982014 8:0.5 9:0.119203 10:0.006693 11:0.017986 12:0.95257401 13:0.017986 14:0.002473 15:0.73105901 16:0.5 17:0.26894099 18:0.002473 19:0.006693 20:0.017986 21:0.118056 #
10.846764274114006454396985645872 1:0.26894099 2:0.73105901 3:0.119203 4:0.047426 5:0.047426 6:0.95257401 7:0.119203 8:0.017986 9:0.95257401 10:0.26894099 11:0.26894099 12:0.5 13:0.88079703 14:0.95257401 15:0.017986 16:0.5 17:0.73105901 18:0.5 19:0.5 20:0.5 21:0.067129999 #
-4.2370172945757840210490030585788 1:0.002473 2:0.00091100001 3:0.00091100001 4:0.00033499999 5:0.00091100001 6:0.00091100001 7:0.00091100001 8:0.00091100001 9:0.002473 10:0.006693 11:0.017986 12:0.00091100001 13:0.017986 14:0.99966502 15:0.00033499999 16:0.00091100001 17:0.002473 18:0.999955 19:0.73105901 20:0.006693 21:0.680556 #
-4.2370172945757840210490030585788 1:0.73105901 2:0.26894099 3:0.5 4:0.88079703 5:0.047426 6:0.5 7:0.88079703 8:0.5 9:0.73105901 10:0.047426 11:0.017986 12:0.26894099 13:0.017986 14:0.006693 15:0.95257401 16:0.73105901 17:0.5 18:0.006693 19:0.047426 20:0.119203 21:0.076389 #
-4.2370172945757840210490030585788 1:0.26894099 2:0.73105901 3:0.26894099 4:0.88079703 5:0.006693 6:0.88079703 7:0.95257401 8:0.5 9:0.119203 10:0.006693 11:0.017986 12:0.95257401 13:0.017986 14:0.002473 15:0.73105901 16:0.5 17:0.26894099 18:0.002473 19:0.006693 20:0.017986 21:0.118056 #
10.846764274114006454396985645872 1:0.047426 2:0.00091100001 3:0.006693 4:0.002473 5:0.00091100001 6:0.00091100001 7:0.00091100001 8:0.99966502 9:0.00091100001 10:0.00012300001 11:0.00033499999 12:0.00091100001 13:0.00033499999 14:0.00033499999 15:0.00091100001 16:0.006693 17:0.00091100001 18:0.00091100001 19:0.00033499999 20:0.00033499999 21:0.631944 #
-4.2370172945757840210490030585788 1:0.002473 2:0.002473 3:0.00091100001 4:0.00091100001 5:0.002473 6:0.002473 7:0.002473 8:0.002473 9:0.006693 10:0.006693 11:0.017986 12:0.002473 13:0.017986 14:0.997527 15:0.00091100001 16:0.002473 17:0.002473 18:0.99998301 19:0.5 20:0.006693 21:0.72916698 #
-4.2370172945757840210490030585788 1:0.119203 2:0.047426 3:0.26894099 4:0.73105901 5:0.002473 6:0.047426 7:0.119203 8:0.982014 9:0.88079703 10:0.006693 11:0.119203 12:0.119203 13:0.006693 14:0.002473 15:0.88079703 16:0.95257401 17:0.73105901 18:0.002473 19:0.017986 20:0.006693 21:0.136574 #
10.846764274114006454396985645872 1:0.119203 2:0.73105901 3:0.26894099 4:0.047426 5:0.017986 6:0.119203 7:0.119203 8:0.017986 9:0.982014 10:0.26894099 11:0.119203 12:0.5 13:0.26894099 14:0.88079703 15:0.017986 16:0.5 17:0.88079703 18:0.73105901 19:0.99330699 20:0.73105901 21:0.090278 #
-4.2370172945757840210490030585788 1:0.006693 2:0.00091100001 3:0.00091100001 4:0.00091100001 5:0.006693 6:0.002473 7:0.00091100001 8:0.00033499999 9:0.00091100001 10:0.999089 11:0.88079703 12:0.002473 13:0.119203 14:0.017986 15:0.00091100001 16:0.002473 17:0.017986 18:0.002473 19:0.006693 20:0.95257401 21:0.414352 #
-4.2370172945757840210490030585788 1:0.002473 2:0.002473 3:0.00091100001 4:0.00091100001 5:0.002473 6:0.002473 7:0.002473 8:0.002473 9:0.006693 10:0.006693 11:0.017986 12:0.002473 13:0.017986 14:0.997527 15:0.00091100001 16:0.002473 17:0.002473 18:0.99998301 19:0.5 20:0.006693 21:0.72916698 #
-4.2370172945757840210490030585788 1:0.5 2:0.73105901 3:0.26894099 4:0.26894099 5:0.006693 6:0.5 7:0.5 8:0.73105901 9:0.047426 10:0.006693 11:0.006693 12:0.95257401 13:0.017986 14:0.002473 15:0.99330699 16:0.5 17:0.119203 18:0.002473 19:0.006693 20:0.006693 21:0.173611 #
10.846764274114006454396985645872 1:0.017986 2:0.00091100001 3:0.00091100001 4:0.00091100001 5:0.00033499999 6:0.00091100001 7:0.002473 8:0.00091100001 9:0.00033499999 10:0.006693 11:0.017986 12:0.002473 13:0.002473 14:0.006693 15:0.99987698 16:0.002473 17:0.002473 18:0.00012300001 19:0.00033499999 20:0.002473 21:0.76157397 #
-4.2370172945757840210490030585788 1:0.26894099 2:0.26894099 3:0.26894099 4:0.119203 5:0.00091100001 6:0.119203 7:0.5 8:0.99330699 9:0.119203 10:0.00091100001 11:0.017986 12:0.73105901 13:0.006693 14:0.00091100001 15:0.95257401 16:0.5 17:0.73105901 18:0.00091100001 19:0.00091100001 20:0.006693 21:0.173611 #
10.846764274114006454396985645872 1:0.26894099 2:0.26894099 3:0.26894099 4:0.26894099 5:0.73105901 6:0.5 7:0.26894099 8:0.119203 9:0.88079703 10:0.26894099 11:0.119203 12:0.26894099 13:0.88079703 14:0.982014 15:0.017986 16:0.73105901 17:0.73105901 18:0.88079703 19:0.88079703 20:0.5 21:0.050926 #
-4.2370172945757840210490030585788 1:0.00091100001 2:0.00091100001 3:0.00033499999 4:0.00033499999 5:0.00091100001 6:0.00091100001 7:0.00033499999 8:0.00033499999 9:0.002473 10:0.006693 11:0.006693 12:0.00033499999 13:0.26894099 14:0.99987698 15:0.00033499999 16:0.00091100001 17:0.00091100001 18:0.99987698 19:0.26894099 20:0.002473 21:0.70601898 #
-4.2370172945757840210490030585788 1:0.26894099 2:0.73105901 3:0.26894099 4:0.88079703 5:0.006693 6:0.88079703 7:0.95257401 8:0.5 9:0.119203 10:0.006693 11:0.017986 12:0.95257401 13:0.017986 14:0.002473 15:0.73105901 16:0.5 17:0.26894099 18:0.002473 19:0.006693 20:0.017986 21:0.118056 #
-4.2370172945757840210490030585788 1:0.017986 2:0.00091100001 3:0.00033499999 4:0.00033499999 5:0.017986 6:0.00091100001 7:0.00091100001 8:0.00033499999 9:0.00033499999 10:0.997527 11:0.73105901 12:0.00091100001 13:0.26894099 14:0.017986 15:0.00091100001 16:0.002473 17:0.006693 18:0.00091100001 19:0.002473 20:0.99330699 21:0.39351901 #
-4.2370172945757840210490030585788 1:0.5 2:0.26894099 3:0.5 4:0.119203 5:0.017986 6:0.73105901 7:0.5 8:0.73105901 9:0.26894099 10:0.006693 11:0.006693 12:0.5 13:0.017986 14:0.006693 15:0.997527 16:0.5 17:0.88079703 18:0.006693 19:0.017986 20:0.017986 21:0.178241 #
-4.2370172945757840210490030585788 1:0.006693 2:0.002473 3:0.00091100001 4:0.00033499999 5:0.017986 6:0.002473 7:0.00091100001 8:0.00091100001 9:0.017986 10:0.006693 11:0.017986 12:0.00091100001 13:0.006693 14:0.95257401 15:0.00033499999 16:0.002473 17:0.002473 18:0.99999398 19:0.982014 20:0.017986 21:0.789352 #
10.846764274114006454396985645872 1:0.047426 2:0.88079703 3:0.047426 4:0.119203 5:0.26894099 6:0.5 7:0.5 8:0.017986 9:0.95257401 10:0.73105901 11:0.26894099 12:0.26894099 13:0.26894099 14:0.5 15:0.006693 16:0.119203 17:0.5 18:0.999089 19:0.982014 20:0.5 21:0.125 #
-4.2370172945757840210490030585788 1:0.26894099 2:0.99330699 3:0.73105901 4:0.119203 5:0.006693 6:0.73105901 7:0.119203 8:0.73105901 9:0.5 10:0.017986 11:0.006693 12:0.26894099 13:0.017986 14:0.006693 15:0.95257401 16:0.5 17:0.119203 18:0.006693 19:0.006693 20:0.047426 21:0.157407 #
10.846764274114006454396985645872 1:0.119203 2:0.26894099 3:0.26894099 4:0.119203 5:0.047426 6:0.73105901 7:0.26894099 8:0.047426 9:0.5 10:0.26894099 11:0.5 12:0.88079703 13:0.88079703 14:0.88079703 15:0.047426 16:0.5 17:0.73105901 18:0.88079703 19:0.982014 20:0.26894099 21:0.050926 #
-4.2370172945757840210490030585788 1:0.017986 2:0.006693 3:0.00033499999 4:0.00012300001 5:0.047426 6:0.017986 7:0.00033499999 8:0.002473 9:0.00091100001 10:0.002473 11:0.006693 12:0.00033499999 13:0.006693 14:0.95257401 15:0.00033499999 16:0.002473 17:0.002473 18:0.99999797 19:0.119203 20:0.006693 21:0.91898102 #
-4.2370172945757840210490030585788 1:0.5 2:0.73105901 3:0.73105901 4:0.88079703 5:0.047426 6:0.26894099 7:0.5 8:0.5 9:0.5 10:0.017986 11:0.017986 12:0.88079703 13:0.047426 14:0.017986 15:0.99330699 16:0.5 17:0.26894099 18:0.006693 19:0.017986 20:0.047426 21:0.125 #
10.846764274114006454396985645872 1:0.006693 2:0.002473 3:0.006693 4:0.002473 5:0.00091100001 6:0.006693 7:0.006693 8:0.002473 9:0.002473 10:0.00091100001 11:0.00091100001 12:0.006693 13:0.002473 14:0.00033499999 15:0.99987698 16:0.006693 17:0.017986 18:0.00033499999 19:0.00091100001 20:0.00091100001 21:0.76388901 #
-4.2370172945757840210490030585788 1:0.5 2:0.73105901 3:0.73105901 4:0.88079703 5:0.047426 6:0.26894099 7:0.5 8:0.5 9:0.5 10:0.017986 11:0.017986 12:0.88079703 13:0.047426 14:0.017986 15:0.99330699 16:0.5 17:0.26894099 18:0.006693 19:0.017986 20:0.047426 21:0.125 #
-4.2370172945757840210490030585788 1:0.00091100001 2:0.002473 3:0.00091100001 4:0.00033499999 5:0.00091100001 6:0.00033499999 7:0.00033499999 8:0.00033499999 9:0.002473 10:0.006693 11:0.047426 12:0.002473 13:0.006693 14:0.99987698 15:0.00012300001 16:0.00091100001 17:0.006693 18:0.982014 19:0.88079703 20:0.006693 21:0.69907397 #
-4.2370172945757840210490030585788 1:0.00091100001 2:0.006693 3:0.00091100001 4:0.00091100001 5:0.002473 6:0.002473 7:0.00091100001 8:0.00091100001 9:0.002473 10:0.002473 11:0.119203 12:0.00091100001 13:0.006693 14:0.997527 15:0.00091100001 16:0.00091100001 17:0.002473 18:0.99999398 19:0.5 20:0.017986 21:0.76388901 #
-4.2370172945757840210490030585788 1:0.88079703 2:0.26894099 3:0.26894099 4:0.5 5:0.017986 6:0.26894099 7:0.88079703 8:0.73105901 9:0.5 10:0.017986 11:0.017986 12:0.5 13:0.047426 14:0.017986 15:0.982014 16:0.73105901 17:0.26894099 18:0.047426 19:0.017986 20:0.047426 21:0.097222 #
